-0.011326034332967793,-0.028024699498396928,0.032878627935504105,-0.07401886074011015,-0.018792036744602777,-0.011721750667913698,-0.057798481268872666,-0.020600105570157606,-0.09710249576791329,0.06889302715419858,0.04211881038758614,-0.010525109746271877,-0.09345769105459492,-0.09124738912117729,0.026341357475399337,-0.010368297863723007,0.0422927673984825,0.03450632833660511,0.007558505530935199,0.01751546433873356,-0.02347814430726222,-0.03436660974133108,-0.017903753979718596,-0.13659585466391078,0.014722576530718243,0.043456422611704036,0.06151006195547407,-0.07711100637827231,0.06985622733520677,-0.03972124828019433,-0.00574293167856136,-0.07795432699345987,0.05091377688229861,-0.017489211609938583,-0.037067706803060534,-0.03906989790935243,0.03863274115274947,0.015760495544787978,0.033551876870289245,-0.019045732880216285,-0.02095865052836779,0.0007858288587772114,0.03820242267092891,0.07071587871416898,0.015351966624606547,-0.05358774541187573,0.03558613402563188,-0.0629455267658011,-0.01066824722463438,-0.04566745892809438,0.01737794224987373,-0.05063140310824009,-0.08197335495645156,0.014343383185831157,-0.06556508123146082,-0.11555480342863149,-0.05515050044273138,-0.0439501229991907,-0.033623899665553396,-0.09316060054999123,-0.037378492596126044,0.003854333132012234,-0.011632443794158178,-0.03545813486975682,0.053028959074825154,0.015346495858295141,0.0068416544628952134,0.09952234785895225,-0.06727635039809013,-0.05118087715922491,0.03805098618768476,0.11914907165701676,-0.015697883199903544,-0.08749796757996799,-0.01917796321190042,0.018180787710712024,0.06373026853118892,-0.053512249194351075,-0.11679190984225164,1.875822038417866e-06,0.011868722504674379,-0.08052163574542519,-0.03849133782556616,0.09937360698234611,0.031016188506822574,-0.059156384888947484,-0.03955794442882519,-0.015504058986358973,0.09696678318744263,-0.004019003812353153,-0.07569499900994676,-0.044023755808961874,-0.03734633048486365,0.028411832422639362,-0.00880863429933812,0.008160460120161332,0.053886676075178774,0.03481875180264254,-0.007009232714907088,-0.01670823901313522,0.035124014981478095,-0.013107219503337571,0.029121509150359742,0.03797752754260222,0.011556235644176667,-0.005994858196845195,-0.08249396677896877,-0.028770155254648606,-0.009706308832821527,0.025893405045623315,0.031226185637466188,-0.004862617664530651,-0.07157869325523529,-0.00026847021004117454,0.034446911506065506,0.057858918526948064,0.0009696122532206756,-0.009626252798477768,-0.04254762220914995,-0.021075208595825973,-0.023474019167882287,0.03458851524387883,-0.03120243881525158,-0.002521587132966553,0.006582664512612494,0.10720607773173148,0.016214412766181664,-0.015507256123865975,-0.02953054061302206,-0.0049207315341352805,-0.07504748940333279,-0.06071893767742078,-0.0283299139853316,-0.10934913954557775,0.034705148665596174,-0.0874617204725298,0.02141240182537949,-0.015204208899889927,0.028376319012539536,-0.06235731348326466,0.019264920757369873,0.0072617130916307684,0.05358298694622718,-0.014588552255064526,-0.07689384774623799,0.0030873238290719004,0.0903480076567472,-0.07882959381017503,-0.036897406706694995,-0.07602803578491732
0.01060906547014167,-0.022472478923484595,-0.022783145611874712,0.07062005211900467,-0.08514229448710392,0.01749132507077096,0.05064070732491295,0.025916006266167687,0.0029561318610035435,0.04680264412305455,-0.10468915286025357,-0.004513004991242575,-0.0004368008237269885,-0.01753254004999009,-0.08594669689566066,-0.02257297371072879,0.006177909279192771,0.05616533609614568,0.0015721764605259713,0.05554892419516006,0.10093986412905695,-0.07663782341801728,-0.03215615892198752,0.0027321707992555015,0.032409205847412886,0.015453655405145423,0.02762870669034956,-0.002813527916520827,0.03870954332166538,0.041209650738862603,-0.031413470857268505,0.019299780182618086,0.027874140691760946,-0.0004389192144371859,-0.02856617064571062,-0.07567798857074758,-0.049137306337162165,-0.08807658887095593,-0.00886593364944513,-0.07390800357634447,-0.009463451681868127,-0.02021135238871243,-0.07015012482924522,0.051627572704305985,0.007374386695716737,-0.027586125661284426,-0.06448309497285729,0.013189833394509623,-0.08841631385249783,-0.04744187366052569,0.01557902673900522,-0.04574677153280493,0.052680279967192364,-0.02480460943644936,0.013565765443586003,0.02327414785464054,0.10611409938321464,-0.041040799778274024,0.05128591622120732,-0.045893460955845795,-0.0327912561874934,-0.010295905410714661,-0.07279446808634243,0.008967425275639934,-0.007988920997823992,-0.026477342681295098,0.040313213436729604,-0.026812929580093833,-0.042233185344841176,0.025510857327325828,0.033693378889046804,-0.06265265702160577,-0.054097537350743956,-0.009142489012642358,-0.009042013968505075,-0.009525902510515893,-0.10760974566451338,-0.09257111758682691,-0.019505836318147476,0.07170813996444544,-0.07603493498690922,-0.0039939414834854895,0.003439627175511306,0.06775915767541883,0.04609718177995821,-0.0006672378656150668,-0.02282495095310561,0.04429063938007905,-0.0553984023101064,-0.031985966013418465,-0.05370717788147384,-0.02004273496290022,0.007403017593913883,-0.02097873469532248,0.059504614742207126,-0.005094945511471743,0.08180404394995587,0.02348323378957413,0.015664385266352172,0.00884221799390141,-0.08257775784177278,-0.00045829634839569117,0.01593467807301102,0.07509430801962748,-0.09349944841080174,0.0852176238810972,-0.051216280725414474,-0.00922052240326395,0.01464121497799702,0.11858356598205724,-0.06987386252750989,0.01055456011582728,0.0349585501884679,0.003951409213447342,-0.05078323037743954,-0.010439491119606077,0.03411623975242359,0.01488158722087239,0.037494192685536734,-0.03616173461287815,0.014477591529251035,-0.09999028946466207,0.06103634502652095,-0.09813147931604843,0.04392716994409358,0.018470204283899738,0.06996715055105344,-0.07775189552106704,-0.0318258956983007,0.0014883113059254588,0.03191760834206259,-0.032488711446134376,-0.054660692866851,-0.11429039142810085,-0.004255597568232584,-0.09797709211873246,0.01892669086815796,-0.0008461583711386731,0.0166465479602309,0.04347291622810973,-0.03640906328906561,-0.008904399661242882,0.04217153365439824,-0.02293134845694595,0.008708650259404862,0.0035695830717950125,0.020166118313298526,0.007812863090853554,0.022731988594825468,-0.05963780605904524
0.022961413222261928,0.017032932510740083,0.06559749049216772,0.053238353085072125,0.03342295236439187,0.05112660628656992,0.021242319933813703,0.00969012294147574,0.04629222445071167,0.038845077468335674,0.015740014082339396,-0.11255010340250111,0.025470028106370925,-0.05168724852421835,-0.02416578381605898,0.04702072623470957,0.07848808850875581,0.03224233242346506,-0.014159850487134293,0.006212642085086765,-0.00030410374438943997,-0.01674637318790315,0.059142460813216224,-0.04162419558833474,0.06437717802264496,0.1020296454256261,-0.010904876134387837,-0.011286001718177317,0.02941770109286212,0.06346149363159218,0.09073186094478729,0.04904802644044731,0.03038270660700894,0.1172070205568241,-0.03227768230271638,-0.009646916609190264,0.019665305755954265,0.005390492536136386,-0.03055934975786735,-0.047966648163935977,-0.0878605141504362,0.02070404332788031,-0.005707633760785929,-0.08394013024219521,0.13067396459114392,-0.018041858396440326,-0.015176363302754653,-0.02462680385840758,0.09049768490009849,0.07813320547270287,0.054242126785584086,0.03114809351413023,0.030543344721846246,0.0038774118475819073,-0.06447333701243008,0.01301336607544839,-0.017233253933755768,0.01597234131135004,0.05358728755945776,-0.0035018382023146617,-0.018461583413900064,0.07829430622312714,0.05335366118546649,-0.03726004907854437,0.001028814743255288,0.053819077074337,-0.02556659725791959,-0.02129945227276162,-0.07096753331282256,0.011597698216851197,0.03770189013947428,0.01398752080097961,0.02281133399179219,0.05090659525757009,0.010094478225195866,-0.07405759080017281,-0.016947831732919253,-0.048672862469558445,0.029415117955678038,0.004144573830957545,-0.016846460481971255,0.05074624401982811,-0.04514572367506861,0.10047371587998513,-0.012891200410101725,0.018595782255822587,-0.04219020821512065,-0.06296588894962028,0.008773851358089954,-0.019453037326616816,-0.06357555187994622,0.06164789985004821,-0.07978690297709519,0.036102382778059265,0.07520464197816158,-0.08359690309996477,-0.09865443682249514,-0.03441763431352121,0.04760861034404903,-0.0051623163132875705,-0.10894406250123204,-0.07137501162282,0.027504541293844397,0.0026426360279753376,0.040747363541764156,0.0024414715050425787,-0.02630216885507568,-0.013465916848218922,0.055911938090215524,0.0022185510278863525,0.032506385356930595,0.06007246436538158,0.008023771752300766,0.032891961857963135,-0.05053269979560982,-0.05113470581397405,0.00022812182242736137,0.012581494121138017,-0.02572067415584364,-0.027680279788275086,0.014750626306230799,0.07644093156740304,0.09133144501373791,0.03456172250162823,-0.03455544970355005,-0.09911574064008474,-0.01589661320948045,-0.006525001955905617,0.002190565384085367,-0.01410649129441036,0.04312131956545544,0.025486215769563315,0.010889374574246087,0.005164115635099416,-0.015411327017182327,-0.0947761471994208,0.004856950813191284,-0.018110537917569752,-0.018769401380646623,0.08943153704357133,0.021411759014872182,0.045859702906577156,-0.024785061486481685,0.06458732471239609,-0.06430180572445975,-0.006592471847327145,0.1051112878719251,0.028860631888535947,-0.06892917479013295,0.02782617325206723
0.03676727928863923,-0.01971433086198823,-0.06036076968284961,-0.04457915835837507,-0.08175149900813064,-0.01348240046133842,0.05849485524776923,-0.0017458959843273945,-0.11036068422263567,-0.012998311482155769,-0.0547327336942747,0.09919747884950546,-0.010445686110641594,-0.036706925645153966,0.04025547080455955,0.04809850872150951,0.05688218007627594,-0.06331277152670974,-0.02479462405086519,-0.019423289282702042,-0.054255259389532975,-0.0064929681845417924,0.05145559710443657,0.06597359217339582,0.013606042639121818,0.006392233852655876,-0.06282294107629595,-0.04413885847103065,0.004060273556912549,-0.06996075303066027,-0.006157637104950255,0.04518389514929274,0.025223579210240977,0.024173365434501184,-0.12708195958607119,-0.00696310629778778,-0.011125642779398854,0.03802039659884593,0.05409761571137511,-0.010161953672888663,0.07170652452972667,0.055403437666020336,0.03385832228456002,-0.08035766131627722,-0.06946007548118481,-0.08224188950652764,0.03847365583945941,0.019316071532804457,-0.06562173054552459,0.013810743791493996,0.09045529883953228,0.11608853805085836,0.07000661883446463,0.0001529139596650983,-0.02816522465344395,-0.017675421422701343,-0.030992394188782958,0.012859505763094832,0.0980802839781419,-0.06298518521884544,0.01240174943655662,-0.04058714065388276,0.02309171477021331,0.05404023178799269,0.010166079464106276,0.02315021186489271,-0.04123752254351552,-0.07843365297663342,-0.08382843152300955,-0.0513783321040086,-0.02526411082462313,-0.04217530860065016,-0.03417972263308177,0.054057404015280884,-0.03969494011816107,0.031254764961957296,-0.019926293872590078,0.06424792266067363,0.021331781753490493,-0.0052637580379271244,-0.04014746395172232,0.04281960812885949,-0.09124423520210231,0.04575408481343546,0.013253278105761107,-0.03800167235489679,0.03286033815152154,0.027645582962853216,-0.041978422479432,0.1089994836798818,0.07374163383449268,0.02410162407167474,0.13793677079173167,0.026175101720324136,0.0712770498250001,-0.010761080596931986,-0.03755618326928277,0.005727644707654091,-0.014364224095094252,0.03837450333038982,-0.09156021975991817,0.04293020021531208,-0.039276001373303907,-0.017890047453254437,0.0839052509206952,-0.07821525331444347,-0.0904797469201599,0.03610933096242946,0.043241821242151826,0.06512849816516407,-0.07248132067475666,-0.0050382440100948545,-0.04167310533829476,-0.03390207800606577,0.050170269126709126,-0.028862500776294157,-0.011692396507985259,0.11812366131140259,-0.013418148746534742,0.034228785761203806,0.05186451661667808,-0.07302527716570631,-0.033552291601200636,-0.01016595234909937,0.007394486324597229,0.01045287808591132,-0.007402747664404511,-0.040975773950563385,-0.06357388401905142,-0.06242046520199301,-0.04942452394665551,-0.030389301951587462,0.11219354214302094,0.1087582669683084,-0.03617178077281618,-0.12714336075279337,0.054181056756404444,-0.033298613814707084,-0.024596744778425654,0.05355312283692598,-0.001612033491846086,0.07681941088295999,-0.042447123575922445,0.02952912433857691,0.04823309152422083,-0.017564790245563407,0.011695503621858967,-0.004462197819298229,0.054915743409087725,0.01960371040803093
0.04330095858574251,-0.010033052728026315,-0.01699022828913136,-0.049193148213788916,0.035115993075181436,-0.044871647837576245,-0.019265427437416716,0.027131136445211836,-0.02489438276946583,0.04787562181963846,-0.13128440832902458,0.04387086193757307,0.0457302864453503,-0.04385673475534249,0.04596980432513981,0.05552655787980875,0.03578595804671426,0.005619612424640341,0.026087668988990974,-0.04927182425620312,0.09461205803011821,-0.04567586672823632,0.049670428972586854,0.11749531599408579,0.03283233980024155,-0.009675037257663622,0.04292943529047782,0.008133015180896272,0.032387546570732964,-0.0032161902249110133,0.004609541996562434,0.07008698538899175,-0.0623534607743366,-0.012419690206964087,0.005787273076574995,-0.04464453839983605,-0.05426892732368847,0.0880053721760638,-0.022405534451246444,0.016711951400257212,-0.023045849147666563,0.015557953325934395,0.013369255679289588,-0.016584722482931157,0.004742422191513574,-0.07696451105865806,-0.03037185503976024,0.01694190143491348,-0.060562342624377936,-0.03387151366637265,0.004137322286900556,0.12198147082170094,0.06482898084949248,0.049770418988786556,0.022345196044995904,-0.01614650535485761,0.05236743168161628,-0.009305756278540888,-0.12235652114386504,0.02573381684091767,-0.07548764990250623,-0.05743299844976321,0.019812371670269148,-0.04506885831851183,-0.08597105074388399,0.0024671107981465465,0.03221286904440602,0.01824124187299432,0.008083463185166463,-0.0603704876298162,-0.02899642520813017,0.025956314003335028,0.030783607263581186,0.024765432006851103,0.032135973646036944,-0.06709550017580909,-0.04138175667164392,0.049724511508092886,0.033225896231235515,0.023500021470142445,-0.0488316612461023,-0.009139733089849845,0.018954354588542978,-0.03212460669861022,0.07830538485148103,0.022478034139107733,0.001140275478133611,-0.03142144853154162,-0.05317114059628096,0.014596592932639572,-0.028026331509456572,-0.009036788161473576,0.015394120322019393,-0.1055210997779273,0.043106363562717485,0.034183427164075235,-0.029978684452708036,0.07770799255770768,-0.006448195500201446,0.0014940321658311634,-0.04267986355953018,-0.004272182047052668,-0.01764738101434789,-0.06779718012818432,-0.037943230003712226,0.0004904725871269206,0.10916828429292753,-0.004055173272392353,-0.050077911201115245,0.07343121749917317,0.04798179518047876,-0.06152981946767089,-0.03744299269679952,0.02137970682935551,-0.018386498415825105,0.022863754292661766,0.03821704872959946,0.07566568987593929,0.09477440676926865,0.033618282482745024,-0.04466905912566952,-0.05635302735447681,0.041905350247060616,-0.024610999250044722,-0.027915056038418665,-0.038375681002524205,0.07627952165982888,0.03718405819658671,0.0022009050496690523,0.01814771862474598,-0.0019172957633839664,-0.06671365058988904,-0.08799905087931927,-0.01969585133545868,0.01218378683202119,-0.012029643748091784,-0.017190843442970498,-0.08821821071540313,-0.00848905589995977,0.03893799181038854,-0.136155740700918,-0.04242493002668509,-0.04389300185071833,0.0006078270756946761,-0.051046796095080615,-0.06722287437194663,0.016942293114880148,-0.031286289932856544,-0.0017446608838976342,-0.047136852175700905
-0.05517264797427394,0.028452654109398096,0.05012089731605977,-0.05976626298215734,-0.023318269662285982,-0.07138771529538067,-0.027559868609552986,-0.017857668254264453,-0.04768543887630298,0.03740525443617843,0.00043218913024349137,-0.05082160243130371,0.024832070936710873,0.033915282920715904,-0.0175280381995595,0.004876662215935817,0.05929650372500077,-0.05661919644295666,-0.03419759657776081,0.07155913092837948,0.026869973256759744,-0.05493684957880252,0.023835978484449585,-4.41770542513017e-05,-0.010147431036300357,0.02266683348434175,-0.03626996219299145,0.05540487187392868,0.029042609740562057,-0.037491770981775384,-0.0038416503883235732,0.0024895329180645727,0.041443202391100185,0.04175581758912307,0.009916937830023434,-0.014012422597919448,-0.008797545070278977,0.027290336559095126,-0.010630753771318184,0.02366971205305195,-0.026282255893746904,0.061681804438395466,0.08092145982539464,-0.04142903000926602,0.013674876915701701,0.0009817227948871008,0.00015204135524344808,-0.05171024204313842,0.0021948547037011546,0.015142790111499865,-0.04397063932319743,-0.04247666769006429,-0.03390744803449591,0.0071363034142034095,0.030205906038726207,-0.033315513399870184,0.03864421510438357,-0.003772743002478703,6.775375383651169e-05,-0.03510856515140423,-0.04944153989112781,-0.025568410959144895,-0.013844953333008305,-0.1295678801550267,0.13045883966057475,0.08457645193277877,0.05802712135719456,-0.04193733122827008,0.04653697511579702,-0.06258453940080971,0.04759789445836079,-0.05483812904425314,0.020155340649377646,0.021693310136398913,-0.007137504067488109,0.04189007393136554,-0.006616889602432434,-0.03553893805975128,-0.009369235903760183,0.005426292378532607,0.005417677802658131,-0.10551968815325947,0.0013434384380259566,0.011152379260843313,0.03226631646201486,0.054167217766393536,0.05391675529091407,0.11197582326850995,-0.046544517180318504,0.039839713637792644,0.05563069532092819,0.004999209040328636,-0.01486629622247492,0.03393119141539884,-0.05811138924122676,0.04067760193287295,0.05110715979330221,-0.004172244548235852,0.057405543635524886,0.04115218205587899,-0.04639419547201141,-0.01938472868681555,0.06415731841042105,0.037796798922571095,0.051484245796755077,-0.15198791495315234,0.10094306570017907,0.03897666052973819,-0.002576028921847349,0.05919192961307717,0.03372642640160352,0.01493137139032583,-0.04394167987852811,-0.006209496556256105,-0.012064956643165141,0.009459614028933897,0.058843827739440344,-0.0054967560187853945,-0.029856596844532943,-0.06723206598459827,-0.06104545012111899,0.04741227580851572,0.048791018980325895,0.05176520130994874,-0.03747815951329957,-0.043819404999820316,-0.0394096031092899,-0.07035690450737017,0.010531435416060268,0.04958254739778192,0.03243537322976772,0.010254550745295635,-0.010292000115728454,-0.020478849779979613,0.02003133039584048,0.028383386721020275,-0.06339411994390917,0.0027590352803294354,-0.03511970103885126,0.04902162365137542,0.05079375394250442,0.0308498278545382,-0.06447941198973486,-0.0081660974779451,-0.022936610559104294,0.07562620932387204,-0.10968221383328743,0.09009773220715782,0.0007203839685645741,-0.006031413609416084
0.11382945186971549,-0.031542103693238774,0.012140957679905305,-0.02162630716798534,0.03689206924984053,0.04270158761449345,0.05673237194360928,-0.04388107958080937,-0.04821710292181369,0.10242296431400658,-0.0211865005161914,-0.02246415720702562,-0.02641318865231146,0.05231138776447431,-0.06598968773467528,-0.05505332082141052,0.08778244092371819,-0.007636829178600891,-0.035104863443149344,0.03178956025488474,-0.03946441838508117,-0.04568661379714518,-0.01741219946037937,-0.033182695280248795,0.03861147182741441,-0.02177789351702924,-0.04643503945850464,-0.06338563956484383,-0.036069731144664705,-0.10406174049141904,0.056079796605677384,-0.06878824765441226,-0.011975868715081368,-0.09018142764984349,-0.07690358482005978,-0.012313966867275103,0.02030040943829474,0.06770664500710794,0.06242753142411273,-0.04288309300336841,0.05081370804124471,0.04893515079079513,-0.01930374045360093,0.04238142906922201,0.11140134520756961,0.006403762760566042,0.09040692555628213,0.02060742085503482,-0.02614822553838261,0.0061710613418137165,-0.022355873996896355,0.0375510785085539,-0.02542165397747686,0.010254542760634172,-0.0010403359394733488,-0.04509542579964266,0.08207229752035446,0.10007262651224803,-0.02320022818853299,-0.07005850875178096,0.015403138611465339,0.08173919878288176,0.014023066367214834,-0.0165052349607962,0.04463349949366287,0.03576493315217297,-0.02735022954703332,-0.06202336207333874,0.08065305457890629,-0.04509985625588771,-0.050368843078010254,0.09605653077964196,-0.06616514492703421,-0.03129158601349047,-0.04355832628318279,0.0031039186501304375,-0.13392735645898202,-0.05824979203090257,0.0028525419487659114,0.04674826557120204,0.029117807347536374,0.0028327209032366946,0.029490715484608906,-0.00498033451991114,0.022381294073914842,0.04968730428514369,0.007751498220668319,-0.027548955511976326,0.04085764866810512,0.1240171953555238,-0.06651964786092654,0.021499764640358576,0.023651873946939104,-0.09234111013025226,0.012337137182279165,0.011889032747309462,0.037727581619031614,-0.00434034919182542,0.03872021414572045,-0.013586619841938227,-0.04311494504108129,-0.07355356546954943,-0.045814418541333266,-0.09767586023701298,-0.025862136837811227,0.018205082091833233,-0.05698661865154283,-0.021255687760683727,0.1290150280955964,-0.05430874114644068,-0.003321966771155023,-0.0018716364988970366,-0.07047186468006801,0.01663630494334278,0.06017066892646386,-0.00992504050402259,0.020288963823115725,0.04496017148944368,-0.011409537007999203,0.03204399794033861,0.01987995697672843,-0.060104295172801823,0.02939711839320016,-0.005197331639677205,0.002393911395935116,0.0700065560569161,0.02708897274133166,0.020402518590647917,0.0005050669042545345,-0.011061481486650595,-0.04804385743423502,0.01837222572450255,0.001173846676770425,0.08690394015971303,0.018363130297285094,-0.08163874270166124,-0.024252148782751046,-0.02827223603303327,-0.04017134310826673,0.04370948317226092,-0.04822442632382469,0.06698202728121101,-0.004958109615108896,0.034252352326662454,0.022618268263676813,0.049708420498594155,-0.0006341710745209211,-0.01862479739466454,0.02215816542813742,-0.037785467101719816
0.024654099636836957,-0.05376391519562068,-0.06307232872287159,0.0376273240069747,0.05427761813582161,-0.03220016413013116,-0.04094988786506968,0.03540811071986778,0.022374496412764518,-0.0031159790365949073,0.006972423858755336,-0.017327621154690536,0.00925710902130704,0.0325409141219236,-0.0633316515017777,0.01955454589809811,-0.021214393830323024,0.05624074391426634,-0.11814591273852963,-0.029160074368070495,0.0525018055464027,0.01536886686789961,0.029626011286369616,-0.06551203639536195,0.0166184265243679,0.06611178856344256,-0.007417677071081714,-0.0666993719693111,-0.06779517712639091,0.005973672722841125,-0.03641040146401408,-0.015846397571443217,-0.028804781292046572,-0.068669026238634,0.014560183916721554,-0.1271289473341122,-0.056190348956906944,0.029687902575407456,-0.042209990317334974,-0.08219918526280466,0.068602483058074,0.014671182195584375,-0.021607170828456455,-0.017147248017619195,-0.011104379364304404,-0.0196906853023853,-0.09363450889154505,0.013212715228354209,0.01970805228657792,0.005367056275113298,-0.06326662106554636,0.04675054324800686,-0.07242255521111171,0.006040479701374619,-0.031783669223513264,-0.0966396068860766,-0.0025230626343351946,-0.02391142273847454,-0.08690078828329088,0.07753436718819108,0.005338189311744681,-0.06412955686410224,0.02771578921356072,0.025248856765551147,-0.00017471815014717657,-0.013903586693787834,0.018246520103356863,0.026451795412412268,0.020537228599569197,-0.03558789897597847,0.02142536072425735,0.05970851648599578,0.07164472783008916,-0.02789449231323027,0.050233176173171974,-0.03706727406878771,0.01379035251543442,0.025747529469017948,-0.06413175732983352,-0.09278446702584213,-0.05354092717852746,0.016111338638512954,0.03755344358652897,-0.060242855374399225,0.03737228385284564,0.0416590749656543,-0.02178013652249058,0.021074438071860546,0.013810453409651586,-0.0465185328406613,0.04963367958604443,-0.01815179236097394,0.05020073874709588,0.003945535570607471,-0.0873140273629345,-0.05498569614646648,-0.1251648694525806,-0.02880184211808035,-0.014730040692565338,0.05815672625972859,0.04409806391305213,0.02477915513483794,-0.0037647167114949723,0.07605143894887618,0.007018769263383179,0.08329934718547692,-0.030791207136462512,-0.03926655446329129,-0.012133825794157109,-0.008442680092870017,0.03904781005313778,0.013438577086565488,-0.0015717957006951269,0.08210660257057352,-0.0214641557181659,0.009742975478526181,0.022723194617404855,-0.05330333680347278,0.032942763087591365,0.012297359376995878,0.0017783092382885465,0.04894178606417643,0.07442052873800725,0.06996042662180701,0.04226037230209628,0.06710068128980315,-0.0017925053352331863,-0.07056854183158781,0.07263775179116251,0.09941928548988327,-0.09820271227264205,-0.05115856274115048,0.0387836411298181,-0.044827182363300105,-0.028797113126278404,-0.028873074606717807,-0.06767550150277805,-0.041439973200826125,-0.04122003888570915,-0.10370638179772508,-0.0264192856382678,0.052780757552364124,-0.11064850859649034,0.00017159017611922454,-0.0018697740772204829,-0.009734606920195938,-0.03116713017785887,0.05422657000192158,-0.06201491239600678,0.003542151429354832
-0.029455108303010052,-0.026113748975830756,-0.009544197553348123,0.009881380984909,0.03374692657348959,-0.060800678235816315,-0.028897656772302004,-0.01854168605278245,-0.03226563154264518,-0.02277000006429556,-0.007992747464210706,-0.014851034530694751,0.006327618086344869,0.037498588026283364,-0.025660996993198237,-0.007028104369543213,0.0032678979280349246,-0.01907280205908237,-0.008363744002903425,0.03479832878748432,-0.02028436758934949,-0.11966971742930801,-0.06778410123316503,0.015913840716347417,0.0660569127064188,-0.0006529794277203999,-0.049348267119877665,-0.06383293716182041,0.051383250905251844,0.11354179163087585,0.09591461663441411,-0.002036213098404167,0.022496052539870862,0.002504607246821263,-0.03887783029549096,-0.06800162985188674,0.04943251114738375,0.016499584813512866,0.13692306652213335,0.013693068439396801,0.03257128633101888,0.0077085224912903415,-0.04403728988649675,0.06073027779143568,-0.003946579687369334,-0.05385731693929508,0.04129480861497549,-0.026742239636791523,-0.02336435853040518,0.0030556103378042467,0.030979295960278087,-0.04879584924986864,0.08458290250361537,0.01881282351505389,-0.006726508394050594,-0.006051775383339507,0.01244760526169773,-0.015585616226310897,0.01479199198646888,-0.13952270086336913,0.016526864740086446,0.0627727776464188,-0.014584129274166805,-0.06046121950036785,-0.03912795618460261,0.06318686857151745,-0.0006187160911822468,-0.04050220451310054,0.03091459730865719,0.022481003442355183,-0.005301644576693912,0.0037345028927824016,-0.06884613941030034,-0.03205596781343941,0.03473283261581115,0.017481623227548176,0.06697154392660691,0.017123405827612098,-0.01634585601326152,0.014977531571805352,0.0386599194104281,0.016224137943890594,0.048062432430445536,0.015840475262762898,0.06451444001673753,0.022901662364348194,-0.017919458067409823,-0.05846069750255545,0.04380042259246002,0.039404558664468806,-0.0248339180759868,-0.02196349337284712,-0.055923439856167545,-0.005784979334802594,-0.04608009824665584,0.11153225666629171,0.01762402419612403,0.006258652333710749,0.03197975456475793,-0.10295859199901886,-0.02973790442331881,0.11047878145374093,-0.0041841968153480645,-0.027962964637068842,-0.0237426261721044,0.04384140030175982,0.015473085486169219,0.002541252943045079,-0.04497625457358908,-0.056595193241196676,-0.026638777246583714,-0.0771016632913463,0.09089177036179664,0.035458334541663354,0.06855517696082244,0.04477010896750542,-0.013476728447866416,0.06448352153407949,0.01640120751197209,0.03936331046905677,0.0006640528624279333,-0.028390931421638416,-0.008580825908299354,-0.016810934275619825,-0.08915657284976038,-0.08368152848188311,0.012420807685215602,-0.009251998093267287,0.031167254322625047,0.011270316883271752,-0.0217760539852731,-0.1228742622505754,0.05031562475154442,0.015500931282677185,-0.04026629466465675,0.0147029715002005,-0.04314188472064616,0.08765156942322112,-0.018439864533375983,0.05277539417015161,0.015807869048804563,-0.06358140553308994,0.016767887991127484,0.04899654306077299,0.06772508555957879,0.04545983748137807,-0.004736864836450132,0.045269600094488646,-0.02222664171527235,0.05008794972131682
-0.05061101952889052,0.07219898746383403,0.11677243039272715,-0.008050285953850905,0.002167481348466369,-0.0349285462343265,0.03770331576748407,0.0287825941188864,0.005498508805914261,-0.11007529162414612,0.01119192354626323,0.06259561948462149,0.018420608685413415,-0.02778466995913243,0.07327346785152111,-0.006677968210623537,-0.014899785158414284,0.1210426313284831,0.002602283582852131,0.02151151536606824,-0.02077441812427345,-0.03461811652244462,0.03994291236464521,0.049802394736357586,0.1084044266406905,-0.07333488966448258,-0.12956417140650486,0.014089895979338437,0.03592382498509488,0.005869383114000469,0.033406007020691894,-0.029937286111434088,-0.004481794628077634,0.003108293268158872,0.036512757749290255,0.02578888631617867,0.05572076751779777,0.04427080772499209,-0.02596582683768497,-0.06274035118553717,-0.06409688352086212,0.03652436620892713,-0.028755909303993993,-0.008755130120823776,-0.040730423344446355,0.032507773297413695,-0.04667220301486238,0.03650642877547793,0.004663269435843699,0.032536789495264375,0.014545271009060027,0.05394546937294526,-0.0010530370291932417,-0.07498876884173869,-0.07753716896174781,0.030886348701899585,-0.06279947810882051,-0.015292599840513062,-0.0892339838486813,0.08440383087339154,-0.0010687718785251162,0.019364443869270286,-0.05792426738122539,-0.02447283808171952,0.002986089360991371,0.014669216489266555,-0.06299844363808245,0.021517907610627884,0.0002667490499117699,-0.03796850443759438,-0.017408428635668216,-0.03588104724740494,-0.03584649107435782,0.07731453381067609,-0.0680128519188747,-0.02586964781224136,-0.03937927004386993,0.08494662802132799,-0.008396783217367473,-0.0422956780107551,0.04133791041596888,-0.016050912385083833,0.052364979582672326,-0.06992900774865174,-0.01484706540349918,0.059453091085100336,0.05190552810814255,-0.05552185450266713,-0.0076611957273077765,-0.010469722109510662,-0.012789178854414305,-0.010230799118305156,0.05081939559486635,-0.08316168067779295,-0.04175771899924016,-0.03672616888760812,0.004212043576759761,0.006470889568361211,0.10939193474670113,0.014842544410277029,0.0261129996620279,-0.07274573862066148,-0.1454622993248341,-0.008007948642252315,-0.032830817260765116,-0.058687186836084836,-0.013135176574102458,-0.0339195745322816,0.017768600056305487,-0.0326205281383524,-0.000711337260845058,-0.054685081078488094,0.0719486344909547,0.0036814809826239184,-0.018310098274689383,0.16491472613700214,0.02838659855600362,0.10392229224993116,0.027558047976989766,0.025725577351407434,0.06532013281820398,-0.037845288103074144,-0.06085260454891416,-0.00025218039528909834,-0.05366816065384193,-0.07104627972843702,0.035859927171462136,-0.029778649706350975,-0.04848620516147546,-0.013275137615271566,0.08681938106688228,-0.005328439731538747,0.0069965062108709045,-0.09474073214664742,-0.031540130171915974,-0.07666328753459899,-0.03290146968040217,-0.05287275602352691,-0.017927316457310397,0.02818877755211669,-0.059032722380628684,0.018208171752591575,0.01644017726888491,0.009407790460271863,-0.00479241123103759,-0.034859015195358535,0.005175737284952646,-0.10526561312878445,0.047331815736240596,-0.02366393089757024
-0.00948274317670674,0.06050584742055731,-0.007678336587960372,0.03062627357755928,0.09807419183958485,-0.13522542154621234,-0.08532352591991786,0.038255902609857555,-0.0674916784968902,0.06242354579794907,-0.005062894827156253,-0.031177715756753207,0.026533804622536804,-0.04088936303883023,0.005172706676350441,0.03143288596777148,0.017660514939316967,0.03625822035760996,0.05485634132626802,0.037013493474294085,0.014978995600456253,0.00809161848695602,0.017478356402066804,-0.02456245800617203,-0.07212798913847995,-0.0013672701311681114,0.013515453454596165,0.04422085730318301,0.07041017158375414,-0.019037859027988092,0.04759720876800608,-0.03531531412747067,-0.007760293788783188,-0.04639448480798383,0.025288084022011183,0.07738913316915502,-0.012619303460060604,0.08146115806188964,-0.025733894581592726,-0.07042316858185095,-0.06691810788612529,-0.030171533489322368,-0.02486173681479422,0.010317384256795972,-0.0405999764055818,0.026535296269100422,-0.03451750064082064,-0.009645208610894985,-0.023590031557680906,-0.017520195233745303,0.036213277009994646,-0.04242351306425266,0.034624045010547076,0.09741155676577191,0.0855017595428434,0.05601391122076827,0.004523972352887801,0.03165700740245569,0.023718554421517983,0.012273828639113998,0.07206827010730998,-0.07106508364126224,-0.017751824589940082,-0.03550732187602391,0.06687401799402998,0.09857328322453873,-0.0649190923292027,-0.03089274920426179,-0.004228857127697127,-0.03144846086108221,-0.041342480201390266,-0.09521888124642122,0.026491494136900617,-0.008169187930864148,0.14315854764819838,0.03610544107094753,-0.045048455310890974,0.09281457121952234,0.024743652383296587,-0.007285575452081577,-0.06569413105959862,-0.07993174007066263,-0.07146142438869225,-0.05846112767959769,0.012671857658811606,0.007484225050975439,-0.03895233202942703,-0.023808590110739315,0.06663356423735857,0.03855388590906072,-0.11791499941112772,0.010289338620234886,-0.016690922410813044,-0.0012268858436510165,-0.04381424038603645,0.028082249802767446,0.09065912455118913,-0.10180815675904875,-0.11039035232714119,-0.07208149133111419,0.030505806735318757,0.017846542541815266,0.11017498176100284,-0.0400809150554371,-0.06727287408918414,-0.0001333994103047359,0.03435797555484744,-0.061035654521109234,-0.0404481485844456,-0.04779691918500172,-0.0011673254226694687,-0.005090984293626643,0.08303364315234159,-0.06568030144046753,-0.030540076823962724,0.10712153597205837,-0.04803764038223148,0.027382329757756167,-0.05850049642861192,-0.058629424770049406,0.05921899493508867,-0.0531027280015639,0.05376295289331412,-0.03957814929026137,-0.014309322172673106,-0.044879709170514835,0.05193351538034243,-0.02095848838697261,0.04245743223095374,0.04104604918394054,-0.06948304039191788,-0.003051132749268277,-0.01899148604856343,0.03237677640866375,0.022090876973737333,-0.058012346875137004,-0.06510419050728655,0.02891755380804759,0.024293649506679373,0.046387748487709615,0.002620874641643155,0.010123229744253002,0.06154210373508232,0.017237070555579073,0.03699141852289397,-0.061785883820666944,0.01518335627247379,0.030657324681005755,-0.0032382436202680774,-0.049413383054323815
-0.030223278329401863,0.11948998708186594,0.0634905629603806,-0.006499829131881341,-0.02259388632017541,-0.08689488207410724,0.005104003603122488,0.004800711869114716,-0.0866108281177558,0.003485039759831965,0.05240448224922912,-0.035354256247851074,0.06630770684855133,-0.05059200346484755,-0.02709526516165749,-0.017311302170013462,0.030528128973758284,-0.03444259076092812,-0.03267134134359109,-0.006327793128419942,-0.07459099041291391,0.033491196074430775,-0.06125275602202903,-0.008663248655750497,-0.005353206792712113,-0.03185586395487056,-0.044726586325695955,0.028264180658087095,-0.0574787418779229,0.0021076556566618676,0.04622590811267652,6.002134351874878e-05,0.07721275575471097,0.08108663481336391,-0.02830940044164137,0.0654260790294578,0.042663850812659325,0.13539454768474746,0.07083102552279022,-0.021469781350723107,-0.019078386239380095,-0.018034150410148768,-0.041476258604750016,-0.02765208369122524,-0.0489219731642007,0.041948589343641124,0.014652176715691382,0.0022766077475500066,-0.058602020997292184,-0.10033872854350227,0.00938619895153247,0.0037810523773923383,0.0959614258993821,0.019685518946074017,-0.014383980389853763,0.010493687895593557,0.002037864727735717,-0.03810192050747577,0.02005290930571866,0.08258691600613975,0.014035752509146704,0.02591170414852854,0.033611300602547654,-0.006207759734606338,0.031120398866403876,-0.07060599601211533,0.02621915294671313,0.007821974984824424,0.01439703634603902,0.11300912727856707,0.028544513184757366,-0.01003164572162466,-0.02444680001300209,-0.04618492649296407,0.0659277424533862,0.004246715323030137,-0.04278770962962538,-0.04474592680878999,-0.004542926049092891,-0.020762027842817433,-0.015545793420738493,-0.04944769464016317,0.01329242359119543,-0.03806012425456655,-0.061990318435684776,0.00344933342316355,-0.004789480221009506,0.01725986947373383,0.0032049882580517408,0.051394569432973984,0.0012122237199218278,-0.03771353279701427,0.02891981848170819,-0.03089426521726027,0.006671939129248918,-0.0757699987214107,-0.019842617889409785,-0.003530399971093119,-0.05327972186045145,-0.031249019289079222,0.029168611190615933,-0.04022689198644722,0.0037924430323326634,-0.07985631313461977,-0.05001476536128876,0.03550056646727887,-0.06691629565184375,-0.0002603338644529119,-0.040442726090137944,-0.0013168322582631858,-0.09835182752592742,-0.026239646457984253,0.08895189753759876,-0.0481796253602079,-0.08221010304122876,0.06812033596131432,-0.002901634627399436,-0.019734122194234326,-0.010847167389328637,0.04811233295646611,0.00010348083314068137,-0.11478926999561598,0.042960877694767294,0.04841996934567882,-0.0023092340079567393,-0.02834557199286338,0.11763543067837015,0.017392203632384473,0.03414740705742758,0.03945981144811751,0.047778310666233906,0.031396141008934716,0.06236139725331014,-0.047322019280678716,-0.03960743746845032,-0.030944653720482825,0.04727976075357196,-0.04457657397065729,0.08624403469961893,0.0075273266881198155,0.013670844701607718,-0.03240095094760118,0.10323478287411704,-0.006927033002609111,-0.020218473178174608,-0.006093819904178738,0.022625373730138468,0.12695699049066642,-0.021661358488321316,-0.07659624928163583
0.036524760976220615,-0.032601996678137124,0.026270438544040656,-0.09699806063349249,-0.02274952510570693,-0.08327816498638968,-0.05001143530702684,0.04092007577751027,-0.020522358557059063,0.07633980838643979,0.003984276136496049,0.062340861052161106,-0.0709689285464874,0.07583141839952773,0.08345014099914869,-0.026475140649522583,0.019231219089096165,0.03584632736332141,-0.013263255366738193,0.03707125808465751,0.07930537357332593,-0.07003793067774694,-0.10340391886309509,0.01825424766966735,0.05660662375263154,-0.026953697952906055,0.03143820003652689,-0.01769299383954497,0.012523666620322938,-0.031615634865267486,-0.016975931391392047,0.04843172306685703,-0.0016509625015686772,-0.0019840513732499745,-0.004380514648962961,-0.038461400787060306,0.05073886718625844,0.031074391846885485,-0.029128268080098236,0.06286445062350816,-0.03894302029105893,-0.04309860962485018,0.027844446641091165,0.008522089532627173,-0.0522367722314978,0.07546390006738653,-0.10556072395405969,-0.002244603608457275,-0.004434992064042506,0.009599922352367812,-0.05948700324187388,0.09889093854020754,-0.013335447655348642,0.04274307369910447,0.02595214377843345,0.0513981524367777,-0.018427981745512547,-0.09152123950379043,0.05758178516940742,0.02844655920899595,-0.025261127278522737,0.07706690967556112,0.005191674343612416,-0.023463126077449638,0.03467146571728879,-0.017314017998370602,0.05209483362316716,0.03382831023246857,-0.00110903179286795,-0.008066866112088957,-0.042458931794105696,-0.011877840816380299,-0.02779153843279753,0.0838968961986987,0.03963012087482366,-0.034290185997304275,-0.05806521819250352,-0.005840132429308303,-0.0032494926841674533,-0.022093982292116225,0.0319804016959409,-0.021868578348831918,-0.05764928715745046,0.053426978013373816,-0.012074393086558995,-0.10971137962859498,-0.06851327481555117,0.04811103715303042,0.026282517666061544,-0.06854838119564238,-0.10332595788058589,-0.05508603035443889,0.04689131445291286,-0.0677337820489124,-0.018667909790191735,-0.04786442593015119,0.039093017904024245,-0.021972762805421164,-0.004935107783992527,0.00684387029176317,-0.024147866244628936,0.03365404900993938,-0.012376431557149065,0.05897937763982401,-0.013201106229412618,0.055686318543051685,-0.042636457677966526,0.0768115891070177,-0.05368137888458531,-0.04841915522518807,0.026201050036080975,0.024503944845999343,-0.004639049848043217,-0.07213735325426714,-0.006213870164358841,0.054593598028777175,0.16796196488142867,-0.08509726558742343,-0.05070104925935388,-0.032987726183812925,0.0254080112835718,-0.0569287919860908,-0.058895378965489985,0.03144998522806408,-0.09314266310596331,-0.08118765084448791,-0.03205385739339809,-0.042289713384215714,-0.02540496368633795,-0.005671236991303044,-0.020678822869986225,0.021499062443306894,-0.009292726784430085,0.015266919309072795,-0.08570788277542264,-0.030063638364139625,-0.01319122027626593,-0.04195688980514305,0.018166866408697135,-0.027730980182671353,0.03686375034892121,0.05945146050083279,-0.05670605225089946,0.002126356076151268,0.04276583174527692,0.08304661249482152,0.025049230017768657,-0.005769141933604265,0.003240125288331578,0.00029920416228668167
0.051632919736148475,-0.07132162566899225,-0.004529247818140203,-0.10812412602691758,0.009736222969061908,0.023370854126481,0.0663155836441317,-0.05151836367808033,-0.008353074739393365,0.002264992735462711,-0.02911681623328613,0.10925208603894879,0.041057467193929414,0.05845297131448778,0.02669226005333104,0.008246922927805826,-0.024768095993789718,-0.08027464516234628,0.027103136322983088,-0.019054674083876188,0.05585767034237505,0.012638431520458815,-0.0026778122358463194,0.09022108653363674,-0.07787484689337182,0.07095163095291278,-0.00785427007061701,0.004232436410184878,-0.0009632291544209767,-0.06356412258392129,0.0464055019557085,0.031760249184059994,-0.019734242178368038,-0.015024334255980338,0.008964911217129862,0.0531961502587799,-0.006354173442690787,-0.03917314346085178,0.01281186322738889,0.02534305335499286,-0.008954195473747165,-0.05769585016887695,-0.003989737379358149,-0.031137497906434157,-0.009196616597550685,0.01947147542779593,-0.02745504353177719,0.015291868183060896,0.026180290640164604,-0.03926723492391914,0.0426429304241541,0.07150600691941958,0.029177229978953414,0.054848372976337254,-0.03774754557279853,-0.0973589635291416,-0.021666492409165128,0.060080389742547,-0.1187422253939907,-0.0015778807476732781,0.05289723588771564,0.029521261264220697,0.02889154295230195,-0.10552706214788825,-0.04612235373001674,-0.08035250046773831,-0.05344854126022134,-0.007625008326820867,-0.08198976779199092,0.015836844099908993,-0.013363631681436899,0.0654008906510984,-0.004074999913046889,-0.006185090318603602,0.07762741968093952,0.036869917060815924,-0.005086834889456181,-0.05300087586434054,0.012385510096448773,-0.016979986159330968,0.06088052559750106,0.05130119213826965,-0.04623318754905961,-0.020529802293910698,-0.022045998537282587,-0.015974560265216303,-0.0745403266429487,0.06937121419046342,0.0075025119143296804,-0.022940118604448712,0.05022916304730096,0.017287749928365768,0.06129038844896214,-0.012803336747366369,0.005829738308276163,0.00142897171361954,-0.027161268174925052,0.02896652202347055,0.044657387823999424,0.06889418255364117,0.006758582234739091,0.02871697138910335,0.07431273375901405,0.030481875691774088,-0.007507971396991829,-0.03711717697510835,-0.004385126611222127,0.022345924308512767,-0.050045834852943984,-0.07288005615624639,0.06783356922752189,-0.04775512699416564,0.04322505511013249,-0.07944136163282246,-0.058990270660429334,-0.014103302532731406,0.007792067749382893,0.015215104769470428,0.08384132239176308,-0.03707566519475691,-0.011705057191718932,0.026639589367534886,0.06492763517701677,0.024038978718146843,0.0024475352606882633,0.16185903643391397,0.10524247289808562,0.042923400783147915,-0.0009811502096881346,0.0710398114857732,0.06392030410181491,-0.004743414077248288,0.011351829540072142,0.08797075547316882,-0.07817111864220706,-0.04728995516016896,0.010771407575719679,0.12193946389054759,-0.07604849351038455,0.0882309507587882,-0.029885440839319957,0.03741494879317474,-0.01985066076186565,-0.012443760139381307,-0.0084265482115733,0.017008556864070892,-0.04677094285866116,-0.0025488150923056786,0.039876167042027726,0.0870767005095263
0.010751861697586169,-0.06245148110598573,0.05471314609400795,-0.023966857847110935,-0.04020647109700555,0.019909575505960363,0.029574912287199842,0.05627527612748285,0.0384721428611006,-0.020464327405808058,-0.06444577465770382,-0.021992590406682035,0.060519931026569586,0.09929510011259138,0.03406767398576895,-0.0498037993696569,-0.007789129231109643,0.03451044990837901,-0.029225352735812345,0.09025392134461815,-0.02394059193463536,0.008974550276850863,0.018073954284586337,-0.03973847911596361,0.021143098253678938,-0.024199567800141267,-0.06584076838614768,-0.015233492517176534,-0.11278922965946099,0.03273804367996351,0.036032032254111675,-0.03661025936739765,0.056662194560069136,0.029765278338981706,-0.0074104277734696414,-0.0294923636814502,-0.029347725165612612,0.00813357741342276,-0.11680808142925372,0.027204768689537147,-0.0706031776429193,-0.08141759313746923,0.03282454785093219,0.03742544491603545,0.028041233573044024,-0.0043966902289420086,-0.02572760025475144,0.07149310755082317,0.09057896824521576,-0.04699528288311137,0.04791723296034775,0.06123159813038418,-0.006102120926913268,-0.005595824486912301,0.06399514723912926,0.0037395223462221585,0.010897279272647232,-0.0009204360607573083,0.013241320896960724,0.05709730349078288,-0.007032558429028662,0.07077484089011475,0.06956926269023231,-0.06077248909527243,-0.10630635552806919,0.00011125255566787415,0.02273300136628727,-0.046615065408832757,0.029081623545172557,0.03524216692234537,0.07119510088097637,0.07509018282568815,0.016889574816710683,-0.004430735786272326,0.012954287299132176,-0.0030868977766889505,-0.07992438986099486,-0.009554114693301552,-0.06551093858899161,0.07382545080368011,0.0040822455931994895,-0.0050250612796853816,-0.06020331964486501,0.06878158943835884,-0.0055674152781182516,-0.0466625384482432,-0.026246995238971584,0.021167666747510666,0.01313475973155539,-0.06355985198258018,-0.08319362693238173,0.02423038703038298,0.02430619882814232,-0.008440437139346547,-0.0046012125927584295,-0.00528848389144681,0.057940347838497594,0.01153707676455174,-0.10825017305881486,-0.0383205877699037,0.02789684034464847,-0.04282713833479801,0.027755989455194023,-0.025816364268251523,-0.05336925155912199,0.00672701454684204,0.11139257877136773,0.00952115939856852,-0.0038812929889995833,0.0627801419661159,0.05077739262863089,0.04144323380251753,-0.03312385720570094,-0.015805460582847132,-0.06069204439928778,-0.020511643204735214,0.03818930656827711,0.02787211853144042,0.009058884884994343,-0.003913251301323257,-0.02316926267162707,-0.04804840381344293,-0.02709830307790435,0.11865633955010198,-0.0019098184798358889,-0.07049136679501823,0.053662527520166425,0.025943531609795813,0.00637799914657928,-0.04938766508561372,-0.011149740556663483,0.06322567332391567,0.05316318434050821,-0.01874312769924625,0.0815646921808621,-0.0006041487614377515,0.0038945749153120606,0.01526351269292702,0.006531807096041215,-0.03788311157405474,0.12291792606502844,0.021045800306667948,0.0936829850452632,-0.06751524770240339,-0.04504001446954238,0.009866722100645433,-0.006668807721213691,-0.03991339416226003,-0.03435535097062653,-0.007940154365679498
-0.039016128000712844,0.06475204292197567,-0.026603826514402365,0.002022338444198599,-0.0679169508964474,0.016978788028616597,0.05395119505587817,0.11556088017814839,0.13876949294629712,0.0813219009436883,-0.0307184044790345,-0.018604324727155144,-0.04127650013151058,0.037459987612155715,-0.05448993760979731,-0.007846348403211554,-0.04213242992373312,-0.0691890535349964,0.0011005915859707298,0.002175403625688108,-0.06383942648634734,-0.005366345467194147,0.08308206535054952,-0.04287257233448336,0.017773678334590468,0.0046130576312716715,0.03629003238185327,0.019276748503956723,0.1296127500742659,-0.0054663504650878745,0.05989928157772933,-0.04758163043956762,-0.00048792629504944957,0.05206553678038039,0.07799716692031959,0.0396427167036418,0.027384848930533306,0.013233331969788405,0.036626174393372055,0.01491740173108283,0.03680924643299351,0.031102372799783996,-0.07698130853530896,0.04473182149850289,0.12885450887835395,0.03245843273372018,-0.08393835139258746,0.008477597172578783,0.10520538403028629,-0.20857949532773096,0.031119751861696434,0.07057705997896203,-0.07229312041403758,0.11786182858082783,-0.12641211976319772,0.051378047253500134,-0.10528388652589689,0.027355560222427945,-0.11896797257519968,0.00859826983794379,0.04958018412833891,-0.023417457570992613,-0.09193840191097484,-0.0849128870655455,0.04476107771594906,0.0010634883131699685,-0.034075913094282824,-0.006438443043872402,-0.051495514535386755,0.04330122483654458,-0.04257493237011222,0.03299502526005465,0.012149257342740034,0.04805701459448607,-0.016802743349570437,-0.12861059617771237,0.0021182893422120375,-0.006052925380949857,0.06312349073339309,0.005291501335913456,-0.03324100847251737,0.0026099500200200184,0.05864117508039477,0.1042906931069398,0.04694940922688786,-0.0014536903915712534,-0.05726932593773917,0.03397363691913084,0.06791913489703612,-0.010591572254571862,-0.03679405373807945,0.06287838278219271,0.052521712745664695,0.03558774755123925,0.017318053654545258,-0.03651708151977069,0.0917341810742556,0.034355387134823584,-0.04844590454918777,-0.019071308246058294,0.09268359456254395,-0.01976219949665035,-0.025882622168678038,0.0054681224129291784,-0.04900918289802945,0.03874053053118313,-0.016135451529956105,-0.038168463229584455,0.0004891912292739987,0.008876604027706039,-0.02645840763632427,-0.012187216283311183,-0.08293937001475449,0.03437374614575303,-0.02854656223609779,-0.029962161877023493,-0.06662146701631678,-0.037420120361887604,-0.06084973401073319,0.05627907776486017,-0.09614536313053737,-0.05248220378735546,0.02227400300171,0.049652077247134996,-0.01959731449793799,-0.061187354456800985,0.08286721385088958,0.04158976321429571,-0.10265285850070184,-0.011258707321777254,-0.0714004253441472,-0.005428059116202172,-0.09891046854518158,0.03848725378808819,4.204480206454617e-05,0.03153884466380726,0.08673541953277827,0.0032346660762710313,-0.09304134731136528,0.0013159893426389808,-0.04161386454831886,-0.0035629388375587358,-0.013238245224788937,0.024837490708365485,0.04381742311696421,-0.06968281497586447,0.027341064891208314,0.02306810320258123,0.0646545794717268,-0.08552577070802815
-0.04265068364122352,0.12153071733024073,0.055003708486280944,-0.07236974262683984,0.038096713972799,-0.038124581901460716,-0.08209372584233865,-0.05869446717351289,-0.061279983514518556,0.023136734390308236,-0.02350082474013455,0.025094871779709513,0.045075875058694724,0.0681898033045299,-0.06581582217534673,0.029270967098602656,-0.09935196757890134,0.0029305043791792197,-0.03835325280259503,0.029609328574890993,0.08470068642999909,-0.020909333366023155,0.06287849295987,-0.0028473831497735553,0.05882504522932508,0.00988469389831996,-0.005489113253934716,-0.044242667256303825,-0.018083850234508245,-0.01686976329625495,-0.1293012277539657,0.04900987977457102,-0.03053230321020226,0.04678204148080112,0.08815492292239367,-0.034681343691818974,0.014536665616201176,0.035168122609945396,0.031106773642268756,-0.05587943615441852,0.06798317850935412,0.0029290045128735525,-0.023240230952555948,-0.001457463132815757,0.0022658792229797607,0.03803307691946114,-0.03084238667772725,0.03135716057396868,0.05123195068442874,0.03516989607427665,0.09406039528046437,-0.0086016007812042,0.00550633825230261,-0.06890701734511062,0.03917609862924587,-0.08418639094538648,0.010398743747063231,-0.007730393082849036,0.07059046924038705,0.011226498024393761,0.044403735665635415,-0.10194103885339652,0.07929564749844009,-0.016295259224753337,0.01685969010163031,0.06095548696212763,0.09460731409297825,-0.012666106851401043,0.06784437853255305,-0.02178144379129149,0.0561240445539004,-0.07682230528940738,-0.07217671176370975,0.05539350258810815,0.03602016677365584,0.07763119898278593,0.025207705809307045,-0.08567451976281126,-0.07539938025792832,-0.019574372895669788,-0.0013583150450064917,-0.0338683561314699,0.04418527500658054,-0.05171753446169997,0.06669487165311488,0.009575434459530895,0.006478573435003875,0.028352714774418468,0.07314848652650596,-0.07127326435509292,-0.0077576199355990855,-0.04154588281979134,0.05026072304788486,-0.025306615505051974,-0.006822656655078397,0.025282363335009748,0.10390969830725032,0.07166975546358276,0.027232615396024607,0.03584022099951063,-0.018937313854342313,0.005232740647949188,0.04855307749819885,0.008035998491755748,0.01426323011333216,0.01753750942447906,-0.009341247799832128,0.037424082074899105,-0.03115639367639539,-0.04577294182103728,-0.05641044785180073,0.06297410779571072,-0.05973979911616424,0.010983370792295045,0.010320427215141986,0.0035785147361363486,-0.02762988175118649,0.008639519356851639,0.047992955583097366,0.014210214129141965,0.016254458745059628,-0.03337624533637457,0.03814909053718541,-0.06364871112534656,-0.027163213345081323,0.02772430313377202,-0.04972568265097869,0.039802330650155406,0.044345205193194334,0.0024429279957344893,0.07117924817542318,-0.014965165927192004,-0.02154259904801101,-0.024692073617786445,-0.08121956361041828,-0.016759496503367166,0.028262968626016925,-0.0013523509569742089,0.0925221926601724,0.010172473162748863,-0.07561010878034363,-0.039024265051980984,0.001979482255906431,0.020237915790430216,-0.0588681858974673,-0.03657237276087083,0.006009238101892617,0.03869325345420339,0.017963161754296096,-0.0021364267031297878
-0.04676791747909018,-0.006044908750596902,-0.08590647131462216,-0.009438589661379178,0.058831408709656446,0.011474099810918023,-0.02320800679185413,0.10952843557196763,-0.06229048595636191,0.058251592403101904,0.0033006680755184804,-0.044490637590580986,0.09714087033641167,-0.006107362445580825,0.02826846274739729,0.050092475856566406,0.026603117778687888,-0.010104781657260316,0.03563967252423472,-0.0845399399731747,0.008748756362686592,-0.030142606573330885,0.02154315786259202,-0.09711769585445237,0.08443237637419952,-0.03810600117163636,0.09519350130401744,-0.0200127976313335,0.047380915094634636,-0.0261719383683033,-0.02617406165774343,0.015783356798785706,-0.12335382455184715,0.06461413389725398,-0.0495714628730726,0.012827089723590764,0.014455355150057619,0.022730334427147943,0.04737968359023143,0.054577147061614435,0.009889453780575494,-0.08679282991091629,0.0336856478866968,0.03169735667846703,0.056999207655467427,-0.09808177216343965,0.04277625320881571,-0.08874429131732615,0.08769217144256158,-0.07837979613089076,-0.006836676234539907,-0.00012840336568456222,-0.0011282130479291696,0.07394665511830373,0.049711963330308875,0.048310169303777455,0.05605366771041343,0.0365997628516778,0.008671492559154151,0.013828735336758822,0.010736217390635051,-0.07638226671769528,-0.05178347593853407,-0.06482969978533493,0.0084954019115483,0.027473889467069,-0.00697954754024523,-0.060663653444208564,-0.00279028679799786,0.034475147401789044,-0.07028334191099886,0.00030368517298909477,0.034338204267679584,-0.06459772261838757,-0.058908904310338725,-0.12900609949818576,0.022262898596806354,0.015117066881793914,0.016563365339252067,0.046874339250184416,-0.12212876340268722,-0.033855574618292424,-0.03612629818244036,-0.03842387974093813,0.02118832808433319,-0.006189163584670193,0.015959477694400467,0.0971774724138407,-0.006172413668297225,-0.019794635658206466,0.041004661163501495,0.04551456936054413,-0.024837868667772545,0.013350250218509543,-0.012468239255969812,-0.07538310254310371,-0.0331867682020643,0.054337398411642486,0.0030309578653191387,-0.02842054018118002,-0.12062620700909968,0.07827930580212862,-0.03752413532933047,-0.02784653951093642,0.14921064713888602,-0.024647836194699072,-0.03938305515709046,-0.014220536882768172,-0.035392310424113026,-0.12007346647887285,-0.03417084892605961,0.059199132532502405,-0.034690014228171986,0.016188001993021495,0.06784971665918407,0.0023526990264665752,-0.014498278499475496,0.028827134651378504,0.04340527595059668,0.08836888948124107,0.021780617982180714,-0.04707992999692845,0.06640582822974782,-0.040892984414593984,0.11821946815416869,-0.002539720129984435,-0.05271414476571145,-0.03344227730422473,-0.03744521556047703,0.021886021738745598,-0.048662189831176476,0.12946387868613463,0.09421892738618196,0.007076430457839171,0.03526489940702139,-0.037306107617922,0.06997401962410829,-0.09602568769264574,0.01180210919803658,-0.045554529128641344,0.032522555483331696,-0.0771365872339091,0.004668507532183846,-0.041710336084151894,0.00148745530188657,-0.06607614982525624,0.01656128278593842,0.05236076911555233,-0.006214491752844218,-0.004541997026181038
0.01242972701365627,0.021612086515310925,-0.04056479280901105,0.005036729991166294,-0.036611486990062655,0.053919644210105484,-0.05194305308907014,0.04120851802668917,-0.07925921477634737,0.032272856340516916,0.10003642749308289,-0.040997374131870094,0.07333584137905347,-0.03460815657215861,-0.012821510703195888,-0.031821148310953305,0.027318805417426498,-0.023255689839833102,0.05135670193675839,0.03555125906268315,0.012646575384122359,0.02721370172837587,-0.06729328010526282,0.16183313711157377,-0.0533580170089555,-0.07032760893916051,-0.10559167632921718,0.021708048531005403,-0.002189645752235253,0.02621090554432396,0.0306306359271852,-0.006942849088906469,0.01202555930689322,-0.023737669107839802,-0.01570018432756685,-0.11290316702275789,-0.021715977486162025,-0.022381967668479063,-0.05530460239323607,0.02608841306691456,-0.018942038857310772,0.0988489453446627,0.06977437644246183,-0.02577082071689518,0.0626740588140909,-0.05520275965774227,-0.00235208687409822,0.07249379857643391,-0.009062009399807662,-0.00924671020509444,-0.0567917789031934,-0.013018636613810409,0.01599529753154762,-0.011580002332178796,-0.04623362798890079,0.012581762698043869,-0.062139914117538324,-0.04048994459974218,-0.0098336900259115,-0.03794903616741656,0.09377302162413466,0.009333479835789905,-0.032821982776863066,0.008886724713015015,0.08833085140380718,0.003408714982878897,0.05633941698671271,-0.01364890278474543,0.08888167568147004,0.024410706313091245,0.02954783822539009,0.02900733324355206,-0.08510347555530817,0.020231912603840278,0.003691385366189167,-0.03914339138334275,0.008234859761348395,0.03777971481391328,-0.03114178853503567,0.03750047175366415,-0.018007118186354188,-0.05703938503962052,0.04163738873591807,-0.0538866996874009,0.03851820388817002,-0.025211134570897978,0.01884659825464294,0.032219873113607335,-0.02193977334171869,0.002043924872252916,-0.08586926346711518,-0.06016962778321803,0.04456579944345386,0.009322189353003277,-0.06900529444533478,0.004545285543932156,0.0248427088869568,-0.04793442692677577,-0.08280015868424515,0.06707083461102047,-0.024627036058425207,-0.04428984346306161,-0.06983566535218805,-0.04965744979381804,-0.06206449005547162,-0.022784547847461145,0.04610162809091609,0.09690495097703315,0.019675157752816898,-0.12950466707842867,-0.00013028659324594292,0.027170609782658915,-0.016653981758281044,-0.025823871672044047,0.05859989006700551,-0.002547687664471419,0.03917577166680495,-0.04192349994780276,-0.050549783144753904,0.08346054578450206,-0.03949195673619383,-0.041850396306161754,-0.017478053498261217,-0.039423348866090814,-0.00501321413381211,-0.006082206697176003,0.05022138985577288,0.01569120347694941,0.01674823701031781,0.09234348354221819,0.06595593268303568,-0.02945057093647317,0.04600718671503091,0.0033056474527531263,-0.08916339946887675,-0.007167718033867345,0.0689139570047614,-0.10191899249432305,0.036587617304794685,0.06582268445238218,-0.017800292961856284,0.006644142177669963,-0.018788845917126623,-0.03801733363320597,0.066524194165308,-0.010421648586596742,0.024064740362021834,0.028031581592190897,-0.057162755896914816,-0.027093970868075426
0.04651969810189718,-0.028755392048705836,0.037559165940782346,-0.025163952038060634,-0.003720313479944193,-0.04030307609273771,0.012893363042266879,0.0803030283240787,0.05713308354515812,-0.0608354719784411,0.046834643189591574,-0.021831652438828404,0.06573381328756253,-0.036654966784010215,0.11997271756859128,0.008770056450087568,-0.025394715175420985,-0.02409950194222288,0.07265070464457388,0.07434237713697214,0.028880957209295063,-0.0484964053218675,0.11947587527496113,-0.016206335477606842,-0.0021758289705974595,0.05910778888102838,-0.034495157208963866,0.03472419298290484,0.054705001160232074,-0.035596982536188,-0.02759600976649016,-0.034238654236501034,-0.00016787204578240535,0.03205446640180283,0.0031746648664867654,0.015594173859572319,-0.059626602321633124,-0.02538676227824121,0.018580001584246265,0.08996007159019452,-0.02978318995757343,0.07641113525873124,0.014717601113929734,-0.0555452684238782,-0.0022120671202641856,-0.002515664619452579,-0.05011744182501631,0.02162243356851242,0.03820850505145895,-0.046750789152899846,0.02836838846693154,0.029398847744983136,0.026218159430593167,-0.015841608935572404,-0.07571631495930539,-0.02463218468820739,-0.04944685352118645,0.09945305530754972,-0.026609858256323643,0.04061685693452501,0.01822361266344033,-0.059984115141742796,-0.060232765357665564,-0.0629693059863718,-0.025117576095485906,0.023698466869542714,0.01809448994959961,0.03384598894965234,-0.031234015050582438,-0.02663130905033658,-0.03128800836948531,0.009204260629762805,-0.02773913180106399,-0.10307172141181578,-0.0005618386509459791,-0.004457483544535155,-0.06614499973226905,-0.012951136929049067,-0.008959120168977078,-0.022724137901217162,0.0021776677689509306,0.010449250601139793,-0.02943309013957234,-0.07438425705803273,-0.0008572431148907213,-0.03567859759673199,0.00016181319464518898,-0.05129031884163667,-0.025232938117774478,-0.02509849495687,-0.06532510394836394,-0.06703749634613841,-0.025804092237407386,0.036091141392857164,0.07890628917202001,-0.05236903324366988,-0.010388768429049662,-0.01160257198137761,0.013045644085519536,-0.006776291870970085,0.04500250928132241,0.10134416336441514,0.039504015655302996,-0.14049944642585052,0.021817010448302383,0.01055731126398198,0.06932705741434955,0.1017327375324888,0.0134768686432492,-0.03725081198274473,0.025324907538645535,0.007570344214737934,0.017317762417953568,-0.02897818352474228,0.0020022648339292535,0.012713270358024132,-0.06687416033539118,-0.006885735045089651,0.023272106910043954,-0.08357191847378073,0.004469871068103833,0.020519680746174447,0.015237476766401933,-0.020273733605380616,0.02538234061864149,-0.024175311073329656,0.010287578152551446,-0.0652469686435628,0.015377078926317463,-0.04051753435282511,-0.005638485420846079,0.10793761086635992,-0.02325676244594006,-0.0579274166290024,0.0007548065931980625,-0.023864451877330863,-0.030436992735413667,-0.04240189516055626,0.004152467560690614,-0.0372718553876566,-0.060609134265427925,0.07982925544882337,-0.002757990738026085,0.007088675438893931,-0.07072608602072576,0.04476321725041605,-0.06293841500202046,-0.06276536120718901,-0.031839753077599266,0.014971261383069073
0.09104520508973309,0.009763133713692989,-0.06305191694953667,0.028938680863003687,0.09030067043517856,-0.04939204368451563,0.027543391399157978,0.021862202465137166,0.016425750973890187,0.06291788311161686,0.022390757685449573,0.008061057303760177,0.012746981507879557,-0.01286162531160186,-0.002807485839159495,-0.017140765086323916,0.020685518821853575,0.018870002357332948,0.0643276271462903,0.021376614140120032,0.06992135834127643,-0.0786125043575138,0.05460767551254396,0.08660424167090017,-0.015694117962195206,-0.08922510174738199,0.041641614131458844,0.0035914284609132596,-0.011787783965305531,0.07393970289506538,-0.01789169180197497,-0.015494461251695794,0.016959417768103106,0.08975749689156375,-0.12007766159270893,0.028265642078458362,0.024731697169842887,0.029396486011804026,-0.08533019454395235,0.052671359374234575,-0.041870687809636126,0.053808507431221245,0.014891729135574187,-0.017534157592915232,0.08198442116915108,0.07507055125171286,0.03238248945220271,0.0889105624292861,0.03126443215023253,-0.0783626746968414,-0.014133576937633582,0.019869050670486638,-0.011471748653763197,0.033228093918460204,-0.04107311453932913,0.03627154061177924,-0.023314447739794637,-0.05438611745155674,0.021567444505892694,0.12603541052280728,-0.0068015582158999725,-0.00909821968175118,0.047093721490248895,0.023605335948802323,0.004276844210777637,-0.0841606768912108,-0.005473402364166185,-0.008500349536806931,0.03558544291947582,0.06790626947426347,0.04974020953714266,0.017662773161316456,-0.08893094539306388,-0.03442299742535679,-0.015140308792145932,-0.11186146074206417,-0.0713417387432124,-0.05804836679135644,0.03638690541075654,-0.058202448011962775,0.02982606620578889,0.00790295234455912,-0.0536560055116925,0.015091567986524352,0.07861359097223519,0.001695958719900799,0.029417919057041733,-0.0630259181017283,-0.011402104848655135,-0.0117042035679698,-0.011926862707253957,-0.02655471600305509,-0.007221545796606631,0.03462277620749452,-0.06483149908400716,0.0023239562651062155,0.037767368143625614,0.029902231469415008,-0.0020521504940455597,-0.025544634408964716,-0.04136730963556443,0.018203657413447493,0.00607991349768038,-0.053942711982683,-0.024332170304224115,0.02155588556779659,0.06997913149793199,0.034094850212323564,-0.00761884921679337,-0.06592876929200105,0.08914228545532155,-0.013456712737318318,-0.07106644195215081,0.016371535011983192,-0.025190825223348864,-0.03604037913152891,0.029353257449194408,-0.12440436943113523,0.03667209646801734,0.014430102208233531,0.09613000928424204,0.08159874748266702,-0.02424064255407241,-0.051790249820561046,0.029454393650699504,0.036484184089670434,-0.020761252298386428,-0.053260182245250705,0.017403418449407997,-0.06681289882176819,-0.12045653234169983,0.017554297516097266,0.10961788231148119,0.022683385053070878,-0.08353953434688556,-0.012111898925108274,0.0676132373555948,-0.0497099293917023,0.12343506016052852,0.006975148466057584,-0.01954538425993159,-0.00915061017535226,-0.05239491325329068,-0.05680413357788407,-0.04840643295302034,0.005390096625679951,0.07352317877233838,-0.014426169445533583,-0.02275174562433555,0.008568456324426297
-0.012813420134759786,-0.10238520136645222,-0.07641500381803723,0.055065342765682965,0.029246782654846037,-0.005153513875836296,-0.0062117665595400155,-0.07323236028768948,-0.026658529440075265,0.00024326514356504348,0.02170082897222214,0.05396367445790272,0.04372025792494451,0.021279179124397515,0.014290875476028888,0.062317101260411706,-0.027792644400360944,-0.038279960672187245,-0.04973970851519215,0.04305237298818856,0.0488145704937112,0.036851923209566394,0.03435678930101501,0.011645501554175404,0.02827659082575253,-0.11607011657287736,0.07983416902851041,-0.03491536886678982,0.027412248291308585,-0.04013936683525334,0.02176636096161932,-0.016562003228735602,-0.008804681329336355,-0.022954744643166557,0.011560446636723854,-0.04525170159469962,-0.07531931971380088,-0.013770668133856523,-0.003880199674172453,0.0018948327537236834,-0.06269869381392405,-0.05414947579104792,0.04725939613989248,0.00438027824879328,0.03255879292095802,0.051467269459878555,-0.009754031640255005,-0.05969080118129168,-0.030220432208911917,-0.00047388940768739677,-0.03592215222276097,0.12129818119432001,0.015016926401436608,0.07381475945142,0.015030972947980158,-0.056457237844354996,0.037779064134753584,0.020590024383202538,0.10119308477539876,-0.006777494739684623,-0.05426169226492993,0.00488173306970346,-0.021128238309088027,0.029411758004539424,-0.08931960474616682,0.006328806980179442,0.003998396404284718,0.029191021124180667,0.05962603557131829,-0.014144561026102885,-0.0030690510119542715,0.004786874810096827,-0.07705764271270946,-0.009699595954610531,-0.050122767063864204,0.04136780283551451,-0.030610850584924597,-0.16232937533636763,-0.08995894115989392,-0.013123294196302022,0.033591244820167725,-0.031822907743376136,0.022003494227398925,0.07261651391742838,0.08309770108996409,-0.019569110099256992,-0.00031925548455676803,-0.12486842545320825,0.0461681427487128,-0.019751059087577464,0.016742042596529165,-0.056957331599296175,0.0011577093891653044,-0.005365942433920984,-0.0054995217898181495,0.023381218445386105,0.02645453880109395,-0.0667923105754642,0.012210216262210444,0.09370365554470031,0.023254904804968904,0.02345601309630826,0.020422101530416223,-0.028437756417184323,0.03183913757809269,0.053213769398723805,0.04144985170812769,-0.028697335165602276,-0.01096440100174573,-0.06927075546774798,0.017764972475964147,0.01287434520036132,0.06481467173949153,-0.03383085315709474,-0.01756803899719817,0.0018529880240482088,0.01171167349622341,-0.029288451160164684,-0.05595091900581818,0.012883049187906562,-0.07316249122545654,-0.055317656228723824,0.049725057958447554,-0.07033978377909084,0.014241444496461347,0.03833064534163917,-0.04700327447956337,-0.019839002030109385,0.049425951752356895,0.03688127968800225,0.04787215745971034,-0.13871846823995565,0.06463870813665137,0.10632778697564062,-0.05786020975023811,-0.08762211527456767,0.01725777534277003,0.048316356841557696,-0.036792667617924504,0.01202938540283465,-0.024918632498724183,0.022352103739779854,-0.021990410478189962,0.012003735946893185,-0.013389368537183099,-0.0653975510570897,0.01168280730904186,0.02742532973838065,0.0572508618454432,0.05097445856501509
0.031161090672704797,-0.0948764241064468,0.04326820437252924,-0.02205794422365325,-0.010426266606965827,0.005283239100791892,-0.04817733591870976,0.004741357810046388,-0.014694295643683566,-0.01778848329179697,-0.05706175414307027,0.017872082126482117,-0.0716493920006574,0.11601021017581249,-0.025278720943535643,-0.02246661428080078,0.0005526494852781291,0.025344363954207003,-0.047208703285429504,-0.02897938965696711,0.035498122536781786,-0.02055050886058262,-0.007785308907095267,0.021500393624350418,-0.0009058949422980914,-0.03621520125991139,-0.07230292981149404,-0.053454317666781395,0.06210403818943547,0.017461908578154616,0.012467909648898854,0.0018643418420906668,0.10659557116815718,0.01605990814396244,0.10586689277289599,0.003769689473576393,0.05095512821998382,-0.024123805232400986,-0.0017172272075497853,0.02551101801745713,0.021086002793079442,-0.03886025150916015,0.002324551372349142,0.03952842134790958,0.011353780490105412,-0.03614801147054191,0.02982364819978726,-0.012367210258640085,0.05725240427593234,-0.03904108353787888,0.05966754959555833,-0.002661423951806721,-0.05708658384391573,0.011745807582310752,-0.014932926718656328,-0.03940477056501671,0.023604290638864992,0.029412256299600426,-0.03522792423061923,-0.022269025245568883,-0.07983458688515939,0.03534643925042524,-0.05623658229510695,0.019551910611872527,0.08091990618517989,0.10085831140249693,0.07937427366665552,-0.011694178621693332,-0.08860748399220851,-0.023905341599200828,0.0550682756575502,-0.008581303531497303,-0.07260402776033065,0.011193271231340212,0.07898434352810273,-0.022059202683644797,0.0301319248803969,-0.0888797920093971,0.016308766218265148,0.03455423275117993,0.04227672151531587,0.033262631554509946,0.021427525076964937,0.02387083266936394,0.014632447838364714,0.07912480262700555,0.03093789308416254,0.10304060508078444,0.035446078758657296,0.0312800707931295,-0.020037060591909576,0.0037572453914946403,-0.08991741967187834,-0.00375761656010366,-0.01313049611880976,-0.006750601371923851,-0.016401281084770597,0.032158429392048125,0.06727323531410395,0.029233264357710335,-0.052364739764631504,0.036474549635555284,-0.08805443275423061,0.04037959598699264,-0.020786756548026038,0.053312766999504775,-0.012674220865762156,0.07289871360766256,0.012551995790837009,-0.02345564202738408,-0.11577537881674776,0.02696963656154069,0.014070683965204302,0.03033724529855885,0.06018059946330897,0.048927042607620264,-0.008523180697238831,-0.0015552179661105908,0.0831875352799081,0.08669064538760005,-0.036657920016506494,0.032801330582771904,-0.024303985796170477,-0.012477880700683253,-0.004002207054438861,0.006117811019676483,0.04311372931252165,-0.012527882238884786,-0.08310888428386826,0.036254270466394505,-0.023171459433843546,0.04623970859484075,-0.029336351738998324,0.054174923525449246,-0.06660744247555145,-0.05882362662760331,0.07169942986819952,-0.009416462447392528,0.06782499809287695,-0.05505038035307971,-0.035166978226656945,-0.00017082264083259058,0.01670540330806646,-0.04816136121358578,0.05471027867272115,-0.09086024281965016,-0.034673557085448815,-0.013995557367096388,0.01853273960677726,-0.0426182426787223
0.03545255590715524,-0.0342430033284651,0.050192985662969994,0.06243978693695499,0.058578950221420484,0.027863602974471272,-0.06232807430095583,0.013153583741015044,-0.066632194033933,-0.030988595654629525,0.050074194297597824,-0.0898089541881635,-0.025217298151271852,-0.03849864414037053,-0.013463088280472945,0.03447137745128903,0.04433004836930672,-0.10699778424635585,-0.024399499208938063,-0.026049309437979076,0.05685810560442807,-0.03024437338458977,-0.1389132249442522,0.05510788040885862,-0.024419110981887673,-0.056393362041487066,-0.08635231049370419,-0.004153070709069755,-0.0567018552580458,0.04714707976044641,0.04855623929684578,0.07401256140777214,0.07677157606715754,0.055205909314931405,0.10167850079336618,-0.006184966335789602,-0.0013919950085827444,0.04003515414731197,-0.0058901386749508865,-0.05509072519833445,0.031458424807114305,0.01893945364939945,-0.009681030955149586,-0.07675196282679682,-0.011725585144381778,-0.050397941711273445,-0.02967662147250836,-0.02688312182456226,0.004779638357856603,0.10170847748568711,-0.08897501861244794,-0.019700304057251965,0.039348430917632383,0.025538897769077768,0.0317213450096402,0.011818609143642756,-0.03499859718738286,0.03058625059620367,0.013200404807836174,-0.037348577620116334,0.0005672163349691102,0.002361036512749254,0.09969952596943357,0.00816425213319088,0.015430228380273851,-0.040956872931619995,0.03531374951805311,-0.04288213125790716,0.012140723796000742,-0.0035546931496062365,-0.012429768335131038,-0.07125815374914485,-0.008598340745423644,0.026552079061221943,-0.014049892564405909,0.038930678032231894,0.004097770173653317,-0.056684830270014086,-0.06902007236996999,-0.06358620679818697,-0.011627875850267616,0.02603894900540733,-0.003955385489468914,0.03399338928943362,0.0011704985004774703,0.07463242340142935,0.12659088157995252,0.07697962643461873,0.036586854794300926,-0.032687100539598585,-0.04922405762880037,-0.009580623603728572,0.047358720913788094,0.08122352856974863,0.019759365816023368,0.15104878358157664,-0.018631140979496183,-0.03565861487603916,0.01400846250073475,-0.04718538288310693,0.0157474584047706,-0.02668544657180446,0.08497519382133638,0.008113528301112045,-0.019375586921592587,-0.04653760465963143,-0.049307394333188904,0.047346460334754946,0.12288638191264045,0.024240980507612486,-0.0152179099607301,0.045939314173822215,0.07154268830215892,-0.036882980087272775,0.03633283507761264,-0.010420439177896668,0.024811715028657408,0.003909798231122717,0.030468486573803116,0.06920843547120614,-0.01868246256609326,0.031089616203735283,0.010051072473560178,0.009577747586712319,0.007344796615648691,-0.06888059176890625,0.0633274557862356,0.08878225278135787,-0.003010660879430176,0.04625761737847863,-0.05275580061128697,0.023443811302998392,-0.04112862075943298,0.0758320355372611,0.05087767942024199,0.031095487548610374,-0.05747174583647016,0.026590532924287712,-0.06538501348543271,0.09651541173417479,-0.1020461593070258,0.035144920328468,0.031855951165988904,-0.006939735728703373,0.01219156453691547,0.09107305393946026,0.016268502843296388,-0.0730743118837177,0.03502064556022242,-0.043085403579965965
0.04033511399344843,-0.0003646527013805845,0.061554593999539775,-0.0422528998272815,0.08815361035196612,0.041358940448854145,-0.0028884969649042927,-0.026867872364994237,-0.061865451536693844,0.010358389270210018,0.052762711849049015,-0.04363608487019137,-0.08357505470406038,-0.02325513222378088,-0.0516796424654171,0.01579128957613156,0.009441597276381601,-0.06270564604098741,-0.0506393532062292,-0.0004751678316562068,0.048437049284227846,0.0017784371957557047,0.09458806324631826,-0.026203792134026578,-0.16195415559317677,-0.03866493284663457,0.023848601652598375,0.04069553440402754,-0.039980369962761504,-0.05924049395129616,0.01107738781473947,0.028603339194488712,-0.04003199565744836,-0.01162885504962657,0.02014811239116352,-0.099841161468965,-0.0077853318114634515,0.030400590796745525,0.06358584434218688,-0.007338417239686147,-0.01436445333514352,0.0688157479887772,-0.0006499890782784589,-0.03490067866617477,0.004050053889435241,-0.01204928834601627,-0.015386498765153026,-0.004165104086538016,-0.013868517162531723,0.03380518111705834,0.03752629575882864,0.0025996658854748177,-0.014849706942486841,-0.07956451078798996,0.07400062386188436,-0.08448123026150399,0.025032720037406166,-0.0485994462091143,-0.04891046357474836,0.04747762575356188,-0.11349758426388408,0.019223116639592447,-0.016082511188593204,-0.0026899236448396733,-0.00458947501914575,0.04959256107007978,-0.010510239713454411,-0.08329594263185543,0.022618953641354675,0.005726740282742788,0.08826577200025959,0.060497728832381366,0.006130168182741146,-0.0012813781553923207,0.019145788463553356,-0.07094313903276411,-0.0016234039176898502,0.0691826179330806,0.022243825463621053,-0.0008563523891571989,-0.04155192296536199,-0.061168337213899956,0.005934654958187221,-0.03020853793866812,0.010460647699729294,0.07538190744578949,0.005366616687483841,0.016805971289150304,0.011981555725248068,-0.030358560219641385,0.06130683333586333,-0.004693433319224851,0.02086145928330197,-0.01599522094167642,0.021667406029194154,0.06007790804868446,-0.06350739262753849,-0.0002797167883881939,-0.053514553994352856,0.025489111867618954,-0.10412269134824675,0.02952738326510864,0.020173145412055594,0.11211814652976614,-0.0013751651742653958,-0.009715787013582765,0.0278175047074,0.022611155013031656,-0.05087880081052586,0.03381199222563958,0.03427192268694365,-0.05265759581461975,-0.037631617960030055,-0.09046108158512771,-0.014807349634021381,0.034068697703521604,-0.004555281912655079,0.01755738526613528,-0.04942733258890546,-0.050049123877410256,-0.040653427210294184,-0.03522151443727286,0.01591683419711016,0.041697889583258006,-0.003259695215790119,-0.016564492694734506,0.012218514647939578,-0.05403430400438862,0.022000222205649997,0.050148056477810274,0.14158392737995057,-0.060016705951782885,-0.0516040494621193,0.08248760204484065,0.14612773662318124,0.00779800354469983,0.037239447932049856,0.028141870609403957,-0.03957820293727275,-0.03614524163643637,0.06059547195826835,0.09195859865705212,0.04632438560132249,-0.08501135610277473,-0.008942700884702155,-0.04199808464539669,-0.02764852747450937,0.02898168985995715,-0.00848980141922982,-0.07189707749324878
-0.025526974154050957,0.06225101771175751,-0.04106643882879632,0.06416487831179915,-0.07564864002839472,0.004591798267339629,0.0661543518592859,-0.057121917390832465,-0.0036693268132804253,-0.03633010585094896,0.06561259645196565,0.09123367246921145,0.012046256722076789,0.020384791809021578,0.0739003059511098,-0.0488930566356151,-0.03091308168845859,0.025689489595761065,0.034375055012078194,0.03875041228604486,0.012521698015136178,-0.0018862851218296244,-0.06767041256400182,0.004391383196640274,0.06857335009635765,-0.004456891133565036,0.07207811807821284,-0.055147570351274475,-0.09103669215994765,0.010377161847115643,-0.06694617453334067,-0.002777135335517874,0.14003385458001552,-0.01691879061399412,-0.005249518700783757,-0.010247717178849161,-0.0013068706290056307,0.038100822637616036,0.022071020037118257,0.05728818588324314,0.002459635444456446,-0.04953230225912372,-0.039771430063099904,-0.01993247077258688,-0.04682101156279159,0.09992945782405659,-0.006438140710089034,-0.05825700805325544,0.0168415257631763,0.07306346781518579,-0.0468853738392821,-0.02139118885871945,-0.04560518884531284,0.0033145671132682984,0.01160175132433833,0.04074431156574544,-0.01302233329147945,-0.06445093971079974,0.07878765222632081,-0.0017533556002620062,-0.08312762607495645,0.023323946625347456,0.04660469487877136,0.02680008990337048,-0.009857227417783443,0.042848868057219755,-0.02931680926224493,-0.05180112800407017,-0.11445458651468175,-0.028238341499810908,-0.07121663400713864,0.07162053146033694,0.05005685082429784,0.03651008245220835,0.002682618311179945,0.004319153002057818,0.0012222313090116273,0.006407275552309921,0.005641177524813751,0.018485640337698526,-0.03808783096140776,0.022193921201515594,0.0010137596674526426,0.028742636313001595,0.04142218829754027,-0.04650374916759816,0.04084940719154352,-0.06574699497472787,0.025817370957636653,-0.009454306246149386,-0.00959360323666084,0.04188690353294775,0.080679095753688,-0.050975336611891874,-0.06059226687991278,-0.023239600339009906,0.005129001662857757,0.021690464876264134,0.05539462222686857,-0.03777694881430218,0.0536503371730027,0.045970745627013074,-0.052324855686793556,-0.06315172956593061,0.014995429242810663,-0.05108167057805202,0.06172040883925129,0.03475360777353269,-0.021848872817685463,-0.07881813338463418,0.027772054596514946,-0.011283592170144734,0.024483196704469044,0.06942442982129118,-0.06327871533068419,-0.01766739768433085,-0.010290389661138405,0.0154926018290286,-0.03227728647162046,0.0036114258747440937,0.011032413151541689,0.08770259458961363,-0.027375298677672487,0.0015300728923618146,0.053248240349783864,-0.009762836762066308,0.05544418272072304,-0.026862794576738,0.015055029669513744,0.1213340668407947,-0.013445366953567982,0.11488779812608392,-0.04178764804500292,-0.13615712213226744,0.0201505801330456,0.05216330334443284,0.04355222191086929,-0.0006346605646929507,-0.015657730960811904,0.042687518641063134,0.0023648214353206966,0.026103691759609148,0.05007894772651543,0.04884207704075182,-0.00442840763435456,0.017675229566818412,-0.05741676753204482,0.0612042666234161,-0.03832030284039613,-0.1511999947576937
-0.0013201020150469369,0.0014329966178055536,0.048631339488958016,-0.0769322952727236,-0.03142469379449071,0.019337895623477413,0.010352737344372398,-0.00493749670545769,0.041154552695988146,-0.006903599257389012,0.00719009865001944,-0.007509491481066398,0.061356848610504874,0.010221147108708707,0.007011592876759735,-0.04123913855928539,-0.030655091229568592,0.04543026667492401,-1.7072581612795538e-05,0.016517377327017982,-0.06025898021585457,0.011285299614488145,-0.023059235303516758,0.011224130662037554,-0.10293846659017919,0.0619172509616799,0.011264755998252772,-0.07437897135422838,0.01919272053166912,-0.01928337663737227,-0.0499006024770158,0.0138137076615766,-0.035185898523989276,0.05590529673895766,0.0128409776182751,0.049386124204286806,-0.032577865620194484,-0.18360594910111383,0.07058464612532206,-0.02438204811255748,0.00657953904906205,-0.0027223878361960197,-0.07423445822150958,0.0062321175922564155,-0.05411566401270211,-0.016880521297856745,-0.10144989782012936,0.07514339713166211,-0.018917987139944654,0.06478395728554444,0.03909959240818464,0.049434115840055054,-0.00968999574514843,0.006243245997332977,0.027533461671354644,-0.02066785922013199,-0.020922842769294382,-0.08579601517275114,0.046485040442917465,-0.010031886302115023,-0.07059029786659117,0.10510325488371451,-0.0072944662754574245,0.05385689079907977,0.0046348525011533585,-0.0392028204181952,0.040924634292823635,-0.05653286152996196,-0.01640421125747305,0.03269090676810707,0.047788537575020246,-0.03793652438887252,0.0436722606673113,0.09864793461304834,-0.011278432225480844,-0.04324168675687374,0.037499754344619655,-0.04054732746774733,0.02181190611578691,-0.003445223623301805,-0.02384289045649271,-0.09311084603535923,0.045975228731678044,0.05270467304785778,-0.15079938460381448,0.12447063561677307,0.0450075409177032,-0.10451720511554138,0.0357111509416205,-0.005788961119813529,-0.08366538395000095,-4.910916583046196e-05,-0.06263574990074545,-0.04368640489244326,-0.014994775003261103,-0.049251895060977324,0.018624962195107307,-0.07367885243144567,-0.05411343441388644,0.016776571613697073,-0.08608001090769378,0.017989246721163046,0.038696781440262,-0.07569029194505725,0.01584428699779859,0.0002893826227958201,-0.13099038205691874,0.02309738470590379,-0.10765658061789657,0.007503200978298452,0.005357943102736047,-0.07401997257998356,-0.03339847539947399,0.021418818258395707,0.07004595736764907,0.09277905888638666,0.013154332104501983,-0.11060649607151313,-0.022829231185693386,-0.002194442693074852,-0.002540234089869872,-0.05251654094315839,-0.023468115375888037,-0.0780815440680847,-0.054306671455248125,0.017156392268482996,-0.06782858613747055,0.03658106080079017,0.0031251919685421096,0.13475078129308632,0.022109569486003334,0.046301829145719335,0.08863711213997975,0.004781651976337904,-0.0353437051222745,-0.024503465348953334,-0.035344586719960415,0.01465802877548237,-0.02351069122501691,0.05034874033931525,-0.016582928767066605,0.01828348342078552,0.04804143465879131,-0.03660859202218004,-0.03325398979434084,-0.10202454565733504,0.039406116727930394,-0.08007818254200358,0.04776598958312339,0.020255500849742526
0.006463229422079593,-0.057746902785680385,0.02202265020559144,-0.07615462925763651,0.0672431742622785,0.03701224209553029,-0.07466541874874964,-0.057333364552983435,0.011594411855753058,-0.05808366060993503,0.03888235213357415,-0.025866155902411994,0.007601311301643427,-0.021126028846005455,-0.06947353741169036,0.03139204443198835,-0.08436967961890647,0.015412260064656616,-0.012801569194922566,-0.006372499172549456,0.0306824030654202,0.02020641798931176,-0.08589006842458859,0.04347540375505463,-0.04496963774514837,-0.05342533800002083,-0.020824713529460068,0.042968553219039654,-0.021109336647926788,0.09412630909399,-0.0657179901017,-0.06330385981301258,0.05453591599486108,-0.00950216678231752,0.08379912218700214,0.01965237910121493,-0.11355565240574934,0.05478923963510233,-0.0151510117213499,-0.03738973613504373,-0.024860403909389844,0.025257253239293165,-0.01390733158764115,-0.0011396687831833206,-0.016900497598520508,0.032982894020035014,0.03333230998342734,-0.016495795863327636,0.058555026763298074,0.012461568459238574,-0.05934811014413506,-0.013645499649244573,0.05132385845295329,0.009053179562301063,0.03148199509980619,-0.030793272314073476,-0.03177025667893692,-0.018781798950984193,-0.02345207296678145,-0.013719937039835036,-0.05762820100277503,0.04764146623655608,0.034590236836286925,-0.01666565843817697,-0.06113383299402951,0.029676413465794912,-0.056243967757197755,-0.001504864246997589,-0.056414827071482564,-0.03132678822171799,-0.04292735781182965,0.01156730831988976,0.015460984365882259,-0.042810059819251046,-0.007500146979817987,-0.06577218259344833,0.10035071510667042,-0.07356392917450587,-0.04253778682626554,0.03440523592357861,-0.0054829966399142565,-0.016529222203409626,0.015049281938421973,0.05513470062365385,0.008484559884808784,-0.023143336334784652,0.08224825296715434,-0.02076205760529511,0.032937046857624816,0.06793472849392564,0.07688612774366207,-0.03911788531590003,0.004211621887004318,0.08664560180788818,0.04282879528632682,-0.024885922210547272,-0.05662890913284877,-0.10208662376886254,-0.018519535372709412,-0.01005238785520067,-0.019071552451725416,0.07621342563766605,-0.09363604188151413,-0.044552299195527535,0.003201544707087298,0.05150241067037034,-0.011965733862200829,-0.10953324881861308,0.06325193903928189,-0.059350361092296376,0.054474856519129575,0.09057504161035518,-0.05404422382741033,-0.08796812167324572,-0.015140204851666061,0.04810216202368703,-0.12118474583744131,-0.03121121189531579,-0.07894603821541724,0.05597133842914577,-0.06871941176100968,-0.02395075231320042,-0.04829253857789356,0.030642546327428574,0.022408870528465383,0.04341204508880175,0.019360694012387845,0.07702290486541057,-0.0012135286986597786,-0.030756196750687147,0.008713350281125888,-0.007237676691817842,-0.015217470379985928,-0.0064067804145293335,0.014296061040825613,-0.005027209195401869,-0.00499468976953849,0.07685748743958469,-0.03500538207363052,-0.03374512584117552,-0.006266008702186485,-0.05985279118604305,0.003288421284097739,-0.03938658687364781,-0.052334953968139454,-0.0871489207063763,-0.04944972811465858,-0.04690088367456953,-0.03318586594035047,-0.0614767355974414
0.02168514035220609,0.0017150832518349971,-0.10095086227753275,-0.028687524093511538,0.045165589937691014,0.09921652269438788,0.027257078683262027,0.10768980667279754,0.002616308706678599,0.018934765142369227,0.03969268060485502,0.009077947561397426,-0.04909746009368638,-0.06798899709696064,-0.016513934550511002,0.03497211339410537,0.0749578333674009,-0.060290616529598544,-0.009428281915062647,-0.014767222536502943,-0.11306962109957246,0.0724941386787613,0.024980887319752083,-0.009237962519305785,0.0952027600111773,-0.05049377215122078,0.018908735586152404,0.14872303003858753,-0.0038964337697508255,-0.049692466291323366,0.06859612877111591,-0.04513199879093174,-0.0032013487513175252,0.032495554272545815,0.043780271959343746,-0.05402742338551353,0.011876331067253054,0.05350350094068483,0.0721037445442431,-0.06707170719078911,-0.0005038931634143394,-0.057350773818809105,0.033421247309519175,0.016153994622895008,-0.12708929963813848,-0.025365878954049598,-0.022426676419861305,0.003932353454463379,0.05089285632780067,0.07585908675889114,0.1727848472640025,0.011381721237298366,0.02767078992720089,0.011299834484081672,-0.04365307807025197,-0.030977885184930276,-0.023822842289547938,0.006218625962860567,-0.07017261509263924,0.009610704179926299,0.005173560186881145,-0.015148736379502635,0.0702988816923425,0.02678134399874667,-0.025067557560302812,0.07736036246804605,0.06530666225974428,-0.02155670663976421,0.06341551684831881,-0.0037890305531645676,-0.012389611496864496,-0.10449600433200504,-0.031321166412578656,0.013985278871389149,0.026659463670955955,0.040506188881408306,0.0967899463929507,-0.03378896775627786,-0.0435630019396644,0.051572294744460116,-0.034136830836268055,0.0941750272542915,0.08457194113176943,-0.012249277340731718,-0.011302713439761216,-0.011478832471190427,-0.0443429149461354,0.00464452863880391,-0.011345263478393035,0.0038439943766888766,-0.044423203559598695,0.08380288726194263,0.03758962847188817,-0.033299343361704446,-0.0967402856034686,-0.13015768041656595,-0.030097038026671505,0.01516251505821267,-0.041970001211807065,0.021227205692926552,-0.047547466443883836,0.0644795331865365,-0.10849663795613784,0.10398678519279897,-0.058674325407831705,-0.026200438625833863,-0.03290915199478818,0.0005860392560126478,-0.04948303094354053,-0.015618028836459543,0.03581783285386941,-0.029645420092127187,-0.02110193250451873,-0.08297318197352378,0.06775792768127356,-0.11733896295897618,-0.0864828371485264,0.0020231116658389046,-0.01718169450288306,0.05100546271070233,0.017331441090480983,-0.053334754262596186,-0.004617875339800427,-0.01167136273502891,0.022562198054935985,-0.04910546407782553,0.016825977295971965,-0.059542404397827806,-0.14845184762208993,-0.018471143821597223,-0.0015927400214909386,-0.037314050070119384,0.05611305280794545,-0.00718114912848053,-0.055211102912298984,0.07348926624595933,0.006413232260378456,-0.05125311715379564,0.03995127872180246,-0.06418042987011499,0.023495496611964175,-0.026874100722558875,-0.07742947030149958,-0.03385928557436836,0.03032084657584304,0.014972603278339913,0.03210145012916197,-0.008894431265905535,-0.014056111390754335,-0.017882286860391196
-0.0017618053137206666,-0.012270114263127135,0.022718667453743402,-0.039201157391052496,0.05725423795826806,-0.04686865229422223,-0.0008883244374391426,-0.027900840675268893,-0.005646519025535726,-0.006857453218008004,0.07321280896365909,-0.03762163599880795,-0.04264086508141659,0.034675994712032976,0.00912489449638839,0.014116672877451346,-0.04395965190324567,-0.0058189672590451364,-0.01836919084356743,0.019690879634589924,-0.06872690226814127,0.0021773145485763806,0.02393795367182434,-0.008628678544138133,-0.015723740228590015,-0.016661689006798302,0.027127774069651285,-0.030206369318240417,0.010997773468959717,-0.04379517819074733,-0.11695667275128595,-0.038638303461816625,-0.11454138852354205,-0.04366206263431785,-0.022746411984617677,-0.08310665587975703,0.10635895324209371,0.021563113027001053,0.08804922253520492,0.021782989414053402,-0.04757443798538198,0.1014530270039893,0.02271271887846858,-0.028540305815909252,0.02994228078116759,-0.11156705030364909,-0.015580606123407644,-0.04834754499044067,-0.03568518256511216,-0.005451444164708007,0.06053614236951745,0.07060856479598679,0.08284361183185479,-0.013483428774780915,-0.0007084844992038595,-0.10024094305332583,-0.039590970220540554,-0.06448282696648469,-0.0009625278920861529,-0.08442396457873697,0.009979991597499632,-0.07457149851935896,0.005805064061007763,0.041732834319896835,0.02532805230723913,0.027520507817354854,0.07160173702481495,0.05948929565381165,0.027163741747109303,-0.0007101222551211221,-0.013710779487807436,-0.027902770025088716,0.0009709601028710477,0.040061153053305744,0.009079007124482091,0.009903414965976885,0.08679533631778796,-0.007653016230912918,-0.007636925226108972,-0.08411616369081314,0.004608242238328354,0.022435578150763844,-0.018773452911560115,0.08225190977781412,-0.01870766216145128,0.08502624922548928,0.018562322958859026,-0.07146094972347973,-0.05294234967940825,-0.037242700903680266,-0.043145060774152644,-0.02879682785680954,-0.0382903981894641,-0.08178168626607446,0.011038653455814697,-0.058616361453791385,0.010288715935160496,-0.04610495694297625,0.058824182331829254,0.026251571455956985,0.03108511518762857,0.035086867141542404,-0.041088323317846405,0.08694039968880064,-0.037667403385136085,-0.06756266353100257,0.004479991433399074,-0.1635340727782586,-0.02228154625018712,-0.027508563089992385,0.012428762818311791,0.04576329911777068,0.015368761756588915,0.07169731767089593,-0.07033706462815677,-0.008135899635795321,-0.025103084294460728,-0.02930991173818032,-0.006404061097227584,0.01760243004221164,-0.009715024038030024,-0.007212342273778506,0.029843443352701934,0.040493306238171406,-0.0024818927837863204,-0.0729124683947572,-0.016750794269117637,-0.010783937664828963,0.011096777234000677,-0.009165879125856018,0.04900056351830976,-0.026022344631859394,0.02070117257644631,0.10765227147714324,0.06044571119022188,0.043272589971390774,0.04525580129183671,-0.0031146142941506343,-0.011879668236703668,0.04085290356924034,0.054722145671608,-0.04592109649415655,-0.03169301822599671,-0.006653020931174869,-0.09704632736107013,-0.017314328118777464,0.008641966968263947,0.022982417870470107,0.005275323576254556,-0.07708819843835646
-0.021684354637114968,-0.034748601784718086,0.07887434718234394,-0.01277666866737184,0.053979445665473275,0.07190351596807201,0.007549561693949801,-0.042108960328995436,-0.08926906533612317,-0.020760828480260098,-0.1340580269930918,0.00048731687161740093,0.07527546724211115,0.0010507981207174206,0.00822704795877234,0.022162338758979896,0.07409539549240651,-0.02696932177273007,-0.01454756865229599,-0.05095311914041433,-0.019774290654715945,-0.010427767391452201,-0.05615590502275373,0.02466628882402678,0.09348408783415948,0.05166274545161239,-0.005104223028517142,0.06262882805430647,-0.08110257869822995,0.13893464281992723,0.03787484334039043,-0.04085867921575125,-0.015061531033854141,-0.1476931406412365,0.028956534020101822,-0.060980175112437654,0.03412165722848388,0.019606870389090418,-0.04387495272716418,-0.095700088694195,-0.0238958347509839,-0.04352013862378373,-0.025047149809333008,-0.07320601490673263,0.06959624570256766,0.03135828677223229,-0.0880201702123451,-0.0507695177626079,0.0942592796031647,-0.016520600678964992,0.06220832079839631,0.06899730474153215,-0.030031165096296015,-0.001807125208445135,0.004115475056647885,-0.06134928321717028,-0.0005538772693545842,-0.05642828314826024,0.05736294414595903,-0.043021394235968076,0.011005481426721184,-0.010250667879176544,0.024745278910122258,0.014313989496745182,0.05723411721402753,-0.04503996341142486,-0.01019332958096846,0.03865408165858447,-0.04150385043232919,0.057219588115426566,-0.016531281799751257,-0.049977128240608494,0.0010218601680526502,0.019991505106151768,-0.03659344120364939,-0.037415024954006885,0.051310226171741226,4.670881730778927e-05,0.09042641093932413,-0.06891590126467609,-0.06326685333286192,-0.058048592678010325,-0.027429203909450656,0.023517189443427435,-0.0844228674306857,-0.0764758632476629,-0.16715272448054083,-0.03410067879607117,-0.04767918962426847,-0.0050578227948468646,0.018641560175777894,-0.05172795920246067,-0.03352794034953829,0.015387771840348301,0.06459924257426716,0.007989471079120264,-0.003153264967677342,-0.004232282744612363,-0.12214234868448987,0.11021816894360575,-0.03146760165329544,0.0050068272523119675,-0.08633506089318076,0.008904359442298001,-0.04142925160144472,0.002476400296481315,-0.01663777044636593,0.011532239432158076,0.06806025289570491,-0.04912660368987897,-0.008477029292818372,0.02350875721925987,-0.03593672301486345,-0.02253714236781513,0.06117221051565838,0.02201834649104281,0.054305395787608964,-0.03166386027722028,0.012933361756876476,-0.03232418476351285,0.06845902257208993,0.04459923332494254,-0.005030416764944161,0.07331553108799332,-0.022078604351406874,0.015462910703453313,0.016251768549179552,-0.013676854647446692,0.04352900087311384,-0.03241770971415313,0.0665352973871383,-0.056142101791357236,0.019955247026840525,-0.02880694781769469,0.06574960274914622,0.05281276215747492,0.038405249831580814,0.043886874246804444,-0.005106411909463902,0.051703143401858165,-0.03203374965188696,-0.1340587227085208,0.012971316261435271,0.04661908176610563,-0.022440092030313122,-0.026245135953633026,0.016697392788920108,-0.0008612759566456329,0.0007598024238568702,0.042466073688772296
