0.003300234713618753,-0.015083671339752433,-0.09442231401490858,0.03979607911159855,0.050759166812223915,0.010175354385554744,-0.06655794292952648,-0.06370679762244191,-0.009680683955827045,-0.0026085524804762374,0.06412777387331166,-0.07000866738234009,0.009473771634176216,0.028907991599696446,0.03778467862191861,0.11370195682659047,-0.004773661959557404,0.031231638135817086,-0.014334386569905176,-0.029719288388020647,-0.07602917559429824,0.01038912791293839,0.01148782594910713,0.005406406261696916,-0.03217339319190373,0.08639333862945375,-0.06434160313759703,0.0163220145605791,-0.006373697639126995,-0.033418989456473897,-0.017604598872758573,0.040516024262893836,-0.015896957047550783,0.032694754140589095,0.05601003754954241,-0.022509732372609323,0.06464911151021466,-0.02760519981281384,0.006210859267441655,-0.027880986279231593,0.03663387805370781,-0.004175937793919284,0.018257580119324445,-0.032541704701471004,-0.02066353231387006,-0.004549709855771162,0.018029919501926197,-0.008140978954753929,-0.08602690470636826,0.03126256052459435,0.0274560939070472,0.10614302796378434,0.03645922713438974,-0.004578940244833136,-0.028426172998156415,0.13313962777897304,0.08875215078629053,0.010240095273283352,0.08632470836104206,0.07030056185672351,-0.12970652465826985,0.054213237786183685,0.10563184000078323,0.02257315916502978,0.07242810298114583,0.04282222842312012,-0.05021029978862131,0.0364368646429741,-0.0010748762912155855,-0.04329566591264593,0.003978496530307648,0.06213078620972539,-0.023812355650301216,-0.07666441228543827,0.02974931145940025,0.003911464684059682,0.04540481356367235,-0.036236364076860136,-0.04195781241949759,0.054783340564966865,0.026930796614919903,0.01992088212398142,-0.018890379346923607,0.10169717211504146,0.04201267851387159,-0.03281919256481121,-0.01940286302707039,0.10678593897927567,-0.08758806306723721,-0.08266617629766065,-0.07231511221545717,0.007931524948023932,0.024199185107422694,0.02778720385563954,-0.0041109126939442185,0.05698607557697003,-0.03144608011068066,0.01772623015130259,-0.07436134186036096,0.019921304596989618,0.0055495767915024335,0.021471907736494655,0.04445817034354492,0.021917511446117463,0.020711989041476357,0.08225297651735657,-0.005567330413894244,0.07233491050256725,0.032509299926144736,-0.022916971080266805,-0.06432794127588548,-0.06688853723391272,-0.03876591249512924,0.036075723544892205,0.037656712586039934,-0.0796685022389964,0.10962767172386535,-0.017801766222215586,0.027202784592906988,0.03699900730218664,0.004092898790259965,0.047431531081592426,-0.019217521221414638,0.01638121798367263,0.014092885382079328,0.018858527725093936,-0.05979873308659159,-0.057957793481132655,-0.00754839976166833,0.024018691301643753,0.059328942734324236,0.0687771702495522,-0.019129462604151597,0.04369353614220164,-0.07989757121243475,0.10007957506446082,-0.12148870272364001,-0.039561488156613804,-0.039854743300823094,-0.05403859698602659,0.024134294352637066,-0.01027853796873383,-0.015353636356759329,0.015087938078892398,-0.030403775883193124,-0.07796899419584548,-0.04144889836864589,0.01209558205087084,0.008640196779147347,-0.03883742474683781
-0.04548629027257039,0.008976871425000138,-0.007138308483110592,-0.03513264709074041,0.043172538248016055,-0.0762846637751316,0.033681788076430845,-0.03141373206970794,0.09727565337134715,0.03507398648599551,0.01661141449453809,-0.07045147571544277,0.01466701902582888,0.015214761131262801,0.006024221937161405,-0.06202900193476826,-0.09694015371761146,0.000351920825235201,0.05833909845615681,0.0013908993075313783,0.04794976128743637,-0.03907848229907811,-0.06080136394361478,0.05330007615404992,-0.012561522975351971,-0.017003313858239243,0.050505760112433865,0.001639829979189345,-0.0716854664761948,0.06981144234284191,-0.002129681874010671,-0.026520093232658516,0.02233892098154998,-0.05729041191837915,-0.049945983569888525,-0.036225894682171245,-0.09319486287211431,0.01271540365803688,0.014749171502931788,-0.016957808099539826,-0.06372987601503402,0.04242834948704226,0.014804134821758642,0.07760184328925106,0.03551928474961356,-0.0048485385314518134,-0.04241188816143685,-0.07451632438653083,0.014773138625543632,0.017255213904720058,0.021364490890741404,0.019662525458184952,0.10778888396306083,-0.03448457240023356,0.00428199895070969,0.06077697678619028,0.01212222061901075,0.00859959211381859,-0.0440779606177635,0.02831168362107055,-0.0044053127009550845,-0.11814910415511472,-0.01685965428630909,-0.004012246993488344,0.016353712494903187,0.007136492690497086,0.061411621723524316,-0.02000989489818503,0.028094493768921668,0.025467461312023786,-0.03595115228790902,0.02146570821206797,0.02120397380392204,-0.0037996878918761696,0.05980972015140079,-0.05001136311781729,-0.024501915616033206,0.0369062017061353,-0.02605452808263471,0.017995604276392588,0.10927638213326885,0.02181694749997225,-0.007940066489392045,0.06549918640010029,0.09871007621274763,-0.018654605919809816,0.04030644595317729,-0.05742354780867401,-0.013296809621893859,0.06161939506455279,-0.04824828988654957,-0.02126897594122274,-0.05139393866479075,-0.08336979525533963,0.035471735485119775,-0.06350595873404644,0.01214501142619842,0.07850132290622577,-0.0018035770096432426,0.01683382053868267,0.01564080095391102,0.028211535493486505,-0.013116403003485558,0.04165238560719335,0.014330854762195576,0.06886806960467294,-0.05866413561770345,0.018808338425533425,0.05850875335653621,0.005772874394528943,-0.0007046355624496202,-0.06379705760815989,-0.0030253605608898983,0.05295766580492231,0.035119100826167635,-0.022462283607369352,0.03510351941028029,-0.06330835319113233,0.011459425092729186,0.04641618381848917,0.02627483605234579,0.046328849763211465,-0.03342023441579621,0.05584753500711939,-0.06921638554202732,-0.07341828989049087,0.03612467469077208,-8.448976335031639e-05,0.014892895085259776,0.033209422516992604,-0.01914683614497616,0.0008293671078992034,0.0018918617908729263,-0.034253907815315156,0.09893385688414058,0.034193448760226154,0.0038239184192462345,0.0030664019610605452,-0.02697741374742896,-0.07209565177290438,-0.004254579571200891,-0.05436589017238478,0.004470951628294022,0.0015686215756694462,0.0472731019477697,-0.012256014050718776,0.06566711635348393,0.018674007840742704,0.11008268361108993,0.005685872608876826
-0.06307694980361923,-0.00016268844637195703,0.04644730181973182,0.030358245544312205,0.03508134646500401,-0.0299140926553775,-0.023311878750122264,0.01143570569262486,0.08894505857215854,0.060536823105694526,0.08641918483653625,0.018486829810643878,0.07080647746802214,-0.02555014597461021,0.03188312223877158,0.06460676812282568,-0.05220690808900656,0.016747307388975195,-0.03402166639111696,-0.005241896633628612,0.012807346672072223,0.016526563592308814,-0.030658209746601137,-0.052011133279953825,0.1612192345172789,-0.07346058672201633,0.02192136750167281,-0.04708104942314064,-0.09158334825294874,-0.04086940794085417,-0.04450107042990503,-0.00635768738523193,0.04577210467502429,0.010610599086466973,-0.04520472703985847,-0.021921552501744077,-0.007121455460642571,0.09051984074331663,0.010472991303534077,-0.06457447509368755,0.029697394296600878,-0.05201658473754732,-0.03523072778223273,-0.03380717345656594,0.010998443211309763,-0.022280892332827113,-0.00024323605774603384,-0.01806876295483573,-0.03397300946793551,-0.028244547554119457,0.03683994366483639,0.07592798750909897,0.011497824929208042,0.021644333129578967,-0.015067177279158139,0.01877535581867131,0.007806911190935396,0.005434535888483459,-0.07842889283001186,0.06134891972737897,0.007731313034937042,0.024625002277968655,-0.04557276829997224,-0.11218728387243113,-0.06695128800686329,0.0037441090828606305,0.0389598668813042,-0.051428474895206126,-0.014108777319246243,-0.001027176413810398,0.1291255964142829,0.015873029957894698,-0.019644917165974853,0.039087178756086104,-0.07148549775444274,-0.04418508310067217,-0.0641496394556688,-0.08999585043177268,-0.011051204924866356,-0.002917169478489973,0.08060989770805592,-0.02232522217402377,0.032180462597722496,0.018959333621209083,0.04576241829360677,-0.03264441792742733,-0.1262310098481171,-0.10547744424108645,0.03693921389803022,-0.13172048638098657,-0.0010976340943054652,0.03611596764916134,-0.05197161550974012,0.020484717852021283,-0.040792739938784794,-0.010690434507884535,0.0064976914444837735,-0.03520039276067009,-0.01840582472379819,-0.030971854547798338,0.07505274763411697,0.006269690558532259,-0.059762824890249575,0.031372728084901116,-0.01564819504074331,-0.027949426270044486,0.023616414593772138,0.017085613364482093,-0.0438239603800798,0.021334544350872522,-0.04816827466383378,-0.022854176858326473,-0.004167780231077169,-0.04243837799993052,0.026918400575319544,-0.00577037653818751,0.04213135584284098,-0.01122647745440566,0.02403156077358639,0.012395664371243873,0.01848350436521842,0.0574381188352186,0.009548973982960712,-0.053904903230115084,0.08664896200803542,0.05167719237936173,-0.0670250175985504,-0.0508804130299883,-0.07539683063119879,-0.09115279565142055,-0.006262312821039257,-0.029467622837143537,0.027286132590143067,-0.04829209748180899,-0.014031873255548862,-0.04141970267106991,0.03661468744373297,-0.055554436760216874,-0.03895591150753633,0.08531517352186357,-0.04500785198556863,0.019956594696460023,-0.1042625211773535,0.11225631730849155,0.05277769446222188,-0.02128087296710185,-0.058694203219329666,0.0104667368591714,0.03901629730227693,0.017836307045787033
0.08039593976002327,-0.04107587291457507,0.012793597565827305,-0.031739140767098176,0.033490244793380974,-0.04736563627143847,0.006076426669080562,-0.013665248930900148,-0.02800737979582284,-0.12722448357967725,-0.12043635054470193,-0.010434894122374229,0.08709231201659896,0.028165417216511206,-0.09046394385785612,-0.05569440816047704,0.08994222473173878,0.01048411696294369,-0.005493829761957769,-0.047167412394278865,0.003230211852414842,-0.0003163088986162099,-0.07937484950910366,-0.034145396005962655,-0.007535670079256719,0.11802865913247237,-0.0389901878013151,0.008578120259137388,-0.04900238381827447,-0.0015817203542164717,0.004577710738864462,0.08915177060546711,-0.02332801687015104,-0.004259803286127068,-0.03304349989734224,-0.03679142304679043,0.0014130928478041616,-0.06338509243146592,-0.0012280352646945676,-0.03791552442957075,-0.023305966444258,0.030623567967689877,-0.05739375402514084,0.001783855123608166,-0.050586279178673,0.044775637448857604,0.04246295959289015,-0.03953715603725066,0.00806067077057541,-0.05443714161663173,0.05217298041227336,-0.03471593960958538,0.031071017677712684,0.13173669625993092,-0.029429546800482386,-0.03347590566561295,-0.05234432918639083,0.08818634272152835,0.019724662564047063,-0.04628800345582077,-0.019565183828134092,-0.14934385532254493,-0.023347212589284745,0.0051136485574973,-0.016951851336062473,0.010474867089922044,0.061080441021778176,-0.007303944130721936,-0.08468547155041006,-0.02303766332925893,-0.03866837172541385,0.09403142959735575,0.033979235825500435,-0.13005442390587152,-0.08556000809080681,0.11646993105753618,0.024372627858139467,0.06466637970312127,0.07859436325733513,0.03568655072742369,0.010447351798945782,0.03143254572590944,-0.005278737982061026,-0.028451760572653376,0.03465135890776844,0.07260750157425054,0.04673298847696589,-0.03004197738583869,-0.08031586704554639,0.04059264375082698,0.04503806290362629,-0.019422021723583392,-0.036038663352160966,-0.026760227057663524,0.023220293986458536,0.08323634436948386,0.040130734067034414,0.00815020025659117,0.007597603259441408,0.02082625848710862,0.06411730411673486,0.06596701511605454,-0.055661355056562334,-0.042988356866011025,0.008519901840644637,-0.07460606417401551,0.047449431156230924,-0.0031860179630158743,-0.030417113811092796,-0.06865492602711558,-0.059918509189977744,0.09655644866044548,-0.024626845309789955,0.004426964736200891,0.08624912955252483,-0.0777961094986406,0.02007126314328677,-0.03837141211621621,0.010062115352055019,-0.11098431022099538,-0.10390434958824027,0.020957320940782828,-0.05697709459875284,0.000144135223980292,0.030834414376498948,0.005997444920100008,0.022792770019262883,0.024802440674450664,-0.04502771794179786,-0.02048645803234896,0.023291322875881725,0.014897199783557616,-0.07004629059658866,0.06459868597739697,-0.12026820694549538,0.01875276998744296,0.05821188713140183,0.016163007937091092,-0.0019942337483097087,-0.003688356818192855,0.001190624927929111,0.01005506463485533,0.03926673336314258,0.05971728927337061,-0.05676392102780083,0.04727455601676264,0.0308294036233989,0.03511616044940987,0.02731941142319565,-0.0427969888390787
-0.012062918635367736,0.01473535975567295,0.025498750601267387,-0.07443288537993097,-0.040497567698871806,-0.018579835560269264,-0.03997932015402545,0.05061876402399822,-0.054505366928351284,-0.029434356207243068,-0.008111019666581018,-0.003906766683397506,0.04091015594016735,0.07870210658619708,-0.07384208143306949,-0.14214390513896702,0.12301982272704652,0.0034951721599235644,-0.013641823633285886,-0.0359882895510152,-0.019098126903156012,0.017071020535612408,0.04417161643221836,-0.0028248246912703267,-0.049478921229306735,0.019007071786739934,0.01968640799102399,0.10668974608396452,0.08164739853978414,-0.008045487967138469,-0.017316369667369113,-0.009718621953141276,0.049474673308576904,0.004887143449770544,-0.09955494068339259,-0.036044714750000414,0.006874666226873198,0.025966456829421787,-0.026832737608104482,0.055775503291717765,0.03172280355891877,0.06687454526762251,-0.03943280436061473,-0.037595790787404076,-0.006374134978607018,-0.04890736031823093,-0.04205783177387861,-0.005778401428394638,-0.09121403742288034,0.02659280620068804,-0.09225443996647383,0.09388076355011292,0.10849488453657694,-0.012594081553582362,-0.01992099600808269,-0.04259942842255818,-0.11410585146715053,-0.006445056211944954,-0.053338795729939915,-0.07848324118183415,-0.041254205824151936,-0.03473831220723906,0.07319831307696834,-0.09338345978039225,-0.039897818135416166,0.019758321504738854,-0.04350470671389411,0.017599967567313295,-0.026221341916077633,0.013180687014084315,-0.04845718430712049,-0.024077062712828994,-0.11046476666825913,-0.054532942005482025,-0.15896829449211836,0.05653040866840485,-0.06250176286954436,0.09001683980127047,-0.06446716714497816,0.09261545982502738,0.000615664246042523,-0.0817759988405524,0.02559242712669912,-0.003523644694332866,-0.052332000953556085,-0.01468132124413565,0.029163880810214517,-0.060638190359955935,-0.06220613205654128,-0.02544778562057027,-0.07718055510522323,-0.028050016321123628,0.04427397913867326,0.015180300428199704,-0.028714858897615686,0.00267722384157958,-0.0070798661947209926,0.03373455587511024,0.02724563457743015,0.054518462912461194,-0.01795833469405753,-0.0016870879612953392,-0.023012021184092523,-0.15325710053981256,-0.008150472753825674,0.0461529766821092,0.013401842636072208,0.0056352089652970845,-0.02669963857692681,-0.01762211788525731,-0.0051742307861042105,0.11204164228429991,-0.05393778546393531,0.04029230784987278,-0.04304552834971037,0.06447825726020039,-0.019582673144765583,0.04655681824235428,0.0074888365353923,-0.0357084709909704,0.0214851231000768,0.004153522859191921,-0.039673394514987206,0.026134326149437843,0.03346618777104377,-0.06252243210208897,0.012577769829173946,0.030226722936223808,-0.019644765389971217,-0.023656017307349564,-0.028382782849047498,-0.041749217318357686,0.003714485822758996,-0.06971922558834592,0.05059618493069559,-0.00014121869010497826,0.011068274228956045,-0.03601175104575443,0.03149191443039216,-0.036540204158790286,0.004463421043421649,-0.04836339118115197,0.013840383453367227,-0.01530025454825314,-0.013854493201941851,-0.03628008084644792,-0.043111190572848374,0.01218608435656915,0.004668866484414532,0.02667643121716934
-0.004096463385706092,-0.038668319624541286,-0.11567554473947603,0.042654254231843276,0.011959827849299987,0.017503881482542998,0.015171224378603902,0.004916128781517168,-0.05750964832124538,-0.09703203203263565,0.05715175888268906,-0.03362482158124258,-0.04283053477459894,0.09941992573253203,0.015439683311458362,-0.032684243763782365,0.013807601127508284,-0.0019601624860825736,0.041158440445838614,-0.02908307440517501,-0.007361660939283342,0.08779895170904298,-0.0005963846632186919,0.015875933411062793,-0.05344629703504071,0.14521575208573473,0.06917509788731498,0.040152580996568536,-0.01284604232771167,-0.05331179718588892,0.037861865787728925,-0.046712617917741873,-0.009711413352500779,0.017914906725919187,0.04746035781396505,0.018344067251620327,-0.021826805174745733,-0.047446245985639054,0.04452441881174447,0.0753317876761866,-0.043279592853020944,0.010612178781972612,-0.02624930215141621,-0.03678420700124792,-0.0659151666471735,-0.044210438020457675,0.012454629470349773,0.019401041126305897,-0.020641539222300113,-0.006148773015768839,0.012912678090058709,0.0026708687469960586,-0.07191615007037155,0.012783698620818738,0.0761334848635427,0.004671197962289612,0.07720433244315328,0.05406629544219583,-0.07347384725530758,0.02182661835328732,0.01250401710749881,-0.03309229717725248,0.03300241300062766,0.021117603460605077,-0.0063199393988151295,-0.0032941293299724823,0.08624146054337685,-0.05681838036863361,0.03601478942342085,-0.01616979826000938,0.023152045219371066,-0.045128847574060375,0.0182914724460159,0.008698260299822843,0.07142796038600194,-0.007696239736192028,0.09042026395035696,0.06841819531533183,0.00962385479610298,0.050946244635411767,0.009405561244990179,0.10135133985758026,-0.056773765772788025,0.05761094032513739,0.050335516517706264,-0.039950490531219504,0.06411481925649706,0.02525070999055515,0.08226567846755832,0.0018017939297689644,-0.028776163197112393,0.0631099571239131,-0.056227273865592,0.04208408820156495,0.06474042948651425,-0.019851959018792623,0.0035340738899289296,0.08451108586677905,-0.019891316137134556,0.00637914849537212,-0.025391504971810353,0.02744484156792866,-0.04827465695668769,0.024278934241437813,0.039195479838269105,0.10346459303574435,0.0999779136507711,-0.07266791963577518,-0.025372618010645283,0.066260961417607,0.02512689810042676,0.03702593620431753,0.018156009710250075,0.03821798642884417,0.009149529362615975,0.03559641960954196,-0.04251616156657028,0.011562614393712088,-0.025126585552108477,-0.007787061153382614,-0.05587651570517727,0.06659599164729392,-0.03568610360137773,-0.006884484058482137,-0.11436938745908183,0.000431540198087756,-0.11549482969229591,-0.05160369842211747,0.010135857483606856,-0.05477179108357883,-0.03751068500900135,0.03397714425928724,0.07768653108224102,0.025755958373708473,-0.0493364354977415,0.04797714867401889,-0.006821126682590763,-0.03457370550496356,0.014330128295898198,0.03171817894155577,0.007303778309331714,-0.04605115089797259,-0.030899114011772533,0.035938823401601976,0.08001637716075163,-0.015115225080275003,-0.07540526152711356,0.020647883244871774,0.02642805617487119,-0.04794777461919417
1.168016963224689e-07,-0.004023178695967426,0.010522669717732937,-0.009642784386489633,-0.028075124729479102,-0.03179463698208014,-0.021198151066910653,0.0030387798646587267,-0.002415114156276743,-0.022570975747045658,0.029477797952238673,-0.05588303300664527,-0.0310215528766643,-0.03686757209766468,0.01604989990578819,0.056688349507548884,-0.033938920796620635,-0.026535986209962076,0.022980465264837886,-0.083903587351971,-0.043457813107900284,0.00237186233416354,0.06943779546953793,0.018113924539447566,0.0074150257080056485,0.03448016399744387,0.01598454431475959,0.09163485548326071,0.0173198887692132,-0.018136935896733198,0.06351985202474915,0.09122628041685599,-0.011655581338354681,0.007424867995337355,0.022958529206440988,-0.0010747943071273867,0.02749286251828051,0.010397112648095758,0.0029758901997789474,-0.03033548892055526,0.02399818005304883,-0.013559717355599618,-0.013601775305857116,0.01630487689619167,0.009983337686990073,0.053673922370892004,0.004106282168440606,0.034646662740981236,-0.035140826142292705,-0.01786488096259233,0.06251317539870138,0.005145795290790472,0.04792826085142344,0.006766538987809919,-0.030033785658811252,0.05093024169480435,-0.12766800120563485,0.016733838970994678,0.058126745335950164,-0.03103143817303445,0.015894548303475003,-0.08503348883071882,0.018709156530870893,0.07148236915128021,0.11261516524423797,0.015736440381540883,-0.08546159631031706,0.01958428241773267,0.057691025478982874,0.07741587829171508,0.0430598423670828,-0.027102668340198838,-0.030048101323257942,-0.01523114155930569,0.10555126627415375,-0.002520087270908143,0.006705966288702883,-0.045714389704757746,-0.05320924215033803,0.04112691045560298,-0.059146879542093134,-0.05435619309082433,0.11564540844060042,0.01821561000843492,0.045592408113476375,-0.05635255825069494,0.11775594384545413,-0.02495620752743391,-0.11325521336122864,-0.026953848429575173,0.013984346632066096,0.09944745203822714,-0.020995926318978834,-0.15160998265325765,0.009831360195983846,-0.008925770608438225,0.18536970322761856,-0.09942217958217682,0.0026925102472991733,-0.1010451607639813,0.025639961559357077,0.009926024042401494,0.004177227533775549,-0.05973333182413464,-0.032299022536229016,-0.035523336483979304,-0.07386370229346761,-0.04812816986038865,-0.05056824807947359,0.07039688819246681,0.00829246512174063,0.038170386944305836,0.01619302178184085,0.004642275536084487,-0.004833010145585789,-0.012427081544714844,0.04258123499957874,-0.0019208598239564803,0.07359462417721598,0.02009518645549127,0.04503666199601895,0.017370640348574825,-0.04394372925447547,-0.051229435450539935,0.017008720250349846,0.021712759502655256,-5.288578379818541e-05,-0.057674630649608205,0.023228783782733357,0.08036834304378056,0.02207875845172447,-0.054883361921193946,-0.015500414752218729,-0.08718349678828882,-0.03385863660322442,0.005695537296831261,-0.01149388613528103,0.041027025555493424,-0.04903198762180459,-0.05756362354785198,0.05716674781245454,-0.0012674814912976393,-0.07932966097442623,0.023601986507959624,0.00678221087159268,-0.021225503077607177,-0.031801491358272246,-0.09893020821748617,0.022674590131112247,-0.005669713972398132
0.02337680472353844,0.004670512661351107,-0.03158119280458872,0.0491683460260449,0.019500499652490948,0.04466889637893992,0.025075642631970294,-0.06273794126799942,0.03206085720432747,0.04668958160584585,-0.009744656718391994,-0.06507361344687615,0.0963534218211026,0.04039008946921522,0.0317365232722267,-0.04579171242298028,-0.056941966781456056,0.03593928014935744,0.06154819499704099,0.0017101377774399928,0.07939573195645173,-0.01585045053537033,0.017733327867358577,0.054615119486767914,0.04754507135995443,-0.01886487454463362,-0.03680145611000415,0.015664683781546288,0.11037851941270908,0.017870431569272375,-0.09350581287389505,-0.10967565396247493,-0.024613446281166722,0.027452548377449742,-0.033555164325173095,0.04687819985549946,-0.015131537668461538,-0.04194324783215397,-0.03004202947137711,-0.014921473407604663,-0.00654845476347012,-0.03022750465546546,-0.10132637749310189,0.067463901501883,0.026809807423523502,0.013953218406357024,0.08993500450230084,0.02410598486503552,-0.0699086861656144,-0.03707987856479275,-0.043713727211474186,0.0246974934430066,0.08447141203232006,0.05647701310267444,-0.021052129871464004,0.027558596101791222,0.0048810566397893395,0.008023678324417177,0.016967402445559287,-0.01591831363054136,0.05442489735026942,0.12219252725980739,-0.005977987473178483,0.028390217205402406,-0.009561447209493031,0.026666495775030073,0.04787621457471907,-0.025855197563037387,-0.03838101543146353,-0.033441857610200465,-0.0239701919421846,-0.03644278897058642,0.01571749160505007,-0.03201100673303904,-0.12380261462576599,0.024933970422283583,0.07743464511135673,0.04185447186200929,0.0034533729774359465,0.025576625235298852,-0.02964498207668502,0.051032502817265436,-0.04877496314395295,-0.031108192879420172,-0.015553751786533499,0.009224360630830755,0.0886062581905351,0.011591089027592138,-0.05264491472223803,0.04455179184641556,-0.025184948729350412,-0.010651965283116922,-0.018637436952515907,0.022811357991473644,0.016916868846878735,0.09525793781618118,0.035582505262849604,0.010968708267768404,-0.06042592734573989,-0.011771951978033166,-0.015215163864336918,0.12502448155369872,0.024146116777885158,-0.0024198216193189693,-0.06735662638125067,-0.021232137371736345,-0.03538180860915248,-0.06041097397970953,-0.025553939701888916,-0.026113729271264645,-0.00576398053034739,-0.03988147164433149,0.010186635088379161,-0.009960368534142689,0.038633766411642186,-0.052488932780217476,0.08717503694316775,-0.0022935147161019707,-0.01614203656441214,-0.02051717777277317,0.005497377436165227,-0.054741099154074734,0.022209674093225353,-0.03841941103960379,0.03482321591458968,-0.04037786285272221,-0.023321000513806246,0.003516975019350146,0.07381015363206285,0.03198639029359746,-0.007821826431457807,0.07871503201014941,-0.031591844859713406,0.09283234852236778,-0.027832902580586693,-0.07181957354980573,-0.022082408908114772,-0.017402742093712304,-0.05661804220291822,-0.050410298831870384,-0.0051688340204028614,-0.019397735379028915,0.09134413864934017,0.043012110832836875,0.07083602725469501,-0.02318904941985137,-0.029818371718204388,0.046651634422188185,0.02490143364970807,0.07681439343345124
0.05643149680258314,0.051587391114240495,-0.0013290787071383676,0.02850627199056962,-0.05953361709886876,-0.057439614906341,0.011595722253660162,-0.04052596144986415,-0.07065167981505036,0.006101944331382817,0.0063764830891345,-0.004310868951618907,-0.008748123324042838,-0.07826465168443444,0.06584487490328654,-0.10656016627955675,0.09795264073262831,0.0239488006788982,0.09149021424628968,-0.02925876165001945,0.02740829956999837,-0.012826464452459522,-0.1469800002466015,0.09330408854126078,0.08279296370985577,0.06087484298357364,0.02710323186990549,-0.009917834848754416,0.004486865115052344,-0.041331964263757105,-0.0050361030622298845,0.002484478719065764,-0.07145496524705333,-0.02769312996577224,0.021822696376418923,0.01182459559778056,-0.005766573070910536,0.06416288602296508,-0.0020973297937867384,0.02791959098091185,0.03882246022907799,0.012153931889612366,-0.07551419968062291,-0.008928740515780935,0.04059431073979046,0.04862278143450628,0.07251018737030662,-0.026583497908095333,0.04508549800097362,0.03241751914156485,-0.045042805767212576,0.008563742230167695,0.13128497056594582,0.006554843224872917,0.04867723261268399,-0.04361112730477925,-0.02385939832373796,0.03265842030901273,-0.02448218959005408,0.020336198049449014,-0.007966720220147345,0.0704317477054638,-0.007389107421665163,-0.05977626113457591,0.09672096698227761,-0.00347643929682747,0.03473441604851251,0.09126967180543318,2.697877064523049e-05,0.006128877478458626,0.014816665887868384,-0.11540003589098322,0.019796612735404194,-0.03622933496040273,-0.09960198906028937,0.0485012077641263,-0.0253826191627659,-0.02016678089334178,0.09995666834658506,-0.012646988419258307,0.006556480266092345,0.03015532262759085,0.02565505459169552,-0.0594567722840951,-0.021702268244700677,0.021196616530509912,0.052055439946883005,0.03273907897432735,-0.030122532997004077,0.007449631744838427,-0.028164549868534037,0.03832052742990218,0.04570825981228445,0.01761058710928817,0.06618761417122031,0.034216557016773924,-0.018231988594613367,-0.007667570100922039,0.06827648627989359,-0.05473557262495268,0.017748885924693078,0.10544258914726541,0.018204171949790942,-0.09463508149088562,0.11174744558638854,0.026622037247646033,-0.020797370640268247,0.09991631855085116,-0.02577906018948909,-0.017878635985421436,-0.023773358315257218,-0.09617295544412306,-0.005451325731868115,0.0402278040760045,0.03563583311755586,-0.056991731296573124,0.05267104253524751,-0.03478466879999035,0.06344859815466503,-0.07210924847798819,-0.02067403386024018,0.019921633837619062,0.04244547076195794,-0.012770922325907041,-0.023960606435670814,0.015287914482780706,0.04400908557791053,-0.058604853369482894,0.025233399409318742,0.011941874188143646,-0.03735037979081475,-0.02760758200647732,-0.004470190985493652,0.07495823066227346,-0.07446088803029635,-0.023388149543918768,-0.0022864783433844457,-0.0065419825491126035,-0.008881979622224253,0.05066103278389992,0.0340046958173229,-0.05569991686935225,0.022370415177174575,-0.0013487234756312519,0.047741954471065835,0.009775881518379461,0.02389314795626431,0.10139862992073406,0.004853687494839187,-0.07084098244567444
-0.060917101484571065,-0.03137416596414906,-0.0942907094676721,0.008822070960368371,-0.028288296208099643,0.18296628173932306,0.08191123434054892,-0.07439934433359462,0.024729263121244665,-0.0871505504730748,0.026572158473113835,-0.028527448213445956,-0.011239719062505062,-0.02322289886812257,-0.0365759221130479,-0.0048779274140167955,-0.03452131716791448,-0.017834267912623977,0.040878209242767215,-0.00023227839794655913,0.013607293224146793,0.07991975690641605,-0.05817649221234926,0.0810958527724678,-0.004511209838154948,-0.007510429205184879,-0.09002317427437352,0.017330675734554355,-0.0831492973618727,0.045109272066771955,0.012223868785398793,0.10063556471621808,0.07859456303994822,-0.06032165076235168,0.005816968981480725,-0.028226020620553818,0.03614436145779212,-0.010832000432201585,-0.05845301983484625,0.05485934415746146,0.03825232607073106,-0.038461646031612236,-0.0059211338940941384,-0.039979657643128594,0.013552699420840877,0.046051213376039415,-0.014250063059032887,-0.12794868787623498,0.007174281528887566,0.07685444179088705,0.025479601316342186,-0.05305603596351549,0.011539738878174497,0.016988958055434517,0.02221406943722991,0.002671749251222814,-0.006134891722507617,0.07510888320243239,-0.04454498093852115,-0.020028161464523294,-0.10600834544661539,-0.028959483639730454,0.03183327854234478,0.03933849745165735,-0.04225186880214473,-0.006087046215713316,0.020752917316390087,-0.05272779168419199,-0.07834937089353317,-0.037515506780222155,-0.06645862698677352,-0.007375673934368348,-0.03194844592219186,0.041117834655060546,-0.11642859728874758,0.002338415635004939,-0.03971594333881115,-0.010785323056519979,-0.0270391840483781,0.03456308305166595,0.07557248649872747,0.009826089338732056,-0.060620943358874455,-0.021622818182938867,-0.010261667228344755,-0.03732939298379259,0.034786038843146634,-0.03729543619482293,0.011018301138884166,-0.0245845950368319,-0.054028404878370836,0.008459469820827008,0.0045380666755227535,0.07145686108181848,-0.045627611498023905,-0.04762150278541638,-0.01288604783036202,-0.046583658752513,0.04413395013098424,-0.0119245746560797,-0.045580038756353976,0.104026549200153,-0.029544529898030327,-0.0060115183085434325,-0.003471530681186562,-0.030240022517016185,0.0033833560082368714,-0.0222227206915381,-0.07062665116769633,-0.075774719861439,-0.04749453489573529,-0.028250137995415113,0.04059236341146066,-0.03872172854037676,-0.016326897714876876,0.03483392211303273,0.007372174476177025,-0.0008663284101658601,0.044882601566459374,-0.02002725870076686,-0.05589746881058759,-0.007518111610519486,0.08338823066418274,-0.01098644558071001,-0.07219802919290481,-0.06905501383241595,0.03664306861434789,-0.021447283687648654,-0.020777884813566544,0.07699349345776088,-0.049450915598364176,0.06437794351480937,0.02881166446509188,0.014467198451888992,-0.03961867875099439,-0.015965517579636823,0.007181081222065245,0.08414930055519372,-0.04127023807959501,-0.014817982745282326,-0.021056021846084384,0.06897847201393248,0.027955257791542915,-0.008917254170951685,0.004591542020007099,-0.026271986040407348,0.11808267740357238,0.023951816774081824,0.0686282079667946,0.054398081921009596
0.11855551134536844,-0.029155948232305957,-0.012317388932062854,0.00817629274196148,0.008332059488471955,0.021161752465876833,-0.03869331034863617,-0.07450140011208163,-0.040112255380046306,0.04390237544703515,-0.02482222191660648,0.08707637540399098,-0.03376336089914333,0.016157495875758866,0.03677425139179544,0.001873214773984261,0.019337979270502716,-0.022511466570021173,-0.039843129470220465,0.005984502671335605,-0.04746623744878211,-0.042630515368646135,0.03622567709717899,-0.007481243233671312,0.08557224687047446,-0.0036585153413754607,0.004577445069383102,0.03469878015744944,-0.042374879124914465,0.006815848257626268,0.04327122214266521,-0.06393392596099595,-0.014260650143766653,0.04492741290138259,-0.021851709227875327,0.06935518979937144,-0.002988836931644049,0.018749545789888203,0.07605567909143403,0.043106101838673895,-0.07552179163469691,-0.020157838444567405,-0.015049829334560892,0.014652954796401942,0.022819719405157483,-0.05303810595165148,0.02147384596020867,-0.022285832210194038,-0.03770345724439208,-0.024108287704070846,-0.07083084207593261,0.06396797817655145,0.01401288094772875,-0.006640727168349366,-0.013330752034791782,-0.019660199541384798,0.08034051188963667,-0.04043524400556073,-0.022452003562262554,0.05919550731867969,-0.04221375447066364,-0.05488758000460612,-0.006318121383728703,0.0785263051910896,-0.018117335056263492,-0.07370826967590641,-0.042275090159268364,0.0268737864938041,0.07433417864150778,0.10108290925422,-0.011327347650810926,-0.04403094671872987,0.01163997835374188,-0.0042876222588921695,-0.08539997427827642,-0.02228562504295037,0.010012890568593847,0.07078753385848739,0.04499794332527318,-0.010520201624107443,0.01124263916633955,-0.09529117854340698,0.017805780623244647,0.017031773040770727,0.05921153650806434,0.040130712220978304,0.05365145129356416,-0.034630413737347654,-0.022690249930395402,-0.0968677024104697,-0.03119774608239133,-0.04767697074375289,-0.07130064345170706,0.03658327163825608,-0.04594892267966311,0.0028338173626962864,0.012289800309809544,0.031427573646622436,-0.031833809255509,-0.016209989155165333,-0.0965286600815544,0.04474815232460305,-0.004073379943684548,-0.005189182313891025,-0.03200804594831139,0.034283879587729604,-0.005853018107687068,0.017147650153511475,0.04730894360706818,0.06712988120065096,-0.11045583926486273,0.04362133786091345,0.06459007773517413,-0.08352383110439905,0.03279653970332446,0.014632852783565648,-0.005390417269621584,-0.04233453311935986,0.005870904953113539,-0.04699704018632446,-0.05342561023344132,-0.05611462817506697,-0.03143801806242251,-0.07756243277833089,-0.06673483287773141,0.01739079339817865,-0.018516350948569193,-0.022375467131935323,0.0679444250589825,0.02375375451029244,-0.015474168867083431,-0.13267126962129516,-0.037879724789327586,0.02414396791602772,-0.08825865003371308,0.008657364249731436,0.004684052927148469,0.04935407722425292,0.07064736472758612,-0.02870985749277231,0.06248437803991514,-0.02572869837653168,0.05429168774010504,-0.025557526980582133,0.0189370872366745,0.0014997769826305032,-0.018160183496603307,0.02513728925012425,0.0326216577855393,-0.009992551729560192
0.014163439808163163,-0.03277743915897874,-0.05323787754562543,0.09267178748275647,-0.037979423493798264,-0.02087774904077363,-0.016134974125330756,-0.020158839861834466,-0.052125680743779934,0.0693382440009045,0.011714328856258486,0.0689915224269879,0.02776145478517855,-0.0205616345207953,-0.05247204534991704,0.003186956708209758,-0.03400407912567597,0.029784462542959512,-0.003773241322832703,-0.026024307753180667,-0.03364874383421252,-0.02608809994717534,-0.006214257865605327,0.026935374529606003,-0.041958407312954506,0.03699223095090042,-0.012923967636939197,0.06674182522504025,0.07075161505653876,-0.01150695623647029,0.029562534784058892,-0.042801871129874554,0.01790828208297638,-0.08319989767417262,-0.050369839850711626,-0.023601898616654925,-0.08791471345865924,0.03616689006047456,-0.06761461649849985,0.03295901121850362,-0.044699050917238574,-0.04837930630892124,0.015075289225668103,0.00026357702955364423,-0.026440253739315887,0.07718275909705528,-0.05803741317282794,-0.0036065317417007434,-0.022355810343855063,-0.04405912452876997,-0.01733240270522432,0.03945135484039069,-0.00406932156850249,-0.02251707132827022,-0.007879048551805863,0.058043740843876424,0.013307821860199324,0.031413237961020885,0.09957868736196575,0.03458273295823188,0.01296849451499112,0.03387705480001249,0.012704824622952726,0.11785771947521216,-0.05356293784973242,-0.052627342314150186,0.015812509328901464,-0.060797231621760414,0.03938198814199233,-0.0044189318891948905,-0.011371248168163017,0.008506909286341204,-0.08094244027466113,0.032920724678709726,0.0034232284412941518,0.013140406756595079,0.037082831886197945,0.009606412486096567,0.019743065789740586,0.007464875355425236,-0.04611854721976968,-0.028935563717754992,0.013835187495157063,0.014138765580090876,-0.02927326991088849,0.021938761087628343,-0.047702349437776924,-0.02276000395686705,0.027873081521147255,-0.014068869876345674,0.052668982940296476,-0.011923218059886954,0.005825733016000541,0.004615590616168288,-0.06314309493470108,-0.02480546941013218,-0.0178745581160282,-0.03564372352640775,-0.03720974526878982,-0.025846942932189733,0.03188961150591294,0.0043677208811582395,0.04455453223099399,-0.023722273251896672,-0.09415352184861431,-0.022112100330259253,0.012156315666843347,-0.007139717871427441,0.10157306841315669,0.018681959061322573,-0.02965685785157523,-0.06824068671457777,-0.013748407666584759,0.023669379795219807,0.09197437156590646,0.008854110104118275,0.03986280254880472,-0.08334119481889396,0.06722396774289208,0.002500730493308621,-0.011757414162795542,-0.007541767316019788,0.02834015837973551,-0.021341626633439838,-0.017533987931278756,-0.020860796304441324,-0.01780938076150746,0.04428068243634269,-0.06487829110508245,-0.018656203321691045,-0.03015050227085257,-0.021651999300364214,-0.06756796951908403,-0.05031404012180752,-0.04691961515930038,-0.010803577041805405,0.0029498071650488253,-0.09189069465330417,0.028661861711989478,0.013408078595683985,0.015012578274545973,-0.0607013686824603,0.04029104361923708,0.06338680822736105,0.06623011478377439,0.07370540863917445,-0.05357230486849092,0.015500380347198656,0.034347615668244805,-0.006673961082128664
-0.008597721859575037,-0.0528381704974166,0.0013481037421111985,0.08068514683221956,0.07577134174490417,0.06868247746317413,-0.041858433259258275,-0.003176037704357405,-0.0404052574909016,-0.09103465740231843,-0.039954761270588675,0.013670696796135811,-0.016122182376811477,-0.0625709903349494,0.08700355024864871,-0.06446386212969157,0.015615358154123115,0.02381712013093324,-0.028555647236622333,-0.006423739346663684,0.003105749102071661,-0.008112440265741112,0.07322149829099107,-0.0429716274920988,-0.008215124793618711,0.1343844511109558,0.06759974410116867,0.028442161558505322,0.021309459044413132,-0.009345635099184391,-0.022330645266175633,-0.003146791943102535,0.01238156067536613,-0.031953850730065236,-0.03219204979641351,0.018743164463234204,-0.014089604696217534,0.015062584676516506,0.003831694824483731,0.0009290150451725333,-0.04020966891164617,0.066563537107987,-0.15455166028633407,-0.04569922983009175,-0.043982105278896934,0.04560376461175854,-0.0365602600638276,0.0472722172290879,-0.045507764641554205,0.011996985541530447,-0.0023726876438906726,-0.11582989074148516,0.03527558466598739,-0.04142787286626565,-0.02265395882520709,-0.0733800981034258,-0.04574692805042095,-0.058536096184173415,0.05039435305561161,0.011796818990162296,0.006619017850356388,0.002955569684684805,-0.07110299019958152,0.05129499989099664,-0.07355877846868021,0.03583781167084035,0.011409577461642091,0.0540924911639784,-0.09337033766332217,-0.013629265843196592,0.03460735395566186,-0.1121150429386771,0.05443069725009003,0.017867449713682305,0.041403245526840785,0.041903949940554776,-0.0685917945559999,0.022965343265214676,-0.02086143174771888,0.039093538316610776,0.06074974321969013,0.08251705266782185,0.013988660469540717,0.03208158118335411,0.025413893769249928,-0.047871333310733295,0.09823861021969145,-0.005300499306925081,-0.061989986401253014,-0.08757789491878974,0.0008078444912079132,-0.005827172796354905,-0.02506381523116532,-0.019042679678298247,0.08547898608444293,0.02409673570801607,-0.0662071864517649,0.05015167844661825,0.019670379252203486,0.0004351036350522052,-0.02678231513198457,-0.010583114710564504,-0.06169312395902917,-0.006559375064563381,-0.042604279190083215,0.08388274960621646,-0.03673080413944628,-0.024240107679380018,-0.006582067140553305,-0.009543625264563236,0.001362477095547264,0.09097075411676726,0.04031645821459544,-0.07594163549758853,-0.007857052583889426,-0.03162988514384349,-0.06355610923624844,0.00854149820302613,0.03558299475153419,-0.07350389683435085,0.01647223520917811,0.013627558234888659,-0.03141516930022499,-0.06509274251259405,0.018590267030033875,-0.014779730688260422,-0.00045859362278446905,0.03774518284488356,-0.0010882780493702247,0.01582500417073036,-0.005787738803698554,0.00406088702212595,0.04971304484143516,0.017059624180113173,0.036742919363445106,0.02190864335538286,-0.09622583706145274,-0.03374749766061827,0.04943994379688775,0.009289453908245825,0.03743250893701905,-0.04222774254434299,-0.08273282717880394,0.021918439786264225,0.016144126318049748,0.04348350915467464,-0.02351714049644963,0.049156126327939094,-0.06682025925930588,-0.021194444647312127
0.016169586708580493,0.05804836663263257,-0.03574750881408958,-0.10094183128013519,-0.10054516979818169,-0.04070351977579301,0.1068302842950347,-0.06674155067479733,0.05328673084850061,-0.04822415925002621,-0.056936816955986416,-0.030954595258352393,0.005064995716105141,0.05229729504059583,-0.06395070402486958,-0.07504339445233851,-0.07571120462027939,0.010529872706630625,-0.05098341329736811,0.08376737006115746,-0.0431254918173884,-0.11984473203358012,0.0035678568738356253,0.00027217956578001154,-0.05385828384551297,0.03486004880965754,-0.042224983544521026,0.075894735360626,-0.06651049242057187,-0.015713605040237933,0.012445379973266923,-0.0540290098350586,0.012186062902837472,0.033647719181642353,-0.008143631092860067,0.02484254826275453,-0.05284988887955101,0.06202039191251869,0.025784237063946967,0.020858910629505473,-0.015226975347469283,-0.05342916803680026,-0.017482822604213882,0.0677769791677468,0.0322840440927607,0.05684108017095384,-0.006095143057146882,-0.10541298421116724,-0.00305258813778237,0.0284292722501724,0.019389556274255253,-0.047378004236128084,0.0037485790636960043,0.029326726640704754,-0.043144203979417504,0.09035700676031246,-0.059743478711572734,0.009977884248821829,0.03920635033854815,-0.06594916115865256,-0.008384754307118564,-0.045106715374992355,0.013639240302355072,-0.04171338394990235,-0.038152320464216606,0.009009610753365604,-0.014999397538625054,0.025886718589107325,0.01758593003067465,-0.0005267908135053486,0.016249030439767904,-0.0011018173191550563,-0.03606806685595054,-0.06578460323327764,0.025417479100455772,0.02064623476784429,0.11662056604152089,-0.028428940711278806,0.050131252295540434,0.04932160710373453,-0.046139189660425566,-0.07810077411840266,-0.019014177955296876,0.022499126194407245,0.019673376958342877,0.011666862293737144,-0.014412622915460643,-0.09930076012876225,-0.020327023267289634,-0.10139780238318079,-0.04444708323825415,0.007365521900086548,0.0467164782363407,-0.0474736568364115,-0.025501956141453314,0.047845862300778454,0.09300401236942166,-0.0792850180250045,-0.0060914463734240325,0.0224034891109994,-0.020983312709107933,-0.07245791641190781,-0.006662661723733377,-0.025328924632197495,0.013515861935366857,-0.09810686867479974,-0.014073861696233292,-0.011598703346411362,-0.028122233017911318,-0.012198038229137226,-0.005893969011247174,-0.05541794100751006,0.0075277869426732796,0.02155449038893592,-0.021342718513817794,0.0006227893189786692,-0.09092193177665642,0.010072590253491378,0.07445217785433508,0.043486579662998855,0.017559418386005294,-0.05433740662809968,0.039636372908154215,-0.022879580757233748,0.0241091645127262,0.0310251402870693,-0.015130384953821619,0.07144167142664903,-0.01850971754725952,-0.08001816214229274,0.054643251192151014,0.006395463396459112,0.040335466679870924,0.027143272278312803,0.014801043692900289,-0.039288688923200976,-0.03958627313848492,0.0015395803483248497,0.04089786492691125,-0.0138126992117063,-0.02981244674046078,-0.034053059224825086,-0.019731733936531805,-0.022195571708698583,-0.04941796628004089,0.03809459197613145,0.0863043144258545,0.004935332525143157,0.07520057800247046,0.040348315577962236
-0.0828468130690883,-0.045809949564591355,0.0745665867962881,0.07343496825964867,-0.035419583460545946,0.08323350832946769,0.12115228656470158,-0.0725890667457813,-0.006592790338885439,0.034881450296807455,0.05018071053272296,0.005781041040746062,-0.06366728307325002,0.058273917179602834,0.04462050859569203,0.04518103337798583,-0.008476407435786431,0.017093392113913034,-0.022089619218567343,0.027584982386104948,0.07902649533592403,0.006173443855370051,-0.04740024312886413,-0.009638587383814921,-0.00712421567259753,-0.006984527593111264,-0.03447078014423575,-0.03871166503026576,-0.08006534070635928,-0.04348435232523028,-0.032707623030281505,0.041066766083784116,-0.019213875939338643,-0.026354345642019168,0.054690157908300445,-0.022955433516576168,-0.026782820987274962,0.03268336066947228,0.10048290464968306,0.10044489504443326,-0.001983949254250069,-0.07288186206868957,-0.008819835465754268,0.11019117584796197,-0.056556522737518496,-0.048394944638326214,-0.05227623985996854,0.01706814154049718,-0.0006373357874277444,-0.03253659066830386,0.04666813582376654,0.04629511932556349,-0.14117083489158394,0.13502334163895338,-0.052041195229767995,0.058279723812804704,-0.06781044515787212,0.02568762015574936,-0.009527007170487893,-0.024500753481756305,-0.08861797167958711,-0.035523418365928455,0.07854733415247143,0.010403290040325123,0.034643596692236364,-0.035944800440663935,0.05630171702133582,0.05198584334962948,0.016729679482379144,-0.03684198261030573,-0.042813196082175944,-0.015323247096279104,0.043017402766833815,-0.08164958295995309,0.04380803917469617,-0.05449260177050997,-0.02128701677947497,-0.05062360493977659,0.0548593903778339,0.01919659304895598,0.0619910922711083,0.02042041580145784,0.0027632470913231547,0.013702926408177505,-0.05382573276133265,0.055536558223919764,0.036023600677827325,0.004137569434875875,0.02197115770253192,0.09391251615495531,-0.054702775245278695,-0.04068422874202637,0.009632777744778378,0.06259548321854991,0.005039476562800072,0.04753668857018344,0.05515601670589898,0.040163672448320524,-0.07538470969259337,0.04197844363473542,0.09140103116474363,-0.052370433629530116,0.04381628233378353,0.07427667853674665,-0.00036591729795468144,0.06016632659615612,0.06593924362769737,-0.006959529594118143,-0.0559859876794588,-0.013477845982558596,-0.013779803665035307,-0.0038688456605944655,-0.026903613426822175,0.042458081905408264,0.00040463970656196734,0.00433398706296125,0.08966603047912676,0.005919952978356794,-0.03193096387458568,-0.00608026142057878,-0.029985371397556613,0.06216975094538315,-0.04569313884357612,0.09374572993623419,-0.04245616927439892,-0.06505928220904829,0.028476330367202,0.009292762102777517,0.0023261610048279295,-0.13186349304933342,0.006805341732816915,-0.028609793088315006,0.023111273023591176,-0.06637532514131317,0.019854635586458495,-0.019692434223359142,-0.08890138855873622,0.0030244546393504716,0.018648770809336523,-0.023811054599290667,-0.04048893905907144,0.03504176722309741,-0.019279346539271068,0.03803797684972855,0.043642190946259415,-0.007535780153611581,-0.05068142595375183,-0.00971782516315453,-0.002048785182246593,0.038719103276537534
-0.07784394591149485,-0.058731721087351814,-0.04952844141486454,-0.12413558694333766,0.03799150469120185,0.019177222357196592,0.01881019669792187,0.004841755598988385,-0.04383630212821506,-0.04276800354797855,-0.011146357748403068,0.014922201989489315,0.05573727524233049,0.07648139185633278,0.11027551195341079,0.017321326119488712,0.025624964026188232,0.05383032487136268,0.05267317746105737,0.046968095901766,-0.006858906444863081,0.03647690879498983,0.018861958449557365,-0.041773077629230965,-0.011550651726964421,-0.041724241326664496,0.004919304319495384,-0.02196293088848186,-0.03225543162397611,-0.004811433273497161,-0.003670219256442515,0.05538094669282923,0.008804466293441454,0.0819499073840581,-0.01572403966698643,-0.035910020485241737,-0.02504576957979512,0.026199061767526174,0.005267307131476232,-0.01730089396376325,0.056812643558441386,0.024244813401967925,0.025316531712963077,-0.05891736625602667,0.03999466978523441,0.08088858357159177,-0.015259853587660558,0.0030792162919893776,-0.058137099093702654,-0.014357906416519114,0.022104758661886253,-0.08942178027808487,0.011876006351134472,-0.05064773659189195,0.042060686795746725,-0.03528717905432977,0.11029726694102378,-0.025965065813251604,-0.05870553693720618,-0.03655148023446192,0.007738742131964619,0.05537323757382945,0.02536601373412425,-0.0029345111149453,-0.049439976307119375,0.051117836513897716,0.022947362951358203,0.05418811179424892,-0.05374721726764894,0.02655047169399837,-0.014845219309687263,-0.007103512618515444,-0.0044051765339987335,-0.037289034119650386,-0.03949503516942204,-0.007448727031319951,-0.030843162529402165,0.03760367610174094,-0.09929111529497073,-0.002067621084913432,0.06781931856148075,0.016638387908868183,-0.05844248309555081,0.1109399250106955,0.029346089245806024,-0.02573999830713846,-0.07118216218344471,-0.0500969472836516,-0.026614835197487932,-0.06449156819961231,-0.04663532965538477,0.044847421994344674,0.057091307675120655,-0.0449808684260563,0.05404216916781596,-0.05397333758096692,-0.052335076005926864,0.08070224773601331,-0.006236710366244829,-0.006195777794601805,-0.09138486211031106,-0.08935265482248411,-0.10147987333120456,-0.04155145413773104,0.03264138001150858,-0.04192128508288179,-0.020704627411064352,0.016095639450452455,-0.03056442084839808,0.004698564594630505,0.05637802199450299,-0.015097787899822024,-0.04048005165747736,0.03642149088208788,0.09116270979615204,0.004602909593391989,-0.04684962400038499,-0.00647208126942202,0.043652329090659976,0.030796662562489897,0.04582532966828571,0.032415988332231464,-0.00048101546564124773,0.053819387027779414,0.05961964006755328,-0.0068182060902262295,-0.09660982154064865,0.03323486634090655,0.007455252573251674,-0.08300127285458979,-0.0496271733226659,-0.0021599380099953463,-0.013077138269370936,0.09676974456706712,-0.11070519559686746,0.07656477380658752,-0.061739443168746674,0.0007686761807200494,-0.07646066134055916,-0.01623924058791814,-0.007520471941723531,0.0067628272322286034,0.04967121870685419,0.09006965987813291,0.042754468945667264,0.02322777356812335,-0.022758903085208074,-0.029251953109566332,0.05192785196722849,-0.024005085637857363
0.03200087655779522,0.008466426186499275,-0.026451061033721152,-0.04166543731904846,-0.018585971945717813,0.007054967457152859,0.05709170010477176,0.08015811375324683,-0.045250028946303006,0.07443635728415907,-0.05640102898029421,-0.038371787130805045,-0.029330160494521643,-0.00043264563432945317,0.03447950413344349,0.000620804592753775,-0.11158878876186051,-0.020614108065528755,-0.021949320619951904,-0.0651705952501247,0.0713015638725686,-0.04334328200493526,0.027843199826369118,-0.03458027854972488,0.024354723225615032,-0.021587589567759063,0.0032737628631440726,0.007820907727058157,-0.038111988890448006,-0.03338168442822656,-0.024325409933825135,-0.004942292281330324,0.007499058934581121,0.049465165052387905,0.03971111103143445,-0.08145293604583902,-0.06259579438349358,0.006433394183950835,0.031145265303888604,-0.025834472990274894,0.039847421289579854,0.02279724502621255,-0.0773915743781372,0.03800066202630001,-0.004400905346845837,-0.037149694439258786,0.020280240286011084,0.032851776094185124,0.013840334211737743,0.038844050224427266,0.06091316939633993,0.07168979986191783,-0.01049416402684013,-0.01468948781704566,-0.048948958375825094,0.006956405580767144,0.01088430320679158,-0.03582584766499867,-0.043108797110385046,-0.004560991141324844,0.03684720627450103,0.031640520011663474,0.043072828835884994,0.0060708954075935255,-0.0012911924540904276,0.0010356345379438437,0.033941288381676954,0.05022641946915442,0.021710087016530634,0.03400839389136879,-0.042622359947970256,-0.018067830405790436,-0.01674316140728446,-0.07542692636286272,-0.06364007502400049,-0.0027475554594420235,0.047488818878309434,0.04747646215248478,-0.03367465262781915,-0.0355912081733203,0.016465937359190483,0.0007120220663787145,-0.11540379206000856,0.0158509861131593,-3.861566870878616e-05,-0.05865870578369604,0.007021598248426374,0.11573549365540578,-0.09143736269692401,0.11182046913800996,0.001870518100155249,0.058597168307542365,0.05766076577988287,-0.0003713818668589878,0.05385445727665193,0.036865260105170196,-0.07829682713507956,-0.009906738643351863,0.017226072671977198,0.021621073098031494,-0.06192609854421389,0.10104472774615261,0.06847937601037503,0.01456721520623907,0.07614260236692262,-0.10096567729776,-0.04347811641398396,0.0395959182270163,0.008126062254487096,-0.018977597271321686,-0.03980269932773572,0.05722720031913106,0.012408469563441953,-0.011819391138515054,0.13816605630663925,0.08993155811103744,0.06256883914868366,-0.006488335878060051,-0.0499481061199538,0.009978548728376769,-0.009639128093545704,-0.04468321239708126,0.0010095422667068402,-0.021938487326761756,-0.043647767631515164,0.01601962335321914,-0.0557586202494506,-0.006870755697724893,0.029360844198900976,0.0044282921428461415,-0.04372357747231611,0.07215724577727417,-0.02411458642520136,-0.09152900975178224,-0.14660257869156285,-0.06174973771933665,-0.0351808039701005,-0.021768651731619876,0.019303441734717125,-0.017442967743128864,0.0011425056768276677,-0.09196900829001199,0.002603571041682102,-0.03389951399972872,-0.03808477039363997,0.0917032371285332,-0.0025608684252966768,0.00923671949520475,0.04239032467750069,-0.0686802091909404
0.0125676765309094,-0.134217599919783,0.04138089411803115,-0.03302160292701379,-0.037384380846569816,-0.01879537104560417,-0.053374487036004184,-0.041403563921387,0.09346710454581934,0.02860977249242498,-0.00960914026845246,-0.04130634975207153,-0.0171374985343978,-0.11163449125314631,-0.09520221388637776,0.04012627747118626,-0.07628538281811148,-0.02604943104888712,-0.0438158044086527,0.05494400991516801,0.0005132791576838955,0.05696477640253269,-0.03350193232104188,-0.02900929262301814,0.04345007169524601,0.040309212349911056,0.05084171533875666,-0.00813808531209196,-0.03769163959355534,-0.023551866638367634,0.0008040574233649396,0.0464364455120974,0.01565237823626719,-0.007006427128652687,0.12065540198443768,0.006262417796317317,-0.06367644555647083,0.06440981868651346,-0.0023174226755635517,0.0129825081889156,-0.030819273153589125,0.05334523729796148,-0.05582704101807066,0.010153239414360329,0.09980886290267843,0.009063214649405384,0.07445823165456729,-0.008937247567163051,0.050317787372205956,-0.05290726285307638,-0.1068468858643258,-0.046933355208431324,0.06911618614000073,0.03858995031416056,-0.001068998949937226,-0.01911272256787919,-0.011365494527145394,0.07604473333343616,0.043777184175563845,0.0695225532979405,-0.06294999057088221,-0.01936204278963517,0.018350716664245346,0.024570695938880668,0.07212636985127496,-0.00024267011935144196,0.026039533422981126,0.04909626610415641,-0.04144074357011487,-0.02439917936170463,-0.1107168932274495,-0.0980096608714434,0.062046720484033084,-0.04021238232340473,-0.0706264620840701,0.07868372175313634,-0.01635417808388449,-0.0013028465205598173,-0.1038055673612425,0.010625268874453687,0.012388435220787641,0.03040121116943831,0.023571681183564418,0.038177735327560566,0.07517535172487322,-0.00207368612342221,-0.006264400008985417,0.03397012577145939,0.037248193983663594,0.005699019582111793,0.08005414381861203,0.026080195136092124,0.019605028725855664,0.12761639323152485,-0.04371648543168925,0.06828811836667116,0.015992697792664667,-0.012739352458804441,-0.018944197012005785,-0.03968097149299675,-0.062202542866030074,0.0011783446555830917,-0.021730257385957942,-0.008759280460353512,0.08105540862045617,-0.02226691959842684,0.006417854758054828,-0.00969215270570271,0.10167385943721031,0.025696126822535012,-0.0015615640982706044,-0.0787948198148914,0.05503690476069014,0.0552456369201001,-0.02089846632018142,0.041468652740297256,-0.019361536623857867,0.05595585995062593,-0.05936038918469608,-0.06716787407409196,0.08487782484529446,0.16784162888042892,-0.022232056005207997,-0.06099154116696559,0.04185243663667822,0.046528919132219564,-0.01506054645168494,0.03162536171848014,0.07635356536736189,0.041155933269029214,0.018199609400799246,0.023179841117302775,-0.0279691183551339,-0.06335951301013268,-0.053033919900050464,-0.061143565429063344,0.07354311576914296,0.036875169922295545,0.0644261777611969,0.061239722683273934,-0.07343721665628404,0.02771943885574431,-0.03449540180277275,-0.1303535864126743,0.08831038460735775,-0.01872002758062364,0.022854402099817782,-0.038146258228794534,0.0079048215768791,0.05370286810622753
0.04027571722472591,0.03908164473434047,0.014380893618379824,0.03537012187769194,-0.1006436440953925,-0.014642045747073517,0.054796455494798335,0.001026946446928435,-0.030193024039028092,-0.005778066177271151,-0.01926028507661352,-0.01821484497804376,-0.00045598372489017233,-0.04296277023441912,0.04003973812812612,-0.048979920033519544,-0.044223256299846414,-0.015934824164509084,-0.0471517226466417,-0.09187273038257722,-0.004115993284750562,0.08188312091056048,-0.008746086009282882,0.032228839407185024,-0.025844586077746777,0.06705809324598179,-0.05413814433539057,0.09370230269653844,0.05970426465004346,-0.018477098637751214,0.05845189344232823,0.015229731555774702,-0.04412735758279954,-0.06997381094183494,0.02427145174922117,0.025719300242448003,0.015231863030760349,-0.0359810874843219,0.06736206827956513,0.05492491646537156,-0.07380925988919046,0.07847952635985335,0.029058865815401357,-0.056758470573838676,0.02248574930962559,-0.03462779949271578,-0.042351131685166646,-0.02802004943524627,-0.009208714536347062,0.05123739186832776,-0.04898874919930493,0.010211148232826872,-0.054738422544025105,0.11478051135789324,0.08701154797931474,0.00803122906612348,0.12468037215987525,0.06342703635961242,0.020389772620640786,0.019699584233459775,-0.010016676423443257,-0.062420778614405925,0.10283623969779489,-0.06035982268302864,0.02503114371085508,0.013960270049419084,0.03220437908589044,0.07312093507542328,0.02258823473964364,0.03941577963826192,-0.03653138950106356,0.020663536070831847,-0.020931164474671766,-0.025403977268214802,0.0010378001005831973,-0.001322905216203113,-0.011596674044740265,0.04548489462580867,0.12486767691704488,0.037109801774174625,0.07743775372843795,0.02709869699059643,0.018452659007498075,-0.039391440496982164,0.07686282768568187,-0.01834955733081307,0.029099094457477503,0.03636698677076598,-0.013068505851541594,-0.07295269615538581,-0.03372919080709742,0.04542895386755605,-0.032147792744686765,0.07602592130507643,0.12609651201465366,-0.010543887077995973,0.12558624432630464,0.03140042538104129,0.04015179787528535,0.014252689696148036,-0.03696884620203973,-0.0052392258570710505,-0.0036431018768377003,0.06279746775188702,0.04641469245060182,0.006425001782910318,-0.09153864141746612,-0.0342395114634821,-0.028684780634550173,-0.006061779135303717,-0.03149610004831672,0.04493886521933218,-0.11185121722399292,0.05566576952466331,0.00016698895458523797,0.031951401186050714,-0.006589188623169562,0.09483799794252545,-0.09213446755756696,-0.020825420065998947,-0.050010664078828704,-0.02658144963211573,-0.043153921945217194,0.04877568826334414,0.026754184262156852,0.017557036067369053,-0.032928705317412835,0.02348478504273051,-0.05714970860990273,0.04907664515360109,0.017668121925466122,0.0643318065600834,-0.022106093490617623,-0.001263412171913542,0.027563333193229612,-0.004883068945829973,0.012161639041491071,-0.038513208032953945,-0.005371376347534905,-0.05309380730933098,0.0030478095001237955,0.013779563764828128,-0.01837511090231189,-0.05915682856053626,0.058283832657676914,0.019299955978862457,-0.01925565116351055,0.052230862343601255,0.011676404533763372,-0.03218784554926516
-0.00045559893727488627,0.023786057166798772,0.014333326502050412,0.011083835415485977,-0.004986267418914603,0.0052365433113405755,-0.010922916457418774,-0.06325308741436989,0.008452123497035512,0.1393990638941097,0.01621601880002602,0.02608020535208133,-0.10683432570187518,0.02998202133715277,0.0852714796072754,0.07937488976727476,0.0009817895560607435,-0.0923520753862182,-0.023482760263630435,-0.027196287488676838,-0.05262045666712864,0.031293229638096685,0.0020299413115662723,0.06874914345603131,0.051270892748487715,-0.08505665249091,0.06393279122440283,0.0361635456611871,0.07686661294583412,0.046092771748365714,-0.04196060422339849,0.06081777816034906,0.04705568194730061,0.005896311058905031,-0.07271761921654595,0.011127086105055008,0.028885731551772334,-0.010400096855891817,-0.016711675317496486,-0.09666475737637621,-0.03192362987474892,0.10236785308021788,-0.011938214431138544,0.02668272630882306,-0.020017043631260754,0.022517454808500575,0.05908718461905476,0.0860997234399488,-0.015246071018916918,-0.024367510221475472,0.013355354656569889,0.023913856941362825,-0.002629741704719643,0.04896075573826566,0.019360474663972393,-0.11517587663345835,0.01485839165359164,-0.03729068581106639,-0.0711030488814069,0.03685165514435952,-0.03584125444913804,-0.031047885679927806,-0.06739387898085063,-0.05949713222932338,-0.05167273422744273,0.01718449322643223,-0.016403494664685197,0.003839109540577984,-0.044768473770203675,-0.005000464790178438,0.02027562561570294,0.05661141112559683,0.0732101229160995,0.0010557778981348598,-0.05102448534454986,-0.032457821650667816,0.06877132304147181,0.008473228452781728,0.0653890529365446,0.06632434578682572,0.055008906135130375,0.011058826983954046,-0.04233608024580967,0.05993460317452759,-0.021739805807637368,-0.01409421898223006,0.08442241077182816,0.013735520302683412,0.04022228514372164,-0.17430555997476413,0.12009658163799647,0.02417205799998135,-0.01209343268189679,-0.014205448783424394,0.007019243479454756,-0.004775708883453497,0.005401624400569228,-0.0719143624720832,0.10010838614145301,-0.026553114154697056,-0.042312036191772144,-0.05859112433277934,0.02716234397017839,0.0753300688645532,-0.03641718631968694,0.024131116000450828,0.017997692097709007,0.08203943066189637,0.05234351653901211,-0.053754726027274005,0.001727511694614908,-0.05985458131735277,0.046295247437562845,0.035488937870462096,-0.12238380009027172,-0.006681421055822922,0.06018213251400371,-0.06425279113879452,0.0282764438805258,-0.06970496920895254,0.05738555963712094,0.013148073694497992,-0.0654829049200439,0.06810352087473506,-0.00036558143167409314,-0.058057903802811464,0.06997101754138507,0.0695776502253104,0.045864021077187976,0.018523267778559345,-0.013985884463380819,0.03144923566006878,-0.009587195823540149,-0.0022746788771169433,0.01998083832931314,0.03089271309486025,-0.027904838487801575,0.03316299578325276,-0.08670211523879802,0.060713908198046306,-0.0006652862126989833,-0.013198387471090778,-0.026242061656835087,0.030151556811606438,0.11007281018488382,-0.05974745471813434,-0.07186121102979576,-0.061639747634235666,-0.030221156084672574,0.10587316154488131
0.018590564596698094,0.001246157393772096,-0.015394999579719038,0.009935971381130617,-0.06987792140714211,-0.01293615582581329,0.004572124870078796,-0.025705118472530215,0.0685379885658995,-0.030171307649401912,-0.007236417773667712,0.0367145551609592,-0.01124957666237422,-0.0330481053057462,0.07287107843214435,0.08330253384415574,-0.006803497946649573,0.08023825569576776,0.04666400995669467,-0.03489446193588906,0.15541085350504283,-0.03151692509008968,0.13287897961151993,0.008234023207129857,0.007154147385766979,0.08035706524728425,-0.041987920943526456,-0.010772824974398139,0.0014890036526205245,0.005036846305390816,0.08282953928011959,0.03416792700165709,0.010242875887454768,-0.06021867413746027,0.018017723376917334,-0.012235310815125067,0.03519115860159305,-0.056271969132494055,0.14193449075939732,0.08854508087881331,-0.00021597010763721805,-0.0668323405769818,0.16343231331286862,-0.010738936828583668,0.052022657475817205,0.0181884350138992,0.008157132322612951,-0.04369925684361773,0.019804627454771673,-0.06399944093432217,-0.076372339566001,0.05060616784163158,-0.028865421724136243,-0.01788104698308212,0.04636025973452266,0.001891339576830581,-0.02036082917718347,-0.010166226776556415,-0.06546141841109764,-0.005092458319720747,-0.07174150040958738,-0.013823300505123762,0.00646575503216626,-0.03445150787963504,-0.0671768165307761,0.08585421271000614,0.014959944721485537,0.03067717644992671,-0.004516333025577881,0.015289398385751917,0.007781044859571552,0.022214293867278672,0.01758804015413437,-0.028792531218859323,-0.008345114710511869,0.04178684682401444,-0.006329364781950291,0.017921563684870113,-0.04112876014873066,0.013145256820267763,-0.05850681788082415,0.005912225894824912,-0.061863110528987776,-0.14262305402099745,-0.061029527283245226,-0.038962002297459664,0.11891671206690357,-0.0024915912473542504,-0.026357914201895802,0.09822571941817876,0.02598255212191253,0.018775613434096887,0.000815638053879196,0.01695717604512696,-0.018421120167087243,0.05863182453063425,-0.06073553384075209,-0.006846908574809491,0.05452947912991862,0.02523634031456055,-0.033479933056818366,-0.08263356350038185,-0.03410489134167013,-0.04627589801021801,0.0809532805303471,-0.02578646662927717,-0.010605486101262898,0.10711252849342841,0.02818930059571541,0.08412151429007025,-0.056908817493405595,0.07243680793396189,-0.0385839014821552,0.044048861646020274,-0.02572424038069584,-0.10594702382559273,-0.039141912893718704,-0.0877132953397086,0.039421695435967026,-0.013767070425313957,-0.05970285860423386,0.0020377013701259454,0.022488578990144063,-0.009923928191615332,-0.12386685740312606,0.062202709452955265,0.10054224065654736,0.043653081498005286,0.05402452982012961,0.0288120898233803,0.014809359296362588,0.027847715383020177,0.03201370412848983,-0.0260465938554397,-0.016682914204044354,-0.0012378070200556944,-0.005302450294813175,-0.047012699145600856,0.017255231608312323,-0.16453662897561636,0.02159341818327945,0.02116929953324149,-0.027684657164668208,-0.03286972347326031,-0.042323401030058466,-0.018532184421961122,-0.05781802841754558,-0.009079937809949763,0.050187503850218626,0.06229074570022596
-0.004115827611609604,0.06358992537796455,-0.05733586644072888,0.033863642354352796,-0.007854991099785193,-0.05918703930891316,-0.06551633884333778,-0.0391017539194655,-0.00015677576626466286,-0.0218185361006546,-0.02997414232179592,-0.049632822404580494,0.005548141047666583,0.051848184323743565,0.042642319376629816,0.0644587702679044,-0.04237015280427947,0.00217920093174964,-0.049681768547883205,0.024897843836548618,-0.00732395401235272,-0.05126500144022319,0.03527566203356626,0.023326532044003093,0.02550829904771578,0.017947522137734023,-0.0004509966437177167,0.029922633740640296,0.03500701302080174,0.01955885234428213,0.0044717550471872845,0.03897194191739916,-0.08073236747076365,0.0892285034985882,-0.028230119025761093,0.12981300778781088,-0.03409812417545759,-0.021621189727082678,-0.06126046069814712,0.05435448626086134,0.090973130196029,-0.04542913012454336,0.02330592785984194,-0.0475107219594269,0.0081575065258459,0.030409992096156652,-0.09848521136286761,-0.06394834434244638,0.06570387197108317,-0.0481711305831042,0.022868660268920288,-0.07622762314948166,-0.024851926171152353,0.09376365763481545,0.056046112902095005,0.034538529231771184,0.07563001247641261,0.05141004560208286,0.05712715663955243,0.07074802120655128,-0.004114849702933736,-0.007179755865082778,-0.07952754523722257,0.026120053910030503,-0.02224197475269553,-0.04067260690862827,-0.03616824760488761,-0.02766994319381839,0.013890741271031706,-0.0028705074566331185,-0.06233111382641353,-0.03401455969774838,0.07634531584536383,0.049558705086725066,-0.001730393412469856,0.08997853632346335,0.0051433050924097725,0.035917173043957466,0.032974234576280306,-0.06889487504552126,0.0075301212810095115,0.030264859035125637,-0.005002256466992475,-0.009882576882821669,0.0027181901943960367,0.0011103504622030445,-0.02300083269209433,-0.025517894685969607,-0.15778590161934866,0.005855815637702333,-0.0009676215961597363,-0.027612934452583743,0.014173588550238009,-0.02835710483311359,-0.011457611073039654,-0.03331233232419848,0.02576262666981827,-0.09858113040142222,-0.019377760713744446,-0.0027811970204006838,0.06123726539603373,-0.01948992505904292,-0.03725225243884095,-0.031632162845075765,0.05548346370600393,0.031563865645688846,-0.012474743346928413,0.01451755684587854,-0.05135857193718373,-0.08812077796278261,0.007117522388972278,-0.05891272134200756,-0.014937401844519475,0.003069146958406689,0.0781113715137359,-0.01330583769448588,-0.03134428217204415,0.021096285489895037,-0.0036626524809789335,0.05059998427845168,0.01912989762660085,-0.10296594203205765,0.021948781521430108,0.07293368986797823,0.04630287244911789,-0.05317595166407256,-0.04397383199822393,-0.054419368071624584,-0.004343035852541775,-0.11754059532909661,0.02217271044847589,0.07204304899144186,0.011901907010960461,-0.044848285612394664,0.0722973792795719,0.07353124545497934,0.020824578995588375,-0.019853600345803253,-0.04649955574264243,-0.0047224392257983585,-0.018596218293750227,-0.008917895783901116,-0.07738759270414515,0.0979696194372206,0.10772888761716595,-0.0014921329052787857,-0.020101724566664238,-0.07288184745718286,0.058820568291338755,0.031395033670316215
-0.059148135042928124,-0.0790630425137944,0.01083370773477069,0.004522246554917443,0.07072930950571359,-0.05339175558353143,-0.016192820102262428,0.03255168580484211,0.003740200235766398,-0.06516091218110472,0.02434478753507916,0.05507947832667987,0.016575463367563725,0.023015653525412405,0.026841058722078266,0.035535352643193435,0.06099073083455112,-0.06671076271563682,-0.1330531533839219,0.026142583029781372,0.011309431397888436,0.026008825441500343,-0.05777552067155962,0.020711070992219256,-0.08636811782591557,-0.018327275046515684,-0.0010682589168310155,-0.0513657062294169,0.0006516579001319714,-0.0160191774474424,0.04653889145192308,-0.008316639067170886,-0.024637102400626637,0.033767036358422875,0.006690817533337261,-0.006764186332489619,-0.033963658477702253,0.022320245311815253,0.06001099602113639,0.06205351563345709,0.01741320081061058,0.05008908731652754,-0.049602917247098643,-0.11178370526988808,0.0031127797779724443,0.01035739762653236,-0.10051555505137329,-0.017006053445955103,-0.0355876358334484,0.04037081905704625,-0.06616514199365073,-0.05669619169293305,-0.03304002789898212,0.016766001017425883,-0.08981150004968166,0.05315481211052137,-0.10584430988588171,0.050114852902129546,0.03870520611051525,-0.06978841027219454,0.009816655408485685,0.03921719196919985,0.030724366648291722,0.0034425041785779765,-0.03295268537148692,-0.04608437417913192,0.011173858424030542,-0.04941509265486497,-0.11020540977655321,0.011481816448803908,-0.04388043335474465,-0.06105343201365477,-0.09668187651550358,-0.009437646033701109,0.0038867756971195768,0.056049779463341255,0.007856295993647129,0.028849317539596787,0.00021700076399367474,-0.006013231410304736,-0.01724623525178989,0.05237403068458359,0.017371908258052734,-0.04366136565242748,0.023207963524648115,-0.0031272153095841548,-0.0069316296324967615,-0.047368482965244464,-0.0028070038095341027,0.0029211701261880082,-0.017080399843774366,-0.06906974877555087,0.09216999948838948,0.007668015652357007,0.03390358698919465,-0.054199369436622576,-0.04926648315369063,0.008185467780767054,-0.008850301955580245,-0.04396534681565609,0.03610691350565995,0.006358641594161615,-0.0423292477525863,0.03576779685991663,-0.005365630211903898,0.059937949183296944,-0.04916625327208981,0.03652446423581651,-0.028340090440545727,0.0218930173867693,-0.10277604115143228,-0.09158829822105072,-0.05939820963949809,-0.0029630729890172533,-0.006163998962667495,0.05369708667726074,0.0035548931124114304,0.02433124962970619,-0.056720356538449,-0.006331049728969904,0.09409821456623087,0.0198368657449435,-0.001161287426647302,-0.08542820428545372,0.07660640100571356,-0.002887381175693817,-0.049047595724189826,0.03545130306410629,-0.06553774580993518,0.011726012172375934,0.01986378864143205,-0.03335260642635978,0.03408570065609063,-0.1337774168357625,0.031169860152434056,-0.021504223840286676,-0.009128387849283506,0.05538848451624844,0.07703204328454862,0.012515932534010595,0.012219896065031913,-0.03469392094548232,-0.10711321087339734,0.0045651975880503836,-0.015396224420984442,-0.0023469663235962464,0.04650857133733418,-0.12358830569629177,-0.009426866786138233,-0.023708622602050488
-0.0009221047862805503,0.0508147793751786,-0.04556645227046126,-0.017101436167981668,0.013010925078288573,-0.08391953717091473,0.10618885720516266,-0.022394045339046327,0.012229251619019096,0.06150657946423649,0.06457555103704281,0.021087236620092653,0.033630111893393565,0.0036090346452011344,-0.02336710442916895,-0.017263047819924604,0.007745617017412476,-0.06276592606896593,-0.031185261770069004,-0.0960709274704364,-0.027135008890801303,0.07739334722097774,-0.01249615985449941,-0.06057500699028118,0.05149527805090384,0.08612938698486546,-0.029586025673898453,0.03322326124406733,0.00994297015032922,-0.08038283520799584,-0.03994751427895585,0.009810915130746717,0.10305341779416466,-0.047224493974538574,0.056778433894837194,-0.020272461929613253,0.036339994203084994,0.11467340278210737,0.07803273573530405,0.0048760270203277705,0.020565435020774722,-0.039880704879289686,-0.020824304044726526,0.03239051160933188,0.0115249341681144,0.05944038510270458,0.008761748483310782,-0.022440911325381837,0.011685737863517169,-0.09460425896350941,0.029644507921637277,-0.07092832683167152,0.06043592796931924,-0.010597990853987662,0.1139983356281986,0.0946380954835323,0.018628796668305456,0.002181093827878163,0.04245623343509727,-0.019537029732425968,-0.048006597207154444,-0.03570998018815911,-0.03195161028906941,0.02178683430748575,0.027666338992738116,-0.011426645032097374,0.0025680262893978153,0.04288397843346218,0.023056162685844962,0.0749640524955238,-0.04905633937707006,0.03883501379199788,-0.021076862639583305,-0.059910784992193634,0.04486698153710843,0.02007247599992733,0.04089277232114665,-0.08186616466227252,-0.04617293314252873,-0.0204968338855971,-0.019985558889401952,-0.04160959689950194,0.02130468480415596,0.016378542951646907,0.018973556361765214,-0.013060354204911495,-0.029981014950837742,-0.028552337759304644,0.14004317130116367,0.03948409434564359,0.026665505906075197,-0.04596090916483193,0.05199658407576426,0.0021810875666978843,0.035764504582860394,-0.02646616471686706,-0.06794354887086707,-0.04701599751837449,-0.013589291456760697,0.0016018906483607138,-0.04432973317310256,0.02597984053377226,0.044265297067610475,0.015285594408949254,0.016701898392181298,-0.018067904880938613,0.017408785404748304,-0.10565817039444995,0.04876233773243066,-0.01864422375483444,-0.06917511355815785,0.03115401684346961,-0.03356907028449595,-0.09279803343606001,-0.12997805884215194,0.03071994842712036,0.05017751691436417,0.03898605485661297,-0.05365127672601386,0.040874307459499694,-0.017158261360989812,0.0041158232705684125,0.016764278394069184,-0.029759690662975197,-0.07578062257422587,-0.051221764183219415,-0.07168414034598022,0.09747391944404907,0.10468295045964207,-0.1147147643955131,-0.05692449543484283,-0.02757590382336805,-0.0976673108954677,0.05625157044572688,-0.06639642857736984,-0.012604361612989933,-0.0039575935571421845,0.011333722548850565,-0.027157046590166836,0.03835300406418639,0.09380790612982376,0.008722667307943991,0.06282587532479944,0.03207329854673512,-0.043285729704381846,0.03620955171602864,0.027499937427976566,0.051911678120528694,0.05408068172018172,-0.024072947982535415
0.038630887078353375,0.03339751480042637,0.08072964233671404,-0.007124268065063201,0.09258425302439491,0.05016060340107036,0.057207730212350524,0.003517440092788073,0.018297546281599728,-0.029682432674487863,0.004242863492109816,-0.05206826761347443,-0.05654567488522892,0.007055319589010117,-0.014240748191377479,0.03931516509781835,-0.018778935361397176,-0.03435334157265618,-0.03763878108161783,0.008549356350965005,-0.051788495360120826,-0.016121539111845235,0.01557608915296292,0.046968082145989846,0.006479200399393752,-0.054360965167035216,0.10705938190330858,-0.011125178685915478,0.057831177054389574,-0.018879369752803972,0.04539946202666431,-0.005569469462098275,-0.07742938467985885,-0.04206835291376654,0.03049192748120579,0.07954712293375411,0.016198595436376553,-0.09954437041670555,-0.16213779618881397,0.06086392130238058,-0.043454264523782024,-0.039615854734078124,-0.10410239371878606,0.0148183623629884,0.04343001687147191,0.038565688432831494,0.008840297445274575,0.008992527411092747,-0.016209261574718546,-0.09393900725549915,-0.0007608635831954707,0.01063256903690374,-0.0006606871900416053,-0.010450175846742706,0.0001233112125688646,-0.1239129011180889,0.017570440727670736,0.016927217396621837,0.018765412917161346,-0.011447271512776021,0.01745663883957882,0.10005808220195454,0.0792385754212845,0.014063245981777536,0.01546859895118928,-0.04777817756933274,0.07597191992234435,-0.009983656272474141,-0.018421924255983754,0.009987940867171734,-0.014211222632629654,-0.03374565106601726,-0.04204881615125882,-0.005345790216751478,0.05163817618286775,-0.004767893646017412,-0.004831822347678624,0.0604318319998066,0.00810612355333231,0.08374604587065637,0.02107370934825752,-0.04402086243952083,-0.056910690039740766,-0.03842588567964228,-0.06464417161389596,-0.04340903773340024,0.01012951145822906,-0.05921632552620676,0.06240322856281461,0.05091541563009727,-0.030850094368186694,0.040001527968929466,0.06325050140491426,0.0857445639510712,0.04487913719254851,-0.023486068484826768,0.0667268563335343,0.049052043757411457,0.015088573184973312,0.0023535087996140744,0.11374067769079113,0.020638489521744734,-0.041212759914518705,-0.08557128777196539,0.02325134497081201,-0.04274164152505933,-0.020741218881680453,-0.009909876888625962,0.044635072005278074,-0.01059155700707307,0.03107150351406542,0.007106716568672975,0.04658752575855337,0.003570872713849839,-0.04040880872110175,0.07361083522934915,0.010765400120004045,-0.09993329448799783,-0.09395813181240106,0.0016425444070816968,0.01350091998014417,-0.07310984738033548,0.09019735968009437,-0.04793987990189722,-0.07879347253955452,-0.06576460910800343,-0.008434652259977471,-0.011737575927028517,0.035143039481909194,0.05393778877738889,0.02274126674096555,-0.1572921079354424,-0.00283002872430436,0.06129666017463858,-0.030026805161032153,-0.04117965714983812,0.020974740334533438,-0.029937147354016747,0.046627288984739106,0.020450541911364035,-0.09676839394379391,-0.03790097592641693,0.02565083401903381,0.06443577474059313,0.036700010091594154,-0.02173704778165282,-0.05341333269794761,-0.016946472536354108,-0.12249305355392953,0.09870769209729474
0.01492239103208159,-0.01093472911343541,0.016920174596515285,-0.07407352556355978,-0.056244324848394645,-0.05091931496860488,0.08003735848632104,0.03539694547973412,-0.09274858348082024,-0.051435288785238176,-0.039313776463172107,0.0447555740372869,0.01729904955203368,0.023714395913597953,-0.028226320485129193,-0.03591368283168219,0.036141384741691596,0.061209605280755544,-0.0447155839678141,0.08329231966281549,-0.005526892821611816,0.005560625468600082,0.04956284513349099,0.02107334962889258,0.004760631771371813,0.023643639199652098,-0.11101944651449168,-0.07069999719305199,-0.06903127658359012,-0.009053254955640789,-0.0028548305487981237,0.05477274902787496,-0.034174103932188254,-0.06057990247727533,0.0027135010363823504,0.018682127366793505,-0.008967991030231869,0.08036611425949192,0.016190372826637614,0.03528161885486199,0.04664847430503698,-0.019651024744827716,0.012230960051590982,-0.11187937644064944,0.030029760198127902,0.09464118612181757,-0.005198244128456479,0.01807634688159021,0.04334918406215514,0.052356879183637774,0.04180720768530258,0.04292265475603252,-0.00027407755515442873,-0.05789479714976972,0.03297059633078615,-0.04498651806159751,-0.04395253260790117,0.020287213410104067,0.029035066745445114,0.08281628995402172,0.024913141443623662,-0.06430576745039389,-0.0026499732688705906,4.96137004420182e-05,0.04333134095760671,-0.024876970604024003,0.08773707774015814,0.005182850997269674,0.06111195986502764,-0.03023492070761886,0.07916293666945548,-0.061621641698059594,-0.028571412296551423,-0.028601361262214717,0.12605217947056102,0.040171858922425606,-0.010639684928042053,0.046255737369702,-0.004707824669373369,0.054863609813967054,0.04329126869589285,-0.012777141788407673,-0.03658498599648152,-0.004637307147156352,-0.06531888430928634,0.09985743863235783,0.04641564840775038,0.06139579651750137,0.038255669702513755,-0.0042491823211348876,0.015253250942966999,-0.03302863836364633,0.038705549616092697,-0.01531143284936809,0.017802044224318546,0.08653450592716229,0.07436601358794381,-0.06041188935660244,-0.040589057843780675,-0.0696665126137391,-0.005199085811828745,0.047646556458093604,-0.017225681190986004,0.014837549703697349,-0.061492913751232794,-0.0007628489465165765,0.07606899584753703,-0.07255449418106366,-0.004847640793216506,-0.08746698804952331,0.0016757461399466026,-0.006190664641447553,0.009298266728911713,-0.0034522060787182214,0.04679106827356523,-0.005237885252158821,0.008833619669328842,-0.0034381014579871467,0.004574375439028128,-0.09069657893940028,0.02084113447883959,0.05897989454533016,-0.03055679999669168,-0.028241886355310157,0.06961086406194938,-0.06574107914482884,0.03726315386394883,0.011129662055353663,-0.0255777499593459,0.027903989148975787,-0.010189954846375193,-0.07125187330408184,-0.0342100107263652,0.04887194159273334,-0.030856821448564043,-0.04895891791236813,-0.08092932371485252,-0.02458547002698926,-0.0002633550222601019,0.011695489575029782,-0.06991372166250669,0.004685545267917845,0.08723788402913253,-0.02282259098731959,-0.014821553574212653,-0.07500077326371538,0.013243149023338483,0.04206600810407398,-0.008246886898173184,0.0009472907596846188
-0.08719827835764599,0.04375476943944721,-0.01660443818360232,0.03970592365852978,0.014824534618302255,0.006513634384646098,0.05908980148785344,0.04683911537014911,0.02940501033609804,0.032269952713596284,0.07250456916896085,-0.02112991376719901,-0.0013776709272429373,0.047049385050618196,-0.012780371739790611,-0.06323900489379684,0.02849410161879742,-0.05434893285504953,-0.060820834174380486,-0.01147510998628579,0.009461491404018656,-0.008866687245205954,0.027868798102776246,-0.019187759287118182,0.07253563245744547,0.04103069649908207,-0.08841865702908953,-0.0730508223714529,-0.023937807360013903,0.012238117760812614,0.027036053658944022,-0.0509747801911882,0.039541195840254145,0.005492226803707787,0.004934722202104124,-0.025748667034403715,-0.061755279365335106,0.04137735778909508,-0.0898946548152409,0.005898313563503524,-0.011563992999622666,-0.005688013179701602,-0.057520043685514825,0.013063211174316663,-0.06776753258575442,0.058847051722193434,-0.036641917706572484,-0.06271838742781234,-0.0019873777010014364,-0.07523854912679663,-0.09299492640063291,-0.08236781296219639,-0.041761735763108467,-0.07137971563946849,-0.08247215867482366,0.04158184009756197,-0.011071017978766277,-0.004034598785332668,0.016579586362732556,-0.05345558482457531,-0.05643257154642845,-0.07306187023040794,0.05005054539752169,0.10662822093743937,-0.03536865240728717,-0.04585532413208957,0.020847796159994828,0.053496810878158926,-0.07625595214371914,-0.024009560760343315,-0.03432121459218159,0.06607205066230948,-0.0067483611238899075,0.052184817774991184,-0.01269155019150149,0.03577728660668543,-0.12538006578882221,-0.026642148139684817,-0.027663177220160057,0.06176215662876501,-0.02336945828932783,0.06671936219540855,0.019642314155984244,0.01995573938839839,0.0034556375093816594,-0.009766797738540351,0.01961742430997775,0.04877799905403154,0.07615141159028056,0.016531387575490098,-0.02253297650517271,-0.048825621649941205,-0.015418634659405496,-0.0259439232788986,0.05605275975499697,-0.050215761160975,-0.026822401470653668,-0.05036109530283884,0.012261657048798225,0.012962037743128799,0.047147750213407134,-0.045374669603746656,0.06700106628911262,-0.11401978455066988,-0.04992839626544115,-0.038603577758514356,0.05649694951756554,0.013315648713827363,0.00044209508815170326,-0.04594521032495848,0.02314471817683673,-0.016612426740914888,-0.02147438668405838,-0.01586918602165677,-0.10718788601807785,0.003784375051260575,0.10142580956744124,0.012304115721683068,0.01246348206746653,-0.0512350807563591,0.007156090650061591,0.03957486455336424,0.057025425002779045,0.08805218917425776,-0.015787261700902052,0.08340234054139367,-0.031026699274057518,-0.03911311881648914,-0.07637498045802808,0.013902729013203113,0.04979011940105246,0.030142354234303816,-0.0739444643785691,0.04620607706228264,-0.002032790286621443,0.01640491749492887,0.018573908109691294,-0.02690774219507457,-0.02620497665336115,0.033655641020351026,-0.030787402885435872,-0.0371870780013824,0.04519017106946007,0.03240125580938433,-0.06430847188117136,-0.049485715006754874,-0.08044278285235319,-0.12927560338340185,-0.08059814259082773,-0.07034122581520401
0.021303330279253595,0.006741428441590053,0.009835527651062681,-0.03612776504635313,-0.06715432862618706,-0.08231339992894751,-0.002484670712064056,-0.03510281525005549,0.045937481752055635,0.015759566944051888,0.020990718646804112,-0.03378956937451892,-0.036616763125188106,-0.03921693357333466,0.03960071004221772,0.05183124019033933,0.08048681767339079,-0.06304367909444865,0.00871866191838852,0.023779456111889297,-0.047029944150997975,0.05343098937234289,0.0026962770219198908,-0.08628480995696944,0.0014948260634518639,0.004092953128005866,-0.06915796444896295,-0.032981411470434964,-0.023214249563237997,0.041601779761065195,0.04356084250933065,0.11610731111300476,0.11648703507515064,0.11295359989765388,0.07963077131639013,-0.088597705382298,-0.012313235190784649,0.008667118897689554,-0.006903599527165155,-0.00789509838874252,-0.02808351694002049,-0.031029684431120523,-0.018317721593358295,-0.06521370032035409,0.03113123288929579,-0.01951465405288923,-0.08274444988622365,0.0632234098218466,-0.09445224729052362,-0.02729795213429493,0.013897060092024759,-0.060803296213812794,0.0026738843650379535,-0.04477397288381772,-0.004150439343598794,0.017790014891955624,-0.008236293609226716,-0.05691489260372631,0.06805582205982275,-0.08238557490829279,-0.0012528743409003964,-0.03285060836563993,0.037618169801102774,-0.030945263715359914,-0.08377072961343314,0.01785208566981302,0.032589201762885385,0.05690930738027522,-0.047820192039885225,0.003492652889008701,0.02213021912959594,0.07921319591035347,-0.027193700488617013,-0.03766322331759686,-0.08580285477545706,-0.004449908070926557,-0.01516841674071237,-0.0016098762860628228,-0.02205328830614164,-0.03001795319896789,-0.014045341771083247,0.04316470324147041,0.08388521330039819,0.0038726873454266553,0.03658072311011777,-0.011831721188871743,-0.10254742526659398,0.053479595974245696,-0.028390084848757,-0.0733815558533521,-0.007176922496171066,0.011782245278672892,-0.006254569094786421,0.04948405695999699,0.09788076233808693,-0.010000054280597798,0.040665310439951634,0.04249225854398161,0.010096660618533454,0.0004518183530161303,0.00040862658619021463,0.009276487200573752,0.043553473982571984,0.03194799278164528,0.016770140916240763,-0.03662769613963228,0.028414636055146582,0.015820954579901195,0.0229657879199946,-0.06584735132951954,0.09194436800626876,0.036193335769030194,-0.11272745387426737,-0.022026564928172315,-0.006164878746098672,-0.016268848985596652,-0.062488943129929204,0.0475603228370362,-0.0218091453325955,-0.05264961570835703,-0.02925669855831294,-0.050670872050525374,-0.014256599471845457,-0.009360774661600332,-0.041290806070771104,-0.06688522358932328,0.07212380251169875,-0.10531713087958058,0.05433135384042152,-0.007288551554463307,-0.009563805458551731,0.0683436821823133,-0.042425758972514,0.046785976961914735,0.11834164293845914,-0.056132473786440276,-0.03410404467622476,-0.0985004134212436,0.09045414439205576,0.028661653229623166,0.004918503120728721,-0.02481373531372704,-0.0031276285803740465,0.0250967007852726,-0.014070886123102087,-0.0899791015261153,0.002171555014485168,-0.043771667604126936,0.03176756324508268,0.10023401938376002
-0.019498760531138967,0.011611793641971183,0.03896018911598329,0.01895936221046313,0.05501257242242225,0.1062794513782643,0.11061632778711498,-0.009588416436002473,-0.03136730669461468,0.05248942544587252,0.02905327910266419,-0.011164035559835703,-0.02044361439962773,-0.04368096799675036,0.06895894513495719,0.02488450546889848,-0.027548567089592982,-0.03450085528527782,0.01675503001452177,0.018381678697278574,-0.10709319023494793,0.0011694876782737268,0.00445231184084566,-0.059867864439459,-0.08126559674581711,0.059879333086305164,0.07306089158931597,-0.0001121574524241902,0.04763222925073683,-0.0038469120806099376,0.00575822910550534,-0.023334701953869715,-0.0041629718354307035,-0.056655336121068975,0.11191890918018862,-0.018714380019848847,0.060150919617256826,-0.009677730784044094,-0.007480218168148121,0.029145001848429497,-0.0016366131684135339,0.003035333429292675,-0.05865684712864189,-0.03745201761054909,-0.007030066356822822,0.009196566110269491,0.05357839589158488,-0.00352578167729241,0.04797541178994713,0.04842702949785446,0.08218617488628042,-0.04572917495026222,0.02804262262736158,-0.06478650515511122,-0.05388775752345836,-0.028770387353874407,-0.02941228015747986,0.026181937381118906,-0.032863234634426815,-0.048034576720189806,-0.0006498027724768419,0.03565479132584169,-0.011704850713219915,-0.030173400518242445,-0.014571492893009044,-0.025339923668631435,0.009827570946781754,-0.04672375992642262,0.04568824869154653,0.10481145512262935,0.04860784012383126,-0.001038055912276895,0.0654537326783572,-0.005527625221358316,-0.0606872540004497,-0.04925848301564968,0.033501959599187746,0.03299376149976572,-0.0014318486858464978,0.05241108403498703,0.02742226280585323,0.0287356105923654,0.0017727325385792129,-0.0018982758870125013,-0.010101672765419798,-0.011284152126752116,-0.09547074839676213,0.06202995451600873,-0.03028839637349814,-0.034123929977157096,-0.033973597604219516,0.024521400184173793,0.11125133061447878,-0.017693768819946422,0.06244588388484224,-0.007803050401947468,0.03338335696766853,0.0074777462964510065,-0.026727192165921242,0.03849713491782297,0.058412642817821034,0.0462025171851581,-0.04478332581726688,0.06452611841451973,-0.00688162008170791,0.0010458770234660453,-0.039404952535509574,-0.026800126119435393,-0.008172817191494762,-0.04984532747944194,0.030384661542776047,-0.03201861630614159,0.05127376075603213,-0.08548294688783895,0.05615911348451459,0.07018713495556493,-0.045099331592009996,0.003008473390501628,-0.06869030447712915,0.017584261904686378,0.015409678596155524,-0.02375884376801741,0.037065123290293524,-0.056277019732456385,-0.019577081279780178,-0.015867329538771603,0.06238941326928603,0.031230532869516273,0.07392279437365538,-0.06433157816029614,-0.12463438107421572,0.06988491264539128,-0.05407856194305137,0.01554250763019228,0.07286412588283712,-0.08465850771878969,-0.005522427069597598,-0.039439938281047714,0.09147057675616217,0.02062349043392614,0.04752402546516399,0.011814676764601606,0.06268155952443158,0.00256193817445744,-0.030249960405100185,-0.02743884760069541,0.023937567855897107,0.001664300891103151,0.024159254036663705,0.026652711626331257
-0.020693110619294866,0.045421084609639235,-0.033611398182380875,0.09365668748133506,-0.07949345754435708,0.021264548712404224,0.00751588755010954,-0.03878247887698242,-0.01862513763709436,0.04895784926725992,-0.03760039897476887,0.10362891801443298,-0.03183629066089489,0.026168010277985283,-0.044231246424124876,0.07277884063084608,-0.021999326332803874,-0.015373450744166533,-0.033018302369272036,0.048537025704933505,0.08202200414823606,0.05758529897657167,0.02684245010433571,-0.1192821814393971,-0.06565444176451023,0.05761467393150646,-0.008128377722924024,0.011189217243545874,0.08090061729324621,-0.06520284678082226,-0.07611261533210124,-0.006104062490318855,0.0975837480208875,-0.07909294321215146,-0.008417131090416285,-0.04571171239118626,0.013732832396379683,-0.03587119407366506,-0.03169329838756498,0.022294377149034258,-0.014979283738368779,-0.06959678228609485,-0.09285818064502614,0.015184826168495875,0.049770237406791575,0.03882352764590575,-0.026737914761081585,0.0028625100865873093,0.08884896037171193,0.07750434502019848,0.08806927279352685,0.04756775742705468,0.0006572372968960973,-0.06818947785742896,0.03347784414682841,-0.014124090537925717,0.07277839495011425,0.02073814757549403,-0.06186184071963082,-0.01852233376118107,-0.10376220728227427,0.05683786779856367,0.04956088796857845,0.0841049459867729,0.014484935543702738,0.04256371090968189,0.02899638241180364,-0.022790422551576508,0.06306680113571075,-0.008897908047591198,-0.06307613342089594,-0.01999907895114879,0.019511698436218958,-0.023961593398827172,0.019703273606063314,0.081052841549366,0.03371013874497434,-0.020085155243777065,0.005998407120888707,0.04301112667117377,-0.0062928121764849725,-0.03441428707716203,0.05120993778873065,-0.010180792100754621,-0.06140557036408239,-0.07958502407023986,-0.02826297522415545,-0.03424429323702736,0.03273358992602617,-0.025044967465201254,-0.006263677692516414,-0.030573580931578984,-0.040950296378222596,-0.002141637154348396,-0.056766669395387506,0.0012842674433418367,-0.08500225201328444,0.027576280436131733,-0.0011669310379008434,0.05573073963058764,0.04556228865968504,0.0043575314878221295,0.012074534726561708,-0.053101845302745185,0.10356661679518377,-0.00864657154231193,0.03777427244490824,-0.05284452176499547,-0.02763953078972864,-0.003440303780464656,-0.06466805811347712,-0.038147353914687966,-0.04262547398826303,0.00249683976280506,-0.034186761445999476,0.01305048367025261,-0.060840306747713666,0.0859529625807554,-0.011496910515283836,0.0020151887210790756,0.045603439431144865,-0.04436609961581097,-0.0014977039736044466,0.05475951548169213,-0.04264818694473758,-0.05080797246752167,0.03623363220518078,-0.019875618690760304,-0.006351269657320097,0.019543950095547435,0.060421631511802416,0.02744632578196994,0.031524982704795895,0.005644830712175746,-0.05517163297846825,-0.09886799343081305,0.06303971940146416,-0.05260078960269899,-0.028156064777101104,-0.008979179689533089,-0.00592256988216158,0.05967118357344028,0.033256873313131416,0.06178231167848466,-0.04130010646920082,-0.05118381498470435,-0.05146354382809671,0.010795366507817967,0.013678595673737337,0.03145105843813556
-0.06679361643216344,0.08032094247816517,0.11307498184157716,0.05257056031503079,0.06965258313907557,-0.05924563974522411,0.02417259902764951,-0.03901947024191855,0.035644286827280436,0.03560657312874378,0.04231172805451355,-0.017181249455884822,0.0570805769228244,-0.0676000146272071,0.003440989789121203,-0.045950134872981496,0.023566892472681376,-0.016589049263136153,-0.054362161420611406,-0.03739348030608019,0.044799595890111385,0.04721825120470776,-0.013661225091859634,0.03923701958754125,0.006719274513812845,0.06396273350456592,-0.0043811446042429395,-0.034678117732699326,0.001735925219255434,0.024715202054214517,-0.0026525336741915467,-0.013393522698316394,0.015402094527630346,-0.015540383000624707,0.06020667887542051,-0.0022494431505195502,0.05423494888762803,-0.06623442543076027,-0.05907464069225804,0.020007947982115026,-0.08868010412249343,-0.015987523509956556,-0.016734088505141045,-0.008104404051389477,-0.018304308369060173,-0.048548861442994466,0.002622147549402598,0.03703554156593717,0.00648916108774356,0.04972302348156716,-0.008161119874451998,-0.014633275371090987,0.03673195896727785,-0.031092715296979257,-0.01743203390724621,0.03940668728708739,0.034834694744518696,0.006514569369748437,0.03854242066797779,0.041412915812462835,0.040988499990949355,0.016469065647321826,0.06985463593856926,-0.026538319726298096,0.024256258360895983,0.030731801947550534,0.06356206028659477,-0.02838578710827369,-0.042904607067223016,-0.0014180826088910263,0.01215695674812506,0.035647677739459906,0.008561944510685749,-0.10457447918440138,0.010250399538217155,-0.07703265260386755,-0.019142767285332193,0.03609381609166937,-0.10560707552061593,-0.12155147549394923,-0.08834641464561575,-0.09437547707378398,0.07308639533789203,0.08038343787378632,0.01893153387958997,-0.005708204694882996,-0.0190652020264882,0.07845520961054378,-0.0014534501718902163,-0.033364404267085354,-0.002241314774429166,-0.049939254622385895,-0.05855664129605137,-0.04175790837395751,-0.01845676550309485,0.014139871963217917,-0.06815040358516558,-0.06348505373524763,0.006152122541154582,0.06494577325058823,0.039107549519741894,0.0031165186848961537,0.07208304903396925,-0.07778249744492143,0.0164961151692214,-0.008957840967202356,-0.005695119211556748,-0.03267716808187201,0.01545644909952343,0.05268780390125291,0.015940098867846406,0.04319028037201621,-0.07166254294313204,0.0027241114868734244,-0.04922598034547873,0.03965604319340373,-0.011243148532958365,-0.07560662019803123,-0.009277798749085537,0.0980253455381508,0.06316951775645284,0.01876755591145587,0.006088348238130375,-0.052874963684486014,-0.06570911107297904,-0.02425391809555006,-0.08745939440957344,0.05871051921857078,0.06972583217502994,0.022356639491093126,-0.009096153176300708,-0.07350134901800225,0.04118522258907643,0.07586468295985249,0.04677775768766435,0.051186474107079855,-0.0411392299210457,0.021892646036345467,-0.02695318523370603,-0.011315321291606846,0.03176427324356248,-0.023018035311560773,-0.000803795393169938,0.031231725893375768,0.01158933118827354,0.02072157873781243,-0.0059268996045083455,0.11646725550278869,-0.17192566467007045,0.08659946042174822
