-0.541111794587672,1.010252577651852,0.753624933171041,-2.0213999326747367,-0.01446705939497865,-0.24538681848048613,0.45927135063382735,-0.6775632471672387,0.0811772001435008,-0.5230479792047226
-0.2537494702040448,-0.0342933299090944,0.6285076092577491,-0.28573587158414426,1.1301723165387447,0.4133588572516434,-0.14334166940787996,-0.5957804910543109,-0.7946319220233597,-1.6163724904758048
-0.12140097554108444,-0.48095910975227646,-0.0731315507484904,-0.40416804011171903,0.4644232335589329,0.3047778328638167,0.39063690949506813,-0.4674740508054631,0.5694576719162607,-0.27481745856093004
-0.5532822209832973,-0.6425192679932176,-1.3606192780836417,-0.4116353906518658,-1.0457276571881515,-0.8139310517800962,-1.1132849287877127,-0.23008860464766281,1.0427658744752726,0.6664342257977658
-0.4446850187970174,-0.5123800680235042,0.16794614531987986,-0.998190027442651,-1.638175312004686,-0.8338077803315743,-0.914112611487885,-0.22664102294593086,0.541820878900977,-0.7269931870551577
0.7839285343623221,-0.4732751879485575,-0.11114070969641911,-0.38693233851370723,0.8365515134009485,-1.3913119807440812,1.2144879080131485,-0.8194391111945033,-1.2388413106981364,0.21123528613919357
-1.021265007870285,-0.020896245240808905,0.044426776086983234,-0.5817548218679137,-0.3507494464630437,-0.18486944927835336,-0.355904969901087,1.7525293082389322,-0.0710960279821723,-2.026957437372786
-0.27157342614885405,0.4925917732490922,-0.36065019332373993,0.08506036122815533,-0.3012784156078804,-0.018537703925967243,-0.2607919646614453,0.688066559922166,0.03039126073546078,-0.8433229629969364
-0.2641952291926627,0.23402989526052526,-0.30841748461287083,-0.2724697007106221,-0.511779501786926,-0.45036170799002967,-0.05767077934894238,-0.03451435674933211,-0.9399150513051466,1.4701457297328964
-0.880192179282793,-0.7668996452366653,-1.2447257782044447,-0.5510633195443574,-0.800536988722241,0.6088736848016552,0.4106205309857392,-1.0137473752015016,0.21658687445679206,-0.4903098409618862
-0.6563968070342749,0.29292984614208745,-0.05668907445740313,0.5058367372641974,-0.5230812871347241,-0.3832150167736999,1.1396214857436273,-0.06305973726790481,-0.23232217830922955,-0.18734188069633045
-0.2037068920742985,0.8357830325057743,-0.007975591690426057,-0.22731285845007254,0.152490868362696,0.11802660872141027,0.26480186286235385,-0.2317614748518363,0.18373941881058872,0.09150865848110246
0.44846178425507965,-0.3381880168609927,-0.21380001820409303,-0.03343762486631632,-1.0182151754562196,0.3901584770212295,-0.17053265388723005,-1.0608934518068236,-0.7703833344968521,-0.6169101482478763
-0.26232503165289356,0.018583692347293276,-0.6025384269594622,-0.473252913435244,-0.03664365880420528,-0.32245311877916516,0.26043415178461626,0.663162124172379,0.7391293554117325,0.5327437603122724
-0.24584259787937174,0.5395999296058036,-0.2851210360011157,-0.0071258275093123834,0.3798815961012787,0.2163913016186418,0.5766359227361697,0.01775023838082823,-0.08497859711605417,0.36631870465525274
-0.8259219296367096,0.14308967813188558,-0.8275481216807331,-1.0178673703210026,0.02163351214061213,0.7283511689526122,0.35523759753081735,-0.2527768296534937,-0.5690729186598021,0.4488130639785802
-0.17206800404214032,1.0821706473440356,-0.18863259251600661,-0.18759892064208888,-0.10255280998309274,0.20672075109614343,0.2932881726204309,-0.23829390650892224,-0.0030772900650491543,-0.19706762654045348
-0.18590992192848166,-0.7413086343168421,0.6102460155071594,-1.0874623874697464,0.15968209264699484,0.12543288321123144,0.21205424991698354,-2.0998991266425904,0.4952211258180591,-0.9208828721659033
0.488274250607986,0.014483165129981287,-0.27115855317124093,-0.3882347306711205,-0.4495253447958526,1.4482566743964915,0.4836309437706648,-0.35821891094009034,-1.2567779448504888,1.2921117939459656
-0.059748237213533485,0.8676084647189697,-0.6210514331404919,-0.4301911812586591,0.031017939054029692,0.609738769230555,-0.0401424794154025,0.567565137680516,-0.49898830086100543,0.12999854521506346
-0.23701430344992444,0.4274612114326425,-0.5208304348788552,1.7557732858869861,1.4708987841892238,-0.3279429309673047,-0.2102503833983731,-0.849257145628018,-1.2036848190625373,-0.09601325442269137
0.19294311027392333,-0.06244572722094743,-0.597214626247112,0.08555402474996737,1.444908226223899,0.0013873542399757562,0.1869546230939316,0.13761111673391696,-0.0029843499550988805,-0.8805608392478375
0.5372923108597283,0.5224466106330888,-0.49543143546457297,-1.1863542757682894,0.058273056964215225,0.9226163487361516,-0.8311729109680408,0.4946155131613286,-0.20943788921820833,-0.4889078835063489
-0.16594293656065562,0.6179128757179586,0.20860399411602695,-1.0159936253536272,-0.6278178678571676,0.2167093902629144,-0.4941216664787785,1.9143594631261904,-1.1564266635942775,-0.8593743983179978
-0.7362487121974451,-0.24003504211282142,-0.2565851488779927,-0.282844029375908,-0.0917276875115138,-0.8146918400081071,0.9092517296788013,-0.827257967195965,-0.9777963544877012,0.68880124266544
-0.14503767877935128,0.8205494300543621,-0.03662525235636194,-0.004893463712706342,0.1367481541811402,0.4148067671199577,0.09368854204385338,0.543798540021862,-0.051016047609462684,0.1210237074592077
1.346474793410185,-0.255101025189241,1.2083803776919926,0.08294786990392256,-0.48096073166439757,-1.1346864336477107,-0.9318247961968424,-0.8571096775185261,0.004332077550095185,-0.20278280029620577
0.04913639792959583,0.31025171241971916,-0.21152549936662446,-0.19505166182262637,0.2373646010730142,0.7572165840904076,1.0030232068967997,-0.23797265287158278,-0.5745387086715568,-0.8102861260540473
-0.06774657922522268,-1.4398486499914247,-1.061990764940417,1.0765768625433245,-1.8971081308982696,-0.7243612730506312,-0.7891944409916729,0.883018432974679,-1.1932793553577596,2.0205401232288294
0.4053670855595272,-0.1729018328412312,-1.2141211600171702,-0.5013843778814194,0.323337882666868,-1.6748485835582507,1.392370657423112,0.06899297386984148,-0.6365110626768968,0.2537148083522597
-0.2076565897380705,0.8249984217985995,-0.2279931364902031,0.6253636206492643,-0.4565426055353466,0.5171535857025213,-1.0721032382786404,-0.807745845300857,-0.8120661750639159,-0.32997297008057047
-0.12334609438806463,-0.049161747960734366,0.01250124253688451,0.293494391812754,-0.6415044519223718,-0.3765768194622697,0.11132068653467926,0.2655567094052864,-1.128782425761019,-0.6241765061179394
-0.03695223363184558,0.061325873230782056,-0.5099125577720764,-0.6007113723540956,-0.7993151824624848,1.09312162214912,-0.7839879965308536,-0.602852429792491,-0.5535959806958256,-0.5164406839709414
-0.21925671224620297,0.011281574201697828,-0.2730272025604696,0.14782696589305175,-1.183140833278729,-0.8216253614738459,-0.09888562859069505,-0.17204316464459543,1.4132267322331784,-0.7352984347733337
0.48938111006019164,-0.17306197778682772,-0.0689653458048183,0.3819713787883297,-0.6656172726933951,-0.5485670282011267,0.8396545282757808,-0.9010689602131783,0.6259160507566202,-0.5940962787158428
-0.3424883164723714,0.5957563185545476,0.582189210651247,0.14860840380228305,0.5943277252802053,0.17690862356965642,-0.7033948724213357,-0.16057086993140846,-0.7465476140570393,-0.16844026530026115
-0.5136276576264556,0.24859420958436693,0.8670556555799446,-0.17440388205032764,-0.14115897237693914,0.24002960798559783,-0.5205232122872964,0.5113713370297038,0.03261222517580844,-1.4222056837837216
-0.40823762869347546,1.082505436422435,-1.2000645314611478,-0.3226713136913557,-0.08664757663998052,1.4480927138145538,-0.011408140520797461,-0.48617475811931765,-0.03364494408987951,0.18064983558958922
0.609316443252314,0.9602644891889921,-0.11379217747415535,-0.5237363263831719,-0.4622024105192597,0.677483249712202,-0.42831292565748197,-0.2926352523754126,0.024690079951467724,-0.3604017033514903
-0.6035698644231522,-0.2985612217592272,-0.5424699033448444,0.6174653031120839,-0.24933481013563774,-1.820876784282451,-0.9646008209811867,0.15249880009045402,-0.7762366173034997,0.7500283989232002
-0.658479369883136,-0.6668564633553958,0.6355847703426734,-0.13727495675893497,-0.3785488263817068,0.026157106739422144,-0.6627977792078938,1.494678972134543,-1.3720499521286627,-0.3155780077155715
0.616272014071393,0.10794885465126432,0.01740437961416986,0.1637947362999891,0.029302586403062457,0.31775954314360194,-0.17034618597965928,0.3734534978963653,0.2783314669134164,-0.1155317974081104
0.38551142935432225,-2.8805431595608874e-05,-0.1864052812471028,-0.4309007385165359,0.6853921388118717,-0.5933009577056291,-0.027418506005462275,0.7140512861708244,-0.124323712376016,0.4157485620971734
0.7748216725404832,-0.46915627573387886,-0.4719909957691665,-1.3466381689019,0.24172666184791664,0.6020126312584815,-0.5764413536309507,1.0636774109191955,-1.31175871775373,-1.2110360632356347
-0.3357835392533315,-0.1302411731066608,-0.01910986226063878,-0.24809564831888892,0.9387192901438932,0.33028060734110304,0.22685439241988978,0.32765021875749295,-0.06423182123223602,0.16647283878325608
-0.46684468452507505,0.22600285293475514,-0.7837539006830433,0.6205653559980441,0.9079193983125093,0.08733559118260292,0.0917932193230371,0.2143415900301491,-0.07504392368768947,-0.09046018030763511
-0.20410483807770363,-0.6008383952938845,0.05739326495806374,0.10004131574953504,-0.3782676677706047,-0.2139334939499073,-0.9738269756727096,-0.5532553904092268,-0.35842906987514234,-0.4674843723206397
-0.06679012950636615,-0.07063658884545664,-0.4715236351868048,0.33994837830736596,-0.45912219238299246,-0.5485652925247282,0.7408879117128807,0.4149043344017145,-0.4608061960359044,-0.014798387433728551
-0.4227317317026622,0.5425845275356084,-0.3335002027506676,-0.3037684620282864,0.8826422522472923,-0.14010921277830776,0.9494291531807394,-0.4338219830891939,-1.086831122297928,-0.9819162508118355
-0.3960202255900684,0.4625315608499815,-0.3980689042333922,-0.3037544946827963,0.11573698325932584,-0.7096455832429813,0.8960985844282987,0.22977794749501715,-0.7094939246073304,-0.12958926964432016
-1.7418891400774779,-1.9355187911938199,-0.3032025917392158,-0.38046551477848056,-0.7171063929366013,0.05115584346396128,-0.907140473479681,-0.5113355783248993,0.43151352651888214,-0.4588047592832649
-0.5665599288398294,-0.29150325914986397,0.5344802379711994,-1.3191993784371494,0.7822753196387907,-0.7407264624532631,0.9316613122885512,0.6187490544664456,0.6449364246044023,-0.7114227341860899
-0.7446905476902291,-0.5658324474682996,0.6762540211782053,0.08312958491443416,-0.9862467707629261,-2.237641300517758,0.6155775087280692,0.09854632385756522,0.3392665760101528,-0.09091598911743062
0.6584342841832037,-0.1798650976418338,-1.3329986248501944,1.5679925485810375,-0.4804239843666752,-1.1798569283549338,-0.0037542524613758425,0.3881861194374332,-0.16227652137143964,-0.3828981284268755
-0.10643001203669149,-0.5478392975428046,0.17997737459917332,-0.6499417157771066,0.6737193044127952,-0.43987561266332376,-0.6869190858568116,1.0559175078883294,-0.3926633682026976,-0.6729450550190841
-0.5739607634845505,-0.871192154946297,0.8587664062301692,1.8108510160533762,-1.1654176220902634,-0.1609792982240787,-1.0091972295693297,1.0431875740820156,-1.7837134867138413,-2.5101535048573127
-1.3272608411032911,-0.09766028589310474,-1.0959792634053358,0.4109212769160838,-1.0365177586789527,-0.18720289497204895,0.18356421230922948,0.0019310833526184094,-0.12860144185973027,-1.3533220473262773
-0.47917032329888715,-0.09568660809927299,-0.3600576042953776,-0.36635302277189463,0.69868165322341,0.17915343386517993,0.8663475611273049,0.7776436313778577,-0.49234060909060573,-0.8727662117161153
-0.294883135334806,-0.0095413375851817,-1.1148977886263411,-1.1673165283857254,-0.15330383929422933,-1.2708960909820342,-0.10991875997530186,1.3163284999978602,-1.6081093083842823,1.6057380779504364
-0.1999318875549108,0.17774434742822862,-1.200162265046744,0.2544864519386487,-0.8509432469561996,0.40417557658183645,1.321946306478161,0.5126454151872626,-0.44669178368397866,-0.4942735795439071
0.49036311357081036,-0.3521732997748188,-0.22463701258626753,-1.2740300514860177,-0.8773697297996136,-1.1431737468873049,0.21729118397475247,-0.887267115852083,1.0719099023443412,0.11984245019291657
0.04219428639778838,0.17870871439440777,0.4872351712152248,0.7412770252606938,-0.32038037079651244,-1.0066029979790116,0.09039083209343662,-0.544011013785617,-1.4186606037224854,-0.46514946691917225
0.6356715073409153,-0.08332435501479182,-0.5914461927988712,-1.4599813827135628,1.0064590758069776,0.9239674599360007,-0.5376797429213316,0.34400752838836174,-1.3779821155737249,-1.2475279378054822
0.16720971436854476,-0.41860851485642386,1.1062545277725824,-0.20348019405673695,-0.24904193788989717,0.059953518032657596,-0.9611923810502206,0.013102220307960762,-0.681254352581282,1.4732331611000438
0.396848604360776,-0.49489993457055775,-0.43034323080679215,-0.09542083771391636,-1.3335861352736509,0.044091541905305794,0.4121340119272017,-0.22173812595965522,0.07969669112333043,0.12846739425357728
-0.1282726162589421,-0.6990774807918424,-0.8347686363618894,-0.7737487208957579,0.14607709253038526,-1.3450417348266124,-0.1585417197363275,0.18119180177502306,0.40908651443288396,-0.43519517516406564
0.6994960605899802,-0.6097574582571067,-0.2150828329204743,-0.2235299729863497,0.377142086445738,-0.9725304891307668,0.5476872253153326,0.009081178230648287,-1.0712118425048127,0.06637497722517725
0.1247989723395879,1.014748704182699,-0.53234240661484,-0.4983406050571093,-0.12199929126406607,0.12517173467868453,0.19969234570007657,-0.3124231209292202,-0.8085037347565805,-0.0593691763288233
-0.04330645173440597,0.8530242520349824,0.24056660850733635,0.325303205417288,0.021090975493337587,0.2618492489853131,0.013640679101837238,-0.4686192115359688,-0.03789423257105992,-0.3013233346336481
-0.9338682738097264,-0.3507216257789986,-0.5275126274930796,0.2244231885595564,0.2318265169333544,0.3042135545420478,-0.23956707053986498,-1.1525959478080638,-0.3234892942932162,0.21601647485673953
-0.6377122462477607,0.2996681547130435,0.11996264446738981,0.6894495177635553,0.8637359385424107,-0.7929689842020421,-0.5356361386357462,-0.32902279046640487,0.16363276799685783,-0.8705336817668703
-0.8852717310907877,-0.14267695022733567,-0.1928010833610605,-0.33244697132506307,0.30983418769544774,-0.2615581029608503,0.45918751673732094,0.2675804636344505,-0.4113613964920575,-0.47560572044625593
-1.4884962480216561,-0.036021952724729335,-0.4430782542464289,0.4664600781661795,0.03596122037835628,-0.8883814672172725,-1.0048547231527183,0.29046834992463577,-0.9934475827047412,0.3325864288353717
-1.1170933633318412,-0.9616390080063276,-0.7743003053103177,-0.8419579861587854,0.7947137814251257,0.5498058144305076,-0.29568490342801435,0.282776091338781,-1.014182287422927,-0.057512305012798554
0.4624787978387632,-0.562019651712028,0.8006414283273832,0.32465877519395386,-0.7217228283846661,-0.3770692213319331,-0.7491310664352533,-0.7413750378842163,-0.6090694005233238,-0.47339233821616217
-0.6463772592575577,0.18899954123934595,-0.23878702447320502,-0.14316384763088694,0.2177651135433855,1.573392376694712,-0.5472684773903906,0.18728163177084423,-0.12385909148506863,0.10495735747797988
-0.17616014683918177,0.028919131851983967,-0.08219888345832554,0.4942756508907504,0.048352880619647036,0.5436861592998605,-0.16806643903930618,0.2866198041804208,0.6645771102398279,0.4486308918067281
-0.5253740060734992,0.2865554944149011,-0.44177737318018606,-0.09064153846828685,0.3951885594656899,-0.9467625623479106,1.0137127407024393,0.010534519334208533,-1.250685789232066,-0.9704329463721251
-0.2180290773699045,-0.28876499250340487,-0.06408986933500195,-0.9777716618155683,1.2363650700941162,0.5159952960524193,-1.7584767719306333,-0.5546219318901383,-1.7174359700762307,1.248982542023178
1.1865569617231557,0.0838541943596616,-1.07220956837248,-0.4423174496814609,-2.1468801117984353,0.5836394598761124,-0.8185943952509186,-0.008859901345191053,0.41481670368414514,0.6977837663009995
-1.110834446385522,0.1717195294079398,0.0034795632640293,-0.3919295800882799,-0.7618300461383991,-1.005127455745347,-0.9331613253344608,-1.3979276405697494,1.1115763823882676,-0.47769182160760515
-0.9400750176231568,0.03977093545699727,-0.622486129679894,0.16769872723961501,0.14281849490732892,-0.14336033990061642,0.12566082390868782,-0.5408332306569772,0.29033280607541634,-1.4671329830781707
-0.2667707620620555,0.2697611098099313,-0.053545524180724,0.005600995644612195,1.06554738576648,-0.02875075378370969,-0.5161590492822657,-0.5059606380770465,0.2701103414623161,-1.070785497540633
0.31087150398956154,-0.6449960284286654,-0.33579774677582447,-0.14338582944022163,0.39607066837255056,-0.4145844364782872,1.0535186657007853,0.30870368071933596,-0.47828553184961015,-0.36049076065714464
0.7208859360018289,-0.6027926965418651,-0.7666298931751885,-1.5710944294785416,-0.1423409306086216,0.6720228987169518,-1.3450907986359808,-1.2984638001653783,-0.4005927849222542,0.7709297902667839
-0.4333989334504467,0.3860527242159057,0.5368114358238009,0.014985522137430492,0.42377947822770307,-0.319879850790074,0.7949783554201175,-1.1042662247225308,-1.1773788635262452,-1.8449659345387073
-0.3986252569732124,-0.028037519912414047,1.2780033312178225,0.022702346098900487,-0.4060418623974166,-0.10712657250852804,-0.7096006266847823,-0.21043895581722197,-0.8657486114038013,-0.1621302556264211
-0.7578191848405179,-0.3950706856908233,-0.635910516234653,0.2899654552721401,0.13492545076775844,-0.20900930216901378,-1.3219286781387436,-1.549966709335894,0.8488692840482104,0.3789239895072746
-0.6346708925732824,0.2379550987626113,0.1043643431625673,0.3435327711119411,-1.6270482171809793,-0.03482191147928504,-0.23116276113001827,0.38661726472764935,-0.7016562225311082,1.8729950763360503
-0.20716300818138642,-0.39138235064070487,0.5143797803693635,-0.4461093940762342,0.12008112473493392,0.43487632081771016,0.6784462788221368,-0.4189324916373569,0.16370641960967922,-0.15269179659277543
-0.4506579484853991,-0.42152987114242385,-0.610706299602067,0.5607901310540009,-1.3501117207670155,0.18513224303274195,-1.3601711559219258,-0.5157500176401851,0.518264400644595,-0.05566152559336056
-0.29514356429684646,-0.7318094483693941,0.13239960849221336,0.1954253480030772,0.054638422898238496,0.4475902991860486,-0.3653651500401787,0.24302575578035512,-0.0526085510471989,0.11249707934298893
0.5232104040474546,-0.5195702643609077,0.4076433394868807,0.2582510686191182,0.06428477707011115,-0.002226027557733779,-0.3947051594354688,-0.4486057039060168,0.39796843278799365,-0.8640259385271339
-0.2477722559353294,-0.17797929657977252,0.297670489043775,-0.09311605040487965,1.4905944208496105,-0.19935530087544398,0.03214530685711976,-0.06576255712334589,-0.016456745254145796,-1.0076299134735653
-0.19828380715381153,0.9119038292002297,0.5019777070282058,-1.1452843161793647,-0.5324462013854839,-0.11908815906686912,-0.015815122767250778,0.7483354853034808,0.16821059225109125,-0.42539346239064973
0.2568373237105661,-0.8068732085669063,-0.8612489569455303,0.02651665020715308,-0.35767773362006605,-0.42780931257825766,-0.48802679929747633,0.005437647314284452,-0.5650287612363327,-0.14770295246086443
0.26229599257428854,-0.8949031793877446,0.2678077283956081,0.24723243421814495,-0.7183396149080709,-0.11620209899075983,-0.057182078101717826,0.20912435557516482,-0.4515850774745779,-1.2020087752065796
0.08147249555414342,0.5641296867493444,-0.11356960002819998,-0.9426883871560533,-0.05078891409435541,0.9198419444727695,-0.5097232076225734,0.45918004642725035,-0.3477253403663331,-0.16876143264089535
0.5241937199044828,0.0032204228304735277,-0.9417846047856574,0.47824790894327324,-0.2593768860117139,0.6948747229216209,-0.7690553022100063,-0.7358038141383865,-1.5178832444976151,-0.1345625958002921
0.8509054992073449,-0.06476740559431363,-1.9277452844932914,0.6505198634106675,-1.2594275026683366,-0.1456624645453565,0.23162372548200108,1.3265682801681602,-1.2561685840199635,-0.8027145118543985
0.9361519217544452,-0.5413061386765232,1.5672413079705547,-0.641926089388948,-0.4646736469997893,-0.9106116458563628,-0.5257718709050799,-1.198701986108866,-1.9149874038223866,0.9364684001360926
-0.6315726075585899,-0.5254755205235212,-0.13594608907067166,-0.05919796810423182,-1.0621736730258118,0.6133188998602597,0.016302139463271408,-0.3035986087708091,-0.12215706610354492,-0.7194769863741103
-0.16026025164450064,0.8791447809002954,0.04186030108635019,0.05655107847726815,0.021301451018084346,0.23025881263287257,0.1516904906368242,0.051500136141836884,-0.3053739969278584,0.0955813861551037
-0.4937859303671802,-0.05449724986608959,0.435023805648806,-0.4708519746822248,0.27099941276154926,0.5244396322021447,0.28353701250312596,-0.536578681804917,-0.1914779267986833,0.23875799188614039
0.29532897216751136,0.5171109418375955,0.4395346480866996,-0.016856082722435342,0.3883587097607866,0.6392812457125215,0.014854884650256731,-0.17050985898568344,-0.04057008348735743,-0.049526721370533724
1.3277471611505687,-0.0336205373904283,-0.4137438334574905,-0.3364379635725772,0.2384501043226588,-1.4930832624848869,-0.7909376698495179,0.12566752412313653,0.06440228273530893,0.2220017567497735
-0.5037683120227583,-0.8847752366451569,-0.13657347851530474,-0.07824230106316792,-0.4046002569343036,0.12254709709267682,-0.2927224135713505,-1.162864905564531,-0.004529668042411674,-1.037367963327548
-1.0405270006556722,-0.4511041718177779,0.21147055324123137,0.08855126159405424,0.18291251521378565,-2.666112939736838,-0.30895428467934255,-0.9016760884660565,1.8826201228408526,0.5059896578538257
0.9267309035346986,-0.331059788459875,0.8487764720165756,-0.952639392411307,0.6041950338763966,-1.05984493038443,0.08664357375085055,-0.37540448694533396,0.991526262734411,-0.6778998637209845
0.001237670767046306,0.3974502115241707,-0.6409460235165313,-0.2424958924159767,-0.06113956515375698,0.6524962049633228,0.0490957717435149,0.02426615395661051,-0.13300063867312922,0.5479077362425192
-0.2640809633104187,0.2513799087358487,0.5661867386225365,-0.22950117238669834,0.3294979348895019,-0.5254392637030604,-0.32310616977809525,-1.2164885114807868,-0.1229696720987781,0.752264801405562
-0.22144972965962922,0.46309680401380404,-1.0046723761936587,1.3226772310078738,0.00458111067087342,0.6643795387180481,-0.33700548451307677,-1.4764390624474495,-2.2623038622909553,0.5160356242086994
-0.1047547936472465,-1.2599994352162365,0.915254164119754,-1.5692089089070367,-0.7900550032932394,1.0192013673694502,0.44743504334743744,-1.7651983394571,0.020787868744308734,-0.6413201594452288
-0.39936395071056746,-0.010868239273498028,-0.3603459396466374,-0.5340783221598348,0.957693766226921,2.156367059944448,-0.3309493345057745,-0.15283602260892312,-1.2130654833469083,-0.6784772222595656
-0.3248642952206361,-0.053808070913003374,-0.0141752038710362,-1.2188564449989054,-0.09796491173522083,0.9510309663397571,0.146519620438067,-1.1087932372368066,0.6769977956045844,-0.4382213978533295
-0.08844757278120957,0.5858879254448932,0.40152333508084775,0.065191733532464,-0.16866257890741002,0.3003344030123882,0.014177600842788032,0.10728426952976516,0.15007384126191642,-0.11241170703820551
-0.24117992354096338,-0.3754273498151049,-0.2709871449333962,0.8358535009267976,0.1533364574427401,0.3232372606824352,-0.04942837116229578,-0.5657531065030346,-0.1427734217166406,0.7378547436181454
0.036978916566692686,-0.14638004812294267,-0.5457811556862298,-0.17926690410450932,0.9083065106632188,0.7970979187304426,-0.9347992403950255,-0.06212308237067001,-0.9011814056140727,0.6459496047599957
-0.007398013759498022,-0.6047217545139157,-0.729779695274267,-0.6408157864732849,0.010485653135009789,-0.9261118114888859,0.028563235097484093,0.612602322821471,-0.33482227388801494,0.06464471405424688
0.26651273621700433,0.07473302058014536,0.006977049462902584,0.5013456206136356,-0.11412140540401808,0.33189679844417447,-0.2443801203698597,-0.06171851421411902,-0.08843350103546137,-0.11728715071478354
0.1785302633852474,1.2663235156693133,0.08839915973162896,0.18313642491054474,-0.35901740269980315,0.06109628962743572,-0.12294950141459224,-0.47447386798937236,-0.13210737600852956,-0.24610522121754222
-0.7318095366801624,-0.23963392324652744,-0.5948679916726411,-0.34075173251554347,0.2151087585895926,0.8390160425648476,-1.2917561279222887,-0.4103346311042,-0.8035026260905302,0.5709915470343653
-0.9342908671949185,0.07727535337292014,0.1331096996861903,0.659741083926668,-1.5598599983853887,0.6345647209387172,-0.27914539099722324,-0.480711032069311,-0.7401595789923986,-0.7296839506279658
0.2485480918439736,-0.6474223901107942,0.5949640065561487,-0.5450840097542032,-0.7325017228678978,-0.3283452489391875,0.8760241746410924,-0.9820363752779511,-0.8076068232446274,-0.04852892402333111
-0.44593480705677135,0.38027702399864316,-0.7440962289831299,-0.9865119283579519,-0.14433826774093136,0.08081120755730452,0.10835193448686493,-1.089768545652799,0.06746570186419447,0.8584460455016486
-0.49600221738880085,-0.3517374767135976,0.06839953871422677,-0.5491586783914706,-0.48760877138611575,-0.031849445475768456,-0.189418765123756,1.6077313297956595,-0.23633622805473434,-1.3344517470092776
0.03711728275226077,-1.0653573759470658,0.24082416119247096,0.39879323860785737,-0.8399720873075096,-0.5337145552562731,-0.4083233500251689,0.09534325218571921,-0.2433194291520498,-0.1727316795705836
0.21614535342844984,-0.7662887489384274,0.22692255483038548,-1.058023628438371,0.6164079828956492,0.25150329442118186,-0.4447043639277074,0.08868888930067462,-0.23385157050546385,-0.6859196216564661
0.06147504803892101,-0.29366697200741065,-0.7318595149188177,-0.4997387652907302,0.5194102612932002,0.837813661417796,-0.9167138243147616,0.896155399547509,-1.5460030099726882,0.006067680366540379
-0.5597918228810165,-0.26671780425666,-0.6985783588897366,-1.0424862350161945,0.9460030249350878,0.09866324389078741,-1.262482515950709,0.3137027722640716,-0.10383215072197727,0.5982660244107353
-0.22469734820031972,-0.33513566832149794,-0.06757892432108303,1.350830548978526,0.310202218196097,-1.0642279225781506,-0.40817892439498993,-0.1884942949579299,-0.49667514556113584,0.0928541381169069
-0.37370105178804097,-0.027595588857622776,-1.142964530891209,-0.189872513430897,0.8521361957804856,-0.6634009185035953,0.6230307890336313,0.521233998325556,0.16879559053448473,-0.9055313147841156
-1.0404351440422959,-0.38127600176268245,0.7724995715265935,-0.14107053732210675,-1.1765216049201457,0.49849557227747604,0.3321401854351915,-0.7842428173891488,-1.0756710974229198,0.7822155716983856
-0.22497605586229788,0.45872322450518965,-0.6408885648904299,-0.9022847854338658,-0.2428179322997885,-0.9139697596526879,0.011487599520009599,-0.006777639557278583,-1.0828659273746055,0.631381740330015
0.8440282643889688,0.03140033367018655,0.5365761134882648,-0.022586220800430244,-0.14890750709695094,-1.2482208614931523,-0.9619655623977551,0.6041902119018714,0.23043816101253242,0.40811102723632636
-0.9910179178207156,-0.11436946166544638,1.3655559189118622,-0.712031521277095,-0.11865997011982167,0.6508223912600867,-0.07420597619646555,0.8583023819039275,-1.1414291146173048,-0.7283576034800605
-0.3463241114566536,0.6642147100269594,-0.039081888983352416,-0.33039799785139773,0.4136461334575837,0.295913521699843,0.06635494702491422,0.5580797048114867,-0.9367499422442853,-0.7309905134290114
-0.21001992619493995,0.0005604542585669475,0.4007019298544344,0.9361219214548295,1.5508172384596397,-0.807374943376174,-1.0960917630391074,-0.5112805057671992,-0.9347466507428288,-1.7965436835414383
-0.24800231619439753,-0.013273227061098371,-0.16270414679084277,-0.035431372040876444,1.0092268506321023,-0.2913156233632051,0.021343166938620258,-0.027153064801622863,-0.4088086057353385,0.2688689660713081
-0.4271570164373784,-0.6605095473593863,0.18300191817097977,0.6418618348322729,-0.10709677652633284,0.4800247340889959,-0.7260636253675297,-0.21485876688448044,0.2603282691033499,0.07451942777838833
-0.6297509626754586,0.5954813977057466,0.6605195367975157,0.2811611470799371,-0.5451594288374685,-0.019299279622623792,-0.6125429427638901,-1.0126288295956407,-0.4099228973728507,-0.7437308249718227
-0.1786424599676631,1.4404097339620936,0.13964770768871712,1.069401488711505,-0.3694090306971038,-1.0829675448625589,-0.8868699756715159,-0.260542993396539,-0.4746802205932622,-0.18000323413403263
-0.024094713936779,-1.4214485501911065,-0.9459444345677969,-1.3077594093647327,-0.16216921453812333,0.8536822194166469,-0.1662808643654605,0.16252754471584288,-0.6789609331614096,-0.990174901684907
0.6303531246665495,-1.2834459137479095,0.133824303586125,-0.8951160901062727,-1.1347635628701407,0.24873876105312615,-0.1877699644456335,0.513873455903026,-0.8941023224931397,0.24756062237711907
-0.7984744212162032,-0.5452187150208051,-1.4159849384526602,0.5436879464737863,-0.7636016016019009,0.5659057244720612,-0.7166540100519381,0.5538679583595247,0.14463756092712074,0.3746962379637318
-0.5796315736383035,0.031348355765583806,0.07998451831690416,-0.0009570940716451683,-0.2522981244376217,-0.03660040621481969,0.3858103407842579,-0.8721522990436211,-0.8904115107014454,-0.4933808748434445
0.18562505451540112,-0.08123440580435766,0.7539860033389056,-0.4251759751376736,-0.8614339562769283,-0.47535079848207695,0.270888656555246,0.26722231018355613,0.6026121716731137,-0.24016100487618197
0.791596423125996,0.6168523126362646,0.32567376338310144,0.20064402239183612,-0.4531612229327162,-0.029506252733470944,-0.34551272874089034,-0.11622994085850864,-0.11843388008064112,0.045262317577388494
-0.5645383740109687,0.29413412966350655,-0.3392406558811135,-0.9802199113285428,0.524328963735212,-0.9868382144804161,-0.1324558240182525,1.1064653589927016,0.23334126919418002,-0.11907102083939045
-0.34059956472480574,0.8735105578405138,-0.4904222086758713,-0.8321743979447955,0.014072973226430687,0.8921653862392079,0.8476061708353761,-0.3510167822039444,0.35068946532605466,0.14478599343884863
